[[-0.5177966449233011, -0.7119742624602979, 0.9752201124396614, -0.4887342419202335, -0.6578685909492257, -0.7105910160437241, -0.7036229685407056, -0.6561602528811123, -0.6566398118490501, -0.7040886903756279, -0.972075593500332, -0.684156377455985, -1.834088995618887, -0.7337046182907974, -2.3991453745992923, -0.7278489742806944, -1.6922144181139884, -0.685311449150726, -0.7036320551097389, -0.6372538500844378, -0.9037041757171497, -0.539217430355031, -0.08416809947664998, -0.6640144858868642, -0.6928523516208658, -0.6852462962681005, -0.7397589235517352, -0.9219983747909781, -1.9750754831068136, -0.6523498072353595, 2.254852128266736, -1.7460024737984037, -0.20216670367677894, -0.6734467920022862, -0.5983949229870503, -0.6986456423140411, -0.4801709504921915, -0.6204844901492006, -0.726830931336667, -0.716432435593041, -2.0972807691716553, -0.15265686258425631, -0.531458866561708, -0.6506403279657139, -0.7029087096473235, -0.8789754042476227, -0.661728507788056, -1.519429515922151, -0.6379229987790815, -1.6130123243252494, -0.6185416717944586, -0.45486000240703367, -0.6855205480212323, -0.6860887765506063, -0.6811207126482711, -0.58994141302669, -2.8841228705512747, -0.635131783677723, -1.1014683809357524, -0.6976310405315982, -0.7275239369763493, -0.5538335106929124, -0.5970166935957095, -0.5805974643201434], [0.5856954159454383, -0.4445733175587732, -1.2809548042588352, 0.25793993113095764, 0.9600003971252059, 1.2313583631643625, 1.1913817614088305, 1.0259588212989987, 0.9841660096026255, 1.1332349786728595, 1.3966446955965248, -0.5615614022638501, 0.6365911421205673, 1.1145293043295474, -0.5107165868276693, 1.1573377579836828, 0.49562863902046095, 1.080750009012898, 1.102650593025069, 0.9857202547118427, -0.18796510382500994, 0.7259779456201609, -0.7896700174142467, 0.9338280961600088, 1.1387027048531382, 1.081484652828462, 1.2189328156650658, -1.7791364945622048, 1.1455163781304005, 0.20461512197515808, 0.8267233594136948, 1.5107676323198374, -0.13993764589922159, 1.0078598180848668, 0.7567808991382462, 1.0614484100236796, 0.5076298200241913, 0.7810167078999797, 1.2723446474362043, 1.269086072827917, 1.422258775725031, -0.07971182675139181, 0.5733272005286398, 1.0027818103235497, 1.2067979090352592, -0.7556704207889409, 0.9800850930168825, 0.5175754260164013, 0.7447188928706157, 0.7623445383317656, 0.6422520608407392, 0.34713905154458224, 1.029843484212665, 1.1047488543528714, 0.30398941852941525, 0.6765651931610043, 0.09174349091953289, 0.8953691302932199, -0.7938260048302385, 1.1479748236392817, 1.1979275712314648, 0.5218730117109541, 0.782040469948317, 0.6135882117031889], [-0.0666439136288509, 2.91185498036672, 1.1026699605877306, -0.21123453952510507, -0.09496005189996488, -0.12684640918660361, -0.07153130436795653, -0.0667678679475612, -0.09425668173408148, -0.11522297496753485, 0.5715566070175061, -0.6916951353040265, 1.5086685727259679, -0.181864736595451, -1.325908412431392, -0.08888062195813892, 0.891628673602237, -0.06464468261558398, -0.08154833016169481, 0.0012140371342244573, 2.230129136582329, -0.007195354956032348, -0.013391070854656947, -0.030665149762206828, -0.11848531085549877, -0.10844308720356183, -0.17795212205684338, 3.2775698038556875, -0.5532306267516913, 1.121540431788702, 1.945217908080838, -1.6194298461021805, -0.15407638830090828, -0.13441502866451777, -0.11416252960422489, -0.09192984626457522, -0.09883019281193423, -0.12061181016601667, -0.10309953339388364, -0.1296000346479906, 1.5751709553890403, -0.2078082246121929, -0.09283347875793937, -0.06016986919436058, -0.1045239825890499, -0.043244088488143026, -0.06258457953931773, 1.528935085483406, -0.1294015344147792, -1.6994373338859636, -0.1596482054120895, -0.14561909005056334, -0.10936428793175872, -0.17279498928388334, 1.7075900421161019, -0.11909940344786349, 2.037830341697104, -0.0907914145520836, -2.558320367008408, -0.06856183780256556, -0.1068254878644233, -0.14761327609018038, -0.06334859043648437, -0.08535169467427793], [-0.15254046335385463, -0.5574073796186422, -2.0318540972958377, -0.2860307525792307, -0.03585945177031782, -0.14982619716308268, -0.18844931798963618, -0.005177286452696635, -0.09811000941345403, -0.1107052041139544, -0.7392897457198121, -0.9178770157318011, -0.58254859004451, 0.014361383722771346, -1.652311271721439, 0.007992481627425425, -1.6362444752148495, -0.10515432424374918, -0.16879149528106077, -0.05058313786878702, 1.0692276579687765, -0.12325269024623432, -1.2521982806218959, 0.13274476907049457, -0.19627169703621267, -0.1426533295325039, -0.2548032967353136, -1.5801436368827453, 2.4607000717397414, 0.26545652658393565, 1.8238295428306575, -0.9294354450199278, -0.30335253374313975, -0.040658551870742625, -0.12128512975432157, -0.1112817413398864, -0.2191171431409443, -0.04068800410720684, -0.12602785031469915, -0.20668898559350005, -1.1297909195677056, -0.7891741710455251, -0.19256118262458852, -0.0707247363584224, -0.21440681283946136, -1.2467473125256143, -0.033123777016941386, 2.1618161055548932, -0.05108323748009508, -1.1409372582779045, -0.027484872801642746, -0.4411896709796358, -0.07508661669154212, -0.1584360357365437, 0.11445707976568277, -0.053716882213905234, 2.6530476463190245, -0.05396539592888634, 3.120596574602448, -0.08552165707638341, -0.018702736788039055, -0.18740762168339764, -0.10714707149146122, -0.08522694500296946], [-0.24768056532888566, -0.7145267103778238, 3.1264705168274394, -0.4109122964861222, 0.0850723710044999, 0.14601393777834865, 0.13926843519767804, 0.024415184914670693, 0.03127280748854334, 0.1546214688364357, 1.1580108003715062, -0.8395742770009944, -0.19175549776363005, 0.2824326249846514, 1.1344317684837446, 0.09628630671103654, 0.19479544595094397, 0.10176186172149736, 0.17078316982362918, 0.0276665735951824, -1.1165171088917816, -0.18134451547834984, -1.4964363629248196, -0.07872910901038438, 0.24367249465090204, 0.1907623439845145, 0.27118695452194036, 3.1928498441822875, -1.9771593201131807, -0.7802542612120672, -2.1959718998134474, 1.044424449577469, -0.8576033399164853, 0.19191707352447485, -0.02815390020563017, 0.17998082844433078, -0.34469260318395056, -0.05611915116127426, 0.08292222088615614, 0.1954926362796033, 2.022808686789479, -0.6555290119232756, -0.24639517312168935, 0.03851853337142237, 0.16292635239614192, 4.671565591583085, 0.023598003533705784, -0.7761836331473199, -0.0223760135021414, 0.1310055305198922, -0.12830961809768224, -0.2941217657382399, 0.06564065722974817, 0.2948691675450944, -0.7515901906357553, -0.18207622358777326, -0.8912298930732343, 0.05511862838119279, 0.5523696131442477, 0.1467773270121604, 0.08271903364141758, -0.1830167467619033, -0.09450831173713817, -0.23952859192350048], [-0.15913435957523311, -0.04694312028503047, -2.964480927080342, -0.005233068759370208, -0.5878983865938083, -0.6081719461811039, -0.4926308726119224, -0.4930040966441533, -0.5470107336957353, -0.5825721460995895, -0.7425004812792747, 0.13721211400886846, -0.9349981377792326, -0.7857176361044776, 2.26899464175702, -0.5324271824853154, -1.9249632643059222, -0.5599632020737367, -0.5496519428283527, -0.4571628724390852, -0.2873772399456491, -0.22898922015637924, 0.6354818744826599, -0.5526746049034548, -0.5549339661327435, -0.5758037182834616, -0.7219781567800999, -1.9610197458029577, 3.061158117344104, 0.023853524514760346, -1.180269510116927, 2.049166456476009, 0.6815197747392221, -0.6396082675350176, -0.4249053907147392, -0.6130047746742857, -0.03455265150690759, -0.5028726093439065, -0.6113743494566853, -0.55724454924066, -1.3065600408438849, 0.5881864973272838, -0.17251566196125867, -0.4598828890950222, -0.4716963086694044, -0.173057793407874, -0.5646928474560668, 0.786934960439717, -0.6835730306541565, 1.384539482788039, -0.5590738352695559, 0.030324217727511694, -0.6063224230332972, -0.6240160127093888, -0.13678638412971364, -0.376708912607995, 0.4323795309605316, -0.5421789509466631, -1.7915631925450606, -0.5425133609575717, -0.5777532818450388, -0.26010240182452626, -0.4344189704131349, -0.2356977746464326], [-0.5199378731065512, -0.505624322268602, -0.8248387496618195, -0.5392499980313396, -0.5131254699453739, -0.26949931026353735, -0.33658816093744254, -0.4785436338363493, -0.49723755056719965, -0.39912976923304866, 0.15929181857145794, -0.6413875314246218, 1.9215930969179873, -0.42040205283822496, -2.159184596398706, -0.40843987539787313, 1.686810632176908, -0.43338827164899957, -0.4434832729402584, -0.49160357648638114, -1.0045675189976955, -0.5301761333641122, -0.7932473594554249, -0.5055026565764025, -0.40111086605297314, -0.5065758390216054, 0.03433405079703446, -0.8537675339507459, -1.4587303551060031, -0.6583034882704702, -1.905123631835893, 2.9184767109015795, -0.6296752964255513, -0.5181450523143208, -0.5370475245202875, -0.47023257267313784, -0.5292308225065263, -0.5579456067897572, -0.1257600499981209, -0.258576259688494, 1.9843788127126478, -0.5620638291461422, -0.5311667060827786, -0.4949398124226637, -0.34785749506551455, -1.1311604221771518, -0.4955133230648961, -0.34461916747687793, -0.6155564376913597, 3.1421521558112193, -0.5888949125783691, -0.5298622958739975, -0.48982413885682663, -0.42386854331986773, -0.5034361404174365, -0.5355107900523022, -3.9931869891635574, -0.5302852506869797, -2.478679240260912, -0.4107253339164122, -0.3544943642841471, -0.547283796347219, -0.5229010685202936, -0.5426008897989077], [1.330183081766486, 1.7213713029321498, 0.9534733646922039, 1.6735370031425916, 0.7901981303189342, 0.5250679686115792, 0.6678577609633268, 0.783173883950151, 0.7197210246814715, 0.5609829314199815, 1.0906016748130576, 0.47910955722880216, -1.1957137974828667, 0.5503332297026513, 0.8095538513738629, 0.5983495075102624, -0.44153614517827094, 0.6614585221774165, 0.6632235728846122, 0.8969460200574131, 1.894519452061766, 1.1550488242850745, 1.9689844322164307, 0.7657013884796849, 0.6978008035084571, 0.6562915548415464, 0.4477766247734707, -0.08964463779817027, -0.5814634616269906, 1.531007238976379, 1.368261168566425, 0.2540928152281104, 1.7977231731824426, 0.6850729750350415, 0.9749662010018234, 0.6367256901075863, 1.481152044372767, 0.9225665808160017, 0.3885911215131109, 0.590797234680416, -1.6285978482794445, 2.252163445114075, 1.3161137184872904, 0.8386722799217993, 0.6132748561046456, 0.16625816963208087, 0.733347621007152, 0.4100495051471829, 0.7233102162272159, 0.7191745294033671, 0.8630420073253543, 1.6553045723615936, 0.627972652310735, 0.6680928163729338, 1.2607654842163964, 1.0494427643410087, -0.44942006625696396, 0.8713357117808531, 0.3043136726505552, 0.6452276537581612, 0.5087611272223244, 1.2329653194186456, 0.9571463534212158, 1.1681279280058785], [-0.24432267882692232, -0.8513446784267448, -1.4185387386784596, -0.22334162152886414, -0.198489941160186, -0.24145895717804725, -0.3385163896605997, -0.2902853583958454, -0.17514657653456592, -0.25476915831878605, -0.46066916771816613, 0.1941738536460006, 1.6280212429325238, -0.02523939827852372, 2.0697177339111397, -0.3469402239813451, 2.6325408864316855, -0.19260206618246453, -0.3047923586771398, -0.3173917044411869, -0.5697437840776711, -0.25094438743775066, -0.4972142050151279, -0.15286911133657324, -0.3664540879500958, -0.2472625800997566, -0.08244736952478454, -1.8127975501800329, -1.264086696955702, -0.545071064972951, -1.5179752775184092, -2.110307715722439, -0.6231053734480118, -0.22668914225372444, -0.23586957394129454, -0.20776345898838944, -0.239934567109524, -0.15916875714745363, -0.17338312707571724, -0.391969681264436, -0.10089672629447657, -0.45960635971842173, -0.2077458236438512, -0.29773406167680444, -0.384490176393985, -1.8796846257332211, -0.1875741786023382, -1.678692535621055, 0.015928256952740985, -0.39351276058116486, -0.08238541183879568, -0.23707449257088825, -0.11702121961140123, -0.2689951198243684, -0.5424200027713353, -0.20143290534143413, 3.674500268690937, -0.24349896453268524, 2.4864876085247243, -0.32289296618894936, -0.23248820376660745, -0.2084722761306982, -0.21594888273960122, -0.21299428630623185], [0.0017685220897133772, -0.8164451882807178, 2.347349208119, 0.2096049915367284, 0.2719743085287383, 0.2219873584755294, 0.12502964975683428, 0.1527410739862415, 0.3141307518264712, 0.2878391437242288, -1.4134657043069532, 3.533233979828482, -0.937250201653879, 0.20471740665748442, 1.7567438424523918, 0.2299002673715994, -0.196479999571274, 0.19896458259893934, 0.28013261292085884, 0.03703073222825627, -1.129402361307234, -0.03036954465223975, 2.3010964780014715, 0.15365393440449485, 0.23638359671602885, 0.3753558175491384, -0.006600534176020614, 2.531869522360792, 1.1194330309892826, -0.5078316467923196, -1.4367470418436157, -1.3795468614304978, 0.45168848921808386, 0.39120840285751474, 0.3055053075035655, 0.3103295519977424, -0.08651352726526321, 0.32478995187671583, 0.13062497548167493, 0.1727448766763562, -0.7551408152869856, 0.030719673794420466, 0.09403637545941598, 0.12274972815631696, 0.24736279430625616, 1.2867406782385746, 0.25776905770990177, -1.0978385009092047, 0.6438595187549587, -1.3068454620600587, 0.6135682156219197, 0.049851550781686044, 0.37833001871965877, 0.2650004414637735, -0.782877772105518, 0.3344258802983691, -0.6377326952456599, 0.23003774050098524, 2.2814403767927174, 0.1882970550741616, 0.23833135909766825, 0.34441340708878904, 0.2908716801617962, 0.1819422299771283]]