[[-0.02130085132834626, 0.11843294345437687, 0.05780999082058416, 0.03197375635746184, -0.15777791414178743, 0.0729978357880296, -0.03595020163444195, -0.578746993146732, -0.05919431050135088, 0.2620620593334522, 0.03781169487061121, -0.5154364969912224, -0.09615105889294917, 0.0879327443129345, 0.06280393626479108, 0.17692838152490567, -0.28705242994678576, -0.6450201610724464, 0.14181382192221217, -0.20274781316731771, -0.25002396257791915, 0.09390264703732942, -0.32371066237871265, -0.06666603375063539, 0.15508109202762282, -0.040685681367643174, -0.0949189649970186, -0.13960638086196278, 0.04925749297066159, 0.12567744924206398, 0.1062146129025684, -0.31030613797539724, -0.04830172780637482, -0.0358126949873113, -0.23223855621916176, -0.04433864898040426, 0.27871826853319215, -0.45921900852899816, -0.1510274481423766, 0.07602681627090023, 0.35302271728703905, -0.16562834025306014, -0.37971249801738544, -0.35372043021912486, 0.021333853155460394, -0.07247607408576556, -0.008931514927045464, -0.36259751492387204, -0.01151131956956946, -0.47995290605310176, 0.0018476441695219768, 0.1821420992499494, 0.2970551866708148, -0.13897517019569997, 0.47438973078016633, -0.12984827117198897, -0.1850879572214167, 0.08821883251074979, -0.021693586826180635, 0.31956636686433865, -0.0901233265608217, 0.09329928067232454, -0.48603939257603357, 0.0993568382408608, -0.19434383220488874, -0.13438838473796436, 0.13109915640123135, -0.10560338061340103, 0.46775702006200376, 0.07179132779798125, -0.027592972228454343, 0.010697227875791722, 0.08715301418295264, -0.08213284934546472, 0.15354530171402503, 0.3252949237477679, -0.022307485277412827, -0.21629131775265523, 0.05530875700160693, -0.16204570960807319, 0.13035954458957807, -0.2469955378610893, -0.16550427172341525, -0.14410331776732233, -0.17019741762029209, -0.15583030205164916, 0.3607524054878099, -0.06489450437389059, -0.39067031037196287, 0.13770180159324255, -0.06774493504195327, -0.16155185269817685, -0.15058682724421107, 0.16374323019884032, 0.16848923877884175, -0.2878168263146531, 0.2455180424860326, -0.49242655105036354, -0.16059933025097012, 0.009878455630505451, 0.036706740160364765, 0.10174237409490104, -0.07350194656879275, -0.15653133641284964, -0.013963589746477571, -0.22852447701697434, -0.11887613989707518, -0.06325507345244943, 0.05262917056948046, -0.07879556007939506, -0.1061780299964814, -0.19091209645714222, -0.0538415135989743, -0.14012982001231764, 0.07486082954298884, -0.09247329846995178, -0.149238278984125, 0.12338863401785448, 0.31557994504258274, -0.3680996831007474, -0.09213546094569049, -0.0010247470341720193, -0.10627704581965211, 0.2576192692692985, -0.06737455807186132, -0.14526740093817087, -0.3778973378915269, -0.2638538936196839], [-0.814926791244775, -1.1103022280524204, 0.6023288620441785, -0.2619421980197183, 1.583853611072034, -0.19843615815438176, -0.3563248993757763, 0.8067678710827515, 0.1388853532869782, -0.7122466093348125, -0.16580384205811452, -1.236848083145342, -0.25487253368909424, -0.5530477320661757, -0.21471447264598986, 1.636566928294914, -0.45566358646983285, -0.6813179047506799, 0.5763202042021375, 1.5721868088813118, -0.5061748646843892, 0.6006443636437548, 0.37285857479056145, 0.4623908541169028, -0.7216815582220223, -0.08794481758592454, 0.5320361276849156, -0.4173343302851239, -0.430671510844113, 0.13204538545895753, -0.4872854809247777, -0.5781624145441137, -0.24083163931568596, -0.637323520245056, 0.2759008203839069, 0.7792076674228291, 0.9946295779581215, -0.3235714099344173, -0.2954555885723763, 0.6701609822324748, 1.8623164837102064, -1.2760670395307885, -0.6839773700402255, 1.1135697762423227, -0.26647142555036174, -0.2630561153449516, -0.36822305806872696, -0.8645645029042451, -0.6252688642099735, 1.3870303061628169, -0.24566646990187407, 1.0113014939749652, -0.365310113402866, -0.37880400224605026, -0.038188362174459534, -0.11509065769933022, 0.14464227558611306, -0.27263694399943067, -0.4627391855658167, 0.342966240730536, -0.6210747175536707, 0.1402816815884194, -0.10549512910832305, -0.4668977001495736, -0.9954511245618329, -0.10968056856438853, -0.5881670235142399, -0.6136017790974858, -0.3457904652817086, -0.3122945568453917, -0.2723396979831498, -1.3474860702795481, -0.2525855014821937, 0.130703519206577, 0.15942173603940465, -0.38282937641256476, -0.34757425152113236, 0.3980295613635987, 0.7174239735358172, 0.23412804308649104, 0.007161010209597827, -0.4039953443994533, -0.4236044735317291, 0.23794215372382424, 0.09534263172158967, 1.2432296995124297, -0.492327203250615, -0.6372856118676762, 0.38881233860307257, -0.057164357741702414, -0.41021524821361255, -0.6842483314742311, 0.4337234804763075, 0.4818501307034373, -0.5183952085024954, 1.1954623649015965, -0.7211871682466104, -0.5676639927001778, 0.3965478096448272, -0.7638464674905605, -0.808166850525317, 0.09736455597882551, -0.42983418065524354, -0.2219771911358433, -1.5859470225427317, -0.25662345486133237, -0.11381236293619128, -0.2971172838621787, 0.4465958690755788, -0.24523748651856617, 0.6337186033917609, -0.45381294846914355, -0.3541273022240578, -0.6191041718289881, 0.4809417738352113, -0.5419943916337948, 0.17725648087770443, -0.04716105481076806, -0.31272977200541013, -0.7000291130095576, -0.5232907020265384, 0.11198180829983868, -0.309470571782205, -0.23159523960018102, -0.2660251341522247, -0.3816754866532795, -0.6988688703299304, -1.0789105812279816], [1.0695156790451357, 0.007272474955122164, 0.3850752774111095, -0.5970457089663168, 1.0217319850304347, 0.39577454589283534, -1.2300440428674184, -0.10297356336131461, 0.4729522880496747, 0.18865064981037488, 0.6440696280353952, 0.4579059866303683, -0.731473487634842, 0.048833302585623364, -0.5509023045174478, -1.0757461067534293, -2.0449196247957095, 0.7237254439855706, 0.3149964568845121, 0.4971358494952408, -0.518208765583738, 0.2761681012448686, -1.0421788558688476, -0.34881432265170353, -1.3228372612507695, 0.3708868569718627, 0.3035614944721529, -1.5172771881813492, -0.4785162896230565, -0.18344392338132423, 0.3767919359819735, -1.4874511631925504, -0.22952175205093842, 1.6867501430296892, -0.12172238263342447, -0.11801062274812542, -0.06213377664391608, -2.5953846677864423, 0.1693814712149379, -0.11298135769411723, -0.44659090406985313, 1.7226649455128007, -0.16736192064245103, 0.8576517365527159, 0.08806097731161047, -1.44148338013779, -0.5441375778842503, 0.517645878239929, 0.06719459578738689, -1.217826729069997, -0.704815305847129, 0.017616326298148608, -1.2729156723500656, 0.2521393810882733, -0.16763066618346095, 0.8840704066472648, 1.0877922911141928, 0.25416106527407495, -0.026753626942964265, -0.6917346630568404, 0.23966547953388065, 1.6824838494352297, 0.3899907114418007, 0.07452905367749506, 0.8787083033539775, 0.8415459487847347, 0.20925207647922453, -0.8161912762427758, 1.0365641971406458, 1.079528886193744, 0.7005595326307318, 0.11571187572519173, 0.2804686919087922, 0.5170629409877964, -0.2665319380313647, -0.5816888122922441, -1.0218784168696549, 0.029837228818275892, 0.008038875844008454, 0.7476539369783519, 0.289662251305832, -0.34167241262504283, 0.7995747530634846, 0.6953754068796754, 1.41344973665257, 0.4657340680058143, -0.6356703233508127, -0.411285571812538, -0.716381859085093, 0.2730076799832224, -0.662024291267791, 0.30765453338982174, 1.0597282792768568, 0.5594182227808667, -0.24669540053503808, 0.00197059172001655, -0.1962232807695694, 0.9253941829091008, -0.11364210796425493, -0.19652682869540078, 0.8081198296424115, 1.0232208911831782, -0.37618929427234643, -0.17972004285277166, 0.21835745433693018, 0.9465370087061714, -0.42101393443002466, 0.6335002873813288, 0.32207426297218344, -0.5965911730376835, -0.19145344315881313, -0.3286604339197625, -0.6717272703963151, -0.8589337570107195, 0.3625725042029056, 0.4453707715355844, -1.032129664965952, 0.5961776377056565, 0.5246718594756331, -0.8641542469976963, 0.2731237391271949, -1.8823701476660761, -1.362938270999018, 0.3443517606021421, 1.3836067573805193, 0.557233023468793, -1.1776657587775927, -0.3137216977244748], [-0.02305110571683963, 0.28228119450427847, 0.14697873803623626, -0.008026667371070441, -0.3054884988937635, 0.0937139652924211, -0.20603438408483352, -0.6208785985210863, -0.024831227785660458, 0.32556612045074657, 0.08455489871958521, -0.6488973391452878, -0.0981976635764807, 0.07699700157113566, 0.02209884827137829, 0.14947273522383916, -0.3571188784471419, -0.7813159388537915, 0.274667482271341, -0.21403909126749843, -0.2954239834255482, 0.2478549813310178, -0.4236223750328094, -0.15769090392235577, 0.21493343969307346, -0.0432996066077769, -0.09658685755252547, -0.21224810150294274, 0.021569928625855453, 0.12557036248345613, 0.12721324059421704, -0.5347262006159768, -0.07446319270448148, 0.04271894877363459, -0.13356235681971088, -0.057921474937230086, 0.39479744807158945, -0.6580838214357558, -0.07664963614876294, 0.21756866055597812, 0.5537821157271116, -0.143957617256588, -0.5248844476689519, -0.43755603270252763, -0.023253153926037558, -0.10392336761115416, -0.08433766932549061, -0.47853624934875894, -0.05095010617625493, -0.5847732662366799, 0.059737445567756876, 0.3351722550883366, 0.42130849682695953, -0.2144090287162848, 0.5696855825501449, -0.100087817763009, -0.21615919058753158, 0.10457229669225462, 0.019878311923923666, 0.3608923722073517, -0.24405910059446884, 0.18189119510506957, -0.5713282445822291, 0.18534351110967373, -0.2935538157594919, -0.18075969508526787, 0.14568316112790822, -0.10450799204975379, 0.416175064080956, 0.006146258326031106, -0.06668738550096757, -0.05480614341784292, 0.22688961856933332, -0.055653356584480236, 0.14961998702422152, 0.3131686106301366, 0.0065506143386994346, -0.3079941465986293, 0.18619102299074394, -0.05296781913241829, 0.2638165545918049, -0.25387438745571633, -0.2730160853398838, -0.12420188420093933, -0.14056139123040026, -0.32150828993486946, 0.2680310814882034, -0.09462650790039115, -0.6024268053534648, 0.14006359319293504, -0.03278465817919666, -0.22337296454220004, -0.1254205849708392, 0.0785973289981422, 0.25891542402633455, -0.40077379936901847, 0.2823516887774924, -0.5997385268346117, -0.042786851863904664, 0.022728846794965837, -0.010208384100275579, 0.03435791184244344, -0.04318533991151696, -0.16472508357893992, 0.10738863500612573, -0.294310187871213, -0.10929857849430696, -0.09366229880850348, 0.041374492749728056, -0.09446933188909197, -0.039217077567419975, -0.5127989538498965, -0.0632486099749141, -0.34034766837574115, 0.23070743074326205, -0.1169739493732571, -0.2635962494405329, 0.09163404736346692, 0.38731964804175967, -0.4889995567628833, -0.07567930382197663, -0.1243795965494063, -0.16575054593221292, 0.19939166568411412, -0.002238911544296527, -0.09237553907849214, -0.47298523796334585, -0.3487059231251386], [-0.11976194155647013, -0.06871171915443752, -0.06498075645654303, -0.05242330641125617, 0.005531989950921262, -0.024369714316746977, 0.005765980108961964, -0.3038218752942335, -0.1509812880323103, -0.050999694797591706, -0.037244149131310925, -0.22080018419575773, -0.06699161146810689, -0.04457794741491412, 0.01485046472985051, 0.16720011103801977, -0.22195222307046902, -0.19699634760719958, -0.17710407061547406, -0.2937178777855001, -0.014621856539475427, -0.20370708562148526, -0.19825774241542934, -0.02164337926122666, 0.01635206286430864, -0.07663442620554872, -0.12799677427203754, -0.15870066994331464, 0.20592013922473643, 0.15762126437374857, -0.01998546238887746, -0.005224542127776946, -0.021081469508998505, -0.0997674242030435, -0.1473562879307748, -0.16301617778834065, 0.10208979254359224, -0.16579773351514582, -0.0843754863715128, -0.14366218286820265, -0.04822632284210309, -0.12075970342852264, -0.08334064247635015, -0.2040594842507593, 0.11271712134827074, -0.18169806940298713, 0.09945196578768141, 0.022742150370668273, -0.015787593187891153, -0.36960458970533105, -0.11635499622191375, -0.11103473884465183, -0.07142340103571605, -0.06812825358934871, 0.13747371320796023, -0.08331822869495688, -0.1513319249596529, 0.07463359148487758, -0.220514257039869, 0.09843045840501752, -0.01607036408579209, -0.13429472045201712, -0.37331084766916334, -0.07524553484738931, 0.06929953825516748, -0.12504279629591294, -0.046302015546623214, -0.2828493853558042, 0.18330617588701484, -0.03814792585388086, -0.13752292838266159, -0.06017513550179875, 0.055615664276715916, -0.18221320889145448, 0.0294426678368307, 0.04456083767546401, -0.11289737496465704, -0.1432035107713568, -0.27760705027440624, -0.29612602035462426, 0.004481105605222544, -0.3864368594927438, 0.08232855737196644, -0.17368665973363992, -0.0751662033055137, -0.04813766569424075, 0.34756059381494087, 0.06723287358369676, -0.1670752889985427, -0.030144342377111815, -0.09320541589342382, 0.002630525790733865, -0.24446367608391173, 0.23668871511808726, -0.06446025888112208, -0.2078177393080909, 0.039944684833757786, -0.09374244801155611, -0.1856973420491258, -0.07061660974228288, 0.10261778654825991, 0.11465187742694567, -0.07331195356948218, -0.14938839669873277, -0.1477526067995617, -0.24332964637216425, -0.03819193083228475, -0.08177870637362289, 0.10002619727199984, -0.05288356677007361, -0.16087725710737455, 0.1629869920453737, -0.20846188493775863, -0.054931215511147616, -0.33365964529336367, -0.033244772056224434, -0.04596962086032051, 0.23391476499306071, 0.04179184962248428, -0.24799018328847375, -0.20535599719723957, -0.11604224973079785, -0.12831119943562652, 0.06356905350097226, -0.13121330324962807, -0.22992698018032598, -0.24660367374937395, -0.1601372022873027], [-0.13846620913547683, -0.15368847941584793, -0.173408684590814, -0.07439382968501795, 0.0128953032744673, -0.06852848699297502, 0.05403541440318956, -0.12210601954239457, -0.20365451179661156, -0.10143114064735119, -0.022615592427347904, -0.2344893720696263, 0.021199967340687798, -0.029459223269758916, -0.0038554087853325415, 0.20701656674235483, -0.13781430519873275, -0.09038925108612875, -0.45064725309585085, -0.3529187871759557, -0.001863794698301167, -0.489434619421525, -0.16479078873622482, -0.06331499117881288, 0.0970925643743698, -0.02100334475660091, -0.17321541984686975, -0.09544756102914032, 0.1839169673726152, 0.19688303047594496, -0.03543821541874887, 0.1912017476515872, 0.02549072083093881, -0.09513146001301555, 0.010733973588530713, -0.23658497828451988, 0.10657263552505877, -0.09101166358570813, -0.0222124204316859, -0.25832594798666575, -0.3573247143809554, -0.029663582155771574, 0.09276504828022794, -0.10776352887442806, 0.10668604099786456, -0.14749174646300148, 0.0465773929365337, 0.09193642461033621, -0.06404904067840367, -0.2620726636043323, -0.09306487766742041, -0.24568091436411044, -0.08270888941847107, -0.05705694831780425, 0.13974286464330501, -0.05669327644107619, -0.0856345942914118, 0.09843082277677438, -0.2841457160718175, 0.015858261463078505, 0.10238167402331519, -0.2514677973214986, -0.399271902899545, -0.07944160835814057, 0.16065727766715968, -0.08553736949572784, -0.07644110723000593, -0.32937212029936375, 0.03711176061595378, -0.057648317608452765, -0.10011453847975575, -0.0538472891033973, 0.055946880632769425, -0.21869122274720082, -0.10194526289992659, -0.10189463448210992, -0.07976787657923869, -0.045351344186107694, -0.5486598365463218, -0.4142209479398144, -0.0743816205018644, -0.3592278541661726, 0.1780877660991616, -0.21006455780519748, -0.07256979553490933, -0.03465072667875266, 0.3571630338018013, 0.08435178143516732, -0.01965799952001836, -0.14312215056679295, -0.12173374661080878, 0.11338249914570764, -0.2937874344974225, 0.25377083026050545, -0.06609796024069399, -0.15011018912062582, -0.08710989484155827, 0.006836862673602712, -0.187555339595528, -0.07476486923962697, 0.09385603994501264, 0.1460416372140913, -0.02794002453212047, -0.0995182674998144, -0.1312414608008005, -0.20499265979532652, 0.0068222810568363355, -0.09664576852969405, 0.1204693528042869, -0.016771136128353688, -0.2266181908994345, 0.2652486639736775, -0.23614838871758706, -0.04087045099483026, -0.6300190923910964, -0.01697591380037354, -0.0529838950083311, 0.360216428878635, -0.02543921941568979, -0.18640701434174836, -0.2582060548341807, -0.11965004525002806, -0.011615649052971959, -0.05761787974521137, -0.17618379557280783, -0.25882819627539666, -0.22308038365694668, -0.1022631421890933], [-0.14025333887577168, -0.2010467012045842, -0.167396137485815, -0.05835484827837796, 0.05492287322138578, -0.031509495968865826, 0.08636730616576918, -0.23871350959579019, -0.19007988377430154, -0.12249461258101337, 0.009184266296738259, -0.2565444580865624, 0.05156659839131845, -0.04306534417872987, 0.05399404220918762, 0.23452033004756093, -0.16891040760605833, -0.08740063568736739, -0.40007857880139425, -0.34122122211279565, -0.011172272430514028, -0.4805280136523838, -0.20919887568059317, -0.030982855145614677, 0.14302825540424066, -0.031043572595211347, -0.15456996089628855, -0.09973338544114989, 0.18258877433499276, 0.20352772862891705, -0.016895165333602476, 0.14825942069119646, 0.025356731101281792, -0.0911075152144472, -0.0769211023085422, -0.2083384392253856, 0.15213193099295064, -0.08140145830887621, -0.05081456477182979, -0.2685188234552829, -0.3003628262301376, -0.03110325639631014, 0.1060743121734659, -0.1224163849453849, 0.16129880082032474, -0.152820697286053, 0.12761428546022324, 0.12964198519524642, -0.03643669241970475, -0.297381701156513, -0.0747363145141709, -0.2179893021196808, -0.064749980394567, -0.03365339976118494, 0.1748229059103308, -0.06764059180951017, -0.08035076428922985, 0.1093960415316765, -0.30739465025977514, 0.040088355061367556, 0.10946316117877462, -0.23770793082143882, -0.42312856870037846, -0.08653026620064043, 0.1622869595488432, -0.0915186390301412, -0.0537900155375714, -0.34632268622989903, 0.11322663723278856, 0.007667825679365418, -0.1562721688260159, -0.038865701296729116, 0.03803144870540439, -0.20757807335549666, -0.04574080352679145, -0.03851335061665719, -0.06610447473901883, -0.049680331567339885, -0.520411885272255, -0.4257609890704101, -0.07412451328296955, -0.3928417484441273, 0.1780424231439698, -0.21352049860412997, -0.08808678978441187, 0.017806279245916594, 0.5087160620681598, 0.05944384863952321, -0.03685455179987213, -0.1310894798971381, -0.11209232255930215, 0.09976743876201757, -0.3056854246350965, 0.3504631969632957, -0.0683768520175214, -0.17040699935661618, -0.10041848245088231, -0.005432841803110284, -0.2626253370099649, -0.06197210787379545, 0.1221269081380234, 0.14587467298284004, -0.04446849580159669, -0.08957795419579097, -0.14202097032078584, -0.1924904948356624, -0.008445425746979743, -0.06043848627090459, 0.12491588270814015, 0.015480234354690566, -0.2560458985059065, 0.3045446145127642, -0.25975245637423444, 0.0034318866146439936, -0.5686907722708945, -0.006261040687528223, -0.014568238159321505, 0.4436172477136209, 0.02361611687040155, -0.20200496932828252, -0.25860432850649023, -0.12053675676945123, -0.001711959332143471, 0.045707827228191736, -0.19019848147695687, -0.25858496180348545, -0.2382161260481727, -0.10120423517431025], [-0.11638776437961819, -0.0967055215203593, -0.08545745366455784, -0.043865999839489855, 0.016293236356925585, -0.013007602788012072, 0.03427746762945166, -0.32393759138143924, -0.15623969551207043, -0.05517315670724726, -0.008762856163016901, -0.2685531103859073, -0.027521647158336045, -0.03566115537647634, 0.05826669428237447, 0.18878292084477616, -0.1907898812745199, -0.19976998881178792, -0.19909842999677077, -0.2962703771371006, -0.006309201694734125, -0.24982471817241292, -0.18494402578693236, -0.011563346416985273, 0.07298702610073175, -0.050791974382056675, -0.11517678003862437, -0.13838897716226778, 0.1729032709263104, 0.17297958729764776, 0.017920025250363594, 0.03695388759879342, 0.007636590576893656, -0.11512051532925138, -0.15216000089143888, -0.15303366051288414, 0.15405988593456324, -0.140504937430158, -0.0989773486379739, -0.17645415089812705, -0.08474004189005829, -0.11259726418856741, -0.05948453298232272, -0.2027218242474022, 0.13746985548650895, -0.15423184829376269, 0.13415634576457325, 0.03714772175330803, -0.006412418701928983, -0.33444929881910346, -0.10931272481700331, -0.12536708994669438, -0.04983394143093146, -0.06553935429166403, 0.16622676395087668, -0.0755201140891593, -0.12674044662092146, 0.09513029196105914, -0.23912213536474988, 0.12314821472718124, 0.008755612166709371, -0.17253684442770711, -0.41000295052757935, -0.08177999640765844, 0.0710426378952319, -0.12082836507163493, -0.04073214981523258, -0.29360195447813175, 0.2036730807355613, -0.022373041305619602, -0.14125501431751522, -0.02344519738141145, 0.04614195149341848, -0.18365235528206794, 0.028097516679719683, 0.06519808306553695, -0.0797168051071986, -0.11246798922272251, -0.32446977240418556, -0.33018868331979717, 0.01083134221815344, -0.40130956173211063, 0.0813359331001179, -0.185671791330596, -0.09923203779595985, -0.011046662128911052, 0.4392736030846341, 0.04752998680009539, -0.13932520693234865, -0.02959982332503476, -0.07393987847769845, 0.01489342762008408, -0.2544103174189514, 0.279261833366229, -0.06953909773771177, -0.20288026669851447, 0.0069149024361770586, -0.10691903084811938, -0.23041555014433382, -0.05930624032611418, 0.12597806172510387, 0.09949628655977055, -0.06787650487362194, -0.1510774394746623, -0.08989197689366803, -0.23538396392780497, -0.04391485010148971, -0.06574016702935573, 0.10452252568468905, -0.03412079925621714, -0.18057842909312596, 0.2265913371845061, -0.20834992571581498, -0.024734949560058027, -0.3609848494314973, -0.023395077368381954, -0.01622402574950707, 0.303014193043508, 0.05463582406349598, -0.23282845123812557, -0.21205080411508442, -0.09790458703432596, -0.09298658735690289, 0.09605512739330946, -0.14270034182985714, -0.22882360595394835, -0.22572398833918403, -0.1491198956852829], [-0.1652206241590543, -0.13809816467781838, -0.08686101996656899, -0.051131928563565826, 0.02015411885880368, -0.022521669768737353, -0.015399247691728079, -0.2707479953076892, -0.1416907585287111, -0.07259098397244858, -0.047454271455081604, -0.18773651084389079, -0.039249685384565254, -0.056303725005851055, 0.030681241186834084, 0.15821113297826894, -0.20149793208542546, -0.13350920725499074, -0.20063136066950352, -0.28291527385764526, -0.013629220078784005, -0.24292620989392052, -0.17979552612588093, 0.004693438584730437, 0.02730992778198951, -0.07002478226747647, -0.11068201393695341, -0.14373547361771072, 0.21165832600712978, 0.17347014671390862, -0.028961313789579175, 0.01351264480099725, -0.00022149879995202084, -0.08238045081845619, -0.11243696970466165, -0.14354990269275295, 0.08305014737441359, -0.10233157401357365, -0.07173197276118579, -0.13951606136640574, -0.0999369431806338, -0.08262051624454529, -0.025894574716901163, -0.17303155322347122, 0.13061123367402325, -0.17707873011505787, 0.10622458500652732, 0.04676871809749097, -0.02403812812560234, -0.3365322426581144, -0.10441795293642464, -0.14248611621301935, -0.07927622903094152, -0.06392818401691912, 0.1312626998257289, -0.06421218433698755, -0.13981579248350184, 0.07536849453170952, -0.24065540452926765, 0.04132355109343371, -0.051960255390329925, -0.15368505419557907, -0.36778240137781953, -0.06587506960233666, 0.07787394299149171, -0.11516174994179147, -0.046972408777209124, -0.27402597488443126, 0.13432870546962467, -0.07272011744968614, -0.14616917621111275, -0.059859467066079156, 0.07651604133177342, -0.20076134168320392, 0.028465155846165477, 0.004898375700386853, -0.11253593329519207, -0.13676806127055638, -0.3040422823257194, -0.3108507059298167, 0.02607996425352501, -0.3843377598728736, 0.09110884973466685, -0.1766630864895602, -0.07957436454596034, -0.028932497133567967, 0.37864582413220255, 0.09550747505883599, -0.15666765319108167, -0.0887740248232806, -0.09724355414168503, 0.028450241326417828, -0.2469373982875953, 0.2535286734831382, -0.057746564234615216, -0.18745658235796706, 0.004424149725051365, -0.06202783095673671, -0.15842424827800447, -0.07975778633367597, 0.09152500997454911, 0.10879163526576108, -0.06519471870911296, -0.11782157661133735, -0.1500265843299794, -0.25111545755071124, -0.04362429417018931, -0.09478109578377147, 0.10141833016525063, -0.050290345933203265, -0.16470255834210218, 0.13637829162761872, -0.21575005225262367, -0.07238141138131383, -0.35630930085862644, -0.043645636517591256, -0.04586452724211338, 0.2677272383928439, 0.014132241094077149, -0.24047152896858726, -0.206884849948141, -0.1406745062638957, -0.10723995436252848, 0.04831931634320178, -0.11858566896233293, -0.1973247149391138, -0.20340526650649915, -0.15752653948083414], [-0.11239141958441128, -0.14491716167209784, -0.1393564082378007, -0.07554874175976926, 0.03718811174464531, -0.027320055156109267, 0.013538970470849137, -0.18169650311401112, -0.1810442441826575, -0.08022285306868936, -0.010808226758639744, -0.20235484058814088, 0.010155613824711345, -0.056945375351952904, 0.00010430676078743358, 0.18796891825948178, -0.16379230844624784, -0.07996731232638835, -0.38002432033397543, -0.3377646117068255, -0.017596024852554664, -0.4058702225941431, -0.1858589912879622, -0.041008758225351605, 0.08089732127573018, -0.05711914110878485, -0.1560149007770318, -0.11014694025457969, 0.1927776164230281, 0.17903940517257988, 0.010422670683259727, 0.14153206514476324, 0.008951604917150857, -0.07891943796366492, -0.017655128383351322, -0.20507890321176775, 0.10495812005136751, -0.08641895655512771, -0.03877388606259976, -0.227357911513927, -0.27569986889120274, -0.014250201952941254, 0.07034954397418026, -0.1335950784409381, 0.10663759610479538, -0.16470289292650292, 0.07789440069144747, 0.09475684125068033, -0.04672021874026061, -0.27240310736006124, -0.10820670517697542, -0.1984929128210049, -0.09291667734007787, -0.056688782427531184, 0.11402118441374856, -0.06199445377993174, -0.09493559536280169, 0.06250378196167446, -0.2725543141391793, 0.024749043005790877, 0.0591364868004076, -0.23797687111681587, -0.37954721127516466, -0.07450774025251122, 0.14408418504660936, -0.10975585919961114, -0.06999796379865818, -0.3219839020642659, 0.040296422863523126, -0.05530021228802014, -0.14818939467223885, -0.0667893083660036, 0.07877467084431732, -0.2296002070333268, -0.07406297483749819, -0.09045654318167438, -0.09143232670441809, -0.07845911873161794, -0.4703430740426591, -0.39513963959070564, -0.030334732999926953, -0.3669271577300263, 0.15406969847344648, -0.20910561903383995, -0.07658372914152975, -0.009310200172366844, 0.3916623491287732, 0.07109620510143314, -0.043065280838932754, -0.12843795448883896, -0.09363690486068774, 0.08430951229759029, -0.29640569571188263, 0.27579299243465394, -0.05933494789368708, -0.15894213539212337, -0.08487451004610579, -0.007727836624251807, -0.1828477974135079, -0.06719522374421176, 0.11192245483085454, 0.11759611889810459, -0.03814985798348855, -0.11622613517191405, -0.09553246101432375, -0.18922977001067104, -0.0018148567080374307, -0.09562966549150019, 0.11463874479368706, -0.024274313252462806, -0.2203895303792229, 0.2217544587043357, -0.24872389016625593, -0.043402225357190495, -0.5422276043247489, -0.01811890854838702, -0.04470734153130153, 0.3504077110208725, -0.024809332297791635, -0.20295654720027564, -0.23427004275062144, -0.1839261551087842, -0.05719196266303758, -0.030624072851781012, -0.17163663969763726, -0.2216054919331552, -0.20930211889138564, -0.12078607001193077], [-0.3024962779958079, -0.4084469660074681, -0.28393230500301214, -0.16299712876523478, 0.013939166525960306, 0.02610138120888877, 0.32483526596155987, -0.7487288517674014, -0.33396434049249496, -0.27919524151491626, 0.26126038001058977, 0.04700389193966932, 0.031455287210077905, -0.05538977219305953, 0.2686021278887564, -0.017453323959559015, -0.3871047689335344, 0.1163349917359805, -0.4217997018200034, -0.4735604507419489, 0.0961953057545148, -0.7381109149869913, -0.4585325491845812, -0.06319749315562255, 0.015914431344431438, 0.262957276906872, -0.04315151386306213, -0.4083244236758646, -0.058463937569894216, 0.23790008292646853, -0.4361268875971262, 0.1875545257959084, 0.01922345113552651, -0.21582688767605152, -0.5281156264799575, -0.39945159271047326, 0.30157888538591404, -0.26906960250295203, -0.25200588827255826, -0.4408479964364531, -0.6759413844504162, -0.21623947537130145, 0.18927389880257567, -0.1441587093326881, 0.16033757488062897, -0.34177973551027174, 0.19359508783445553, 0.5645025268049431, 0.3942568883765417, -0.511940940122377, -0.2887839696514067, -0.42033204209147257, -0.096037324265619, -0.009960255938529203, 0.3259520804949323, -0.1631834670590895, 0.6220086262744345, 0.08077143915239042, -0.21107009746572633, 0.22099880326616464, 1.0206386937179153, -0.3568556942853837, -0.17664108262475417, -0.23040220919410534, 0.4397089571876002, 0.381895049959221, -0.06963288733227851, -0.7382061940377964, 0.8795027973321801, 0.6536783485491878, -0.022719375797402554, 0.3779948713421686, -0.750648588225948, -0.008573037591874718, -0.2656173980025949, 0.24706087232060153, -0.11798665820612274, 0.15378523012589787, -0.5050055448965646, -0.6386743314044631, -0.6570138307792941, -0.14179517120027596, 0.4553375717460552, -0.27880482958145214, -0.04892128325810129, -0.04394697572819115, 0.3558590613594694, -0.05467317309820418, -0.6207989468648532, -0.14328948170058922, -0.31576492912521065, 0.28268827006091213, -0.40264512480517134, 0.5067117970920606, -0.23087141050073656, -0.3446931866243681, -0.429453450831518, 0.11866086853267681, -1.164415635344897, 0.09430212814844109, 0.10729763839729566, 0.5219088247426233, -0.14044394290926257, -0.3569463014692947, -0.6429871436934149, 0.5831435442006636, -0.10203627448795934, 0.38278865225447894, 0.09552630962641229, -0.062286982720436736, -0.47035348967092333, 1.1673592571570663, -0.31641163923131754, 0.3592722778868174, -0.44170757174012715, 0.13752207891929802, -0.33402295885223804, 0.5469035614597199, 0.3697605118778191, 0.07690173084494438, -0.24553224026126505, -0.05392496019759288, -0.3025819696786169, 0.7360909915505566, -0.3110790265847374, -0.8771589660543446, -0.3859039559123521, 0.06060677842261681], [0.5356796160350602, 0.9631507054269538, 0.73279666404559, 0.1545355313640274, -0.05663262067554691, -0.22749752818479915, -1.3724016599014117, 0.22478224067505387, -0.10973020133047054, -0.5612620460350609, -0.101393868031543, 0.1803102909907945, -0.15572201971574398, -0.5493377303465113, -0.48183759735860465, -0.36336058829634643, -0.8187716721757307, 0.032045922583259355, 0.2003347919606831, -0.2535155426058648, -0.6319530744473001, 0.49998850067002115, -0.6250981216438063, -0.2783248476279785, -0.503434192764582, -0.5844520032071797, 0.026428679803684716, -0.3612207090510973, 0.06012658577053698, 0.15263414073813208, 0.4089846028522554, -2.036527907194959, -0.10451121924470816, 0.8021807785164065, 0.12821033163206003, -0.3862077309637414, -0.45145873930613956, -1.0083193479361952, -0.059407012063886905, 0.5970767774697079, 1.058713213364102, 0.9466947512838924, -0.2964337520264617, 0.21844071363696413, 0.3356097663370157, -0.4532875549838754, -0.2215750744954502, 0.13388659356523377, -1.0464377570250782, 0.0012617462693371839, -0.07949406808983793, 0.49891010047679746, -0.2847097318833924, 0.09524535402038091, -0.6288611285354766, 0.3515383630877598, -1.1870890331832193, -0.6996650474641727, -0.6223185738244086, -1.5056720716209462, -1.971380305436633, 0.3782015459726602, -0.20950927699955374, 0.6972976713127601, 0.4782721824708492, -0.9742664099011076, 0.37989438310174317, -0.23016440032765279, -1.0601426829943368, -0.9577243720955301, -0.1204519575523659, -0.9748823424543135, 0.8171954232072944, -0.3189602771906399, -0.04552925404820675, -1.948227067707758, -0.708928622805533, -1.1676524279309533, 0.17516915085347154, 0.3430257324529896, 0.5460973380144138, -0.9197924516963268, 0.15576252450968292, 0.3674819130683377, 0.5296026137519385, -0.1490116852726276, 0.1282363678152178, 0.002743993110158162, -0.24646401745493973, -0.2409022817256571, -0.08376370424193577, 0.2117588747887861, 0.2526663845394439, -0.034197138814244146, 0.2699820592196307, 0.38163939868900765, -0.029035577635628296, 0.8148875007746808, 1.1976674014993542, -0.8487849068889738, 0.00013180624450452626, 0.10123275440618744, 0.3460095966444751, 0.40480641564459496, 0.48841895390144996, -1.5635516417955133, -0.16893903162093651, -1.1540000201406144, 0.16658740330341287, -0.5512702977568179, 0.5871836735935843, -2.5076128044190327, -0.4718764406006695, -1.7661360729566746, -0.03834494482178545, -0.1663677319845875, -0.8118864885528819, 0.28202064326325355, -0.7740377905760043, -1.9647931452397889, -0.16041738207059714, -1.0641818853305758, -0.32305598685747144, -0.9969425606692499, 0.3910574456873828, 1.4389088161215413, -0.5922909276801769, -0.6641177969532267], [-1.2951457617712894, -1.5194355204241845, -0.5416113955160466, -0.16047336186272396, 0.6379744683647444, -0.1683870180651835, -0.02213766060216848, 0.5806459184857279, -0.7547575479928708, 0.10327022048233721, -0.6401180494178017, 0.37013095150570213, -0.16000700039984542, -0.3750061230736447, -0.30305515606431827, -0.45491450387109267, -0.1837188069896364, -0.395820560000401, -0.5597433995239969, -0.3525333151018536, -0.016961660028936093, -0.045627389169154854, 1.2577422915198413, 0.17676909809632899, -0.5892343002479952, 0.18340454194012396, 0.9447756080013546, -0.5009504135956286, 1.0097485308664624, 0.363425979405042, -0.8226407379273948, -0.09726497339119891, 0.048746184846384454, -1.0945843025004267, 0.10932235182020514, 0.3284928459560801, -0.5439473248440087, 2.078671391909366, -0.07247930116536945, -0.05134741249258896, -0.15950569075942328, -1.450516032835348, 0.31980005017892577, 1.060690919023602, -0.0011452439340512378, -0.6433203032126539, 0.12698663318192419, -0.04887381926685467, -0.3007574572751505, 0.7522529437744728, -0.5663153530446196, -0.8272752066425383, -0.5340506016023796, 0.6102517224721464, -1.140001259168161, 0.16887792261444126, 0.12641756252470138, -0.8255031663880419, -0.7718203849479406, -0.32183427046287694, 0.37252430927115604, -0.038311763404341, 0.7126435104614091, 0.9920810412533332, -0.2781650461774284, -0.040674018407107326, 0.17429064198671115, -0.14709340984649533, -0.6377228354787836, -0.6744023074745789, 0.2016249079639514, -0.6669817232381626, 0.061785910874775536, 0.6869577737759299, 0.5165320684555098, -0.9041766710677226, -1.1217488499614545, 0.23910740697663463, -0.4677530611718853, 0.4144532694381371, -0.670418737288531, 0.18269929631787787, -0.1843371808771864, 0.012320566495561333, 0.5520329705756614, 0.832467797601915, -0.3834880350916756, 0.40880283423906727, 0.4695629702595182, -0.43274824072411266, 0.14798324988667022, -0.3384712733664874, 0.3626169750923122, 0.09486036631864324, -0.06813890289733189, 0.9768028570846019, -0.37596388321359264, -0.03753065834962358, -0.031489834585143026, -0.09376247037924083, -1.253903986393987, 0.2513174935248771, 0.3135710824310065, 0.49606090061412317, -1.6381599691829252, -0.3970731781877404, 0.40521952123313043, -0.7154761369689623, 0.8209305683114934, -0.13679232955490667, 0.34705485684433757, 0.155065680356057, -0.17397510069503974, 0.5896243258607532, 0.025867297906091446, 0.10350605729193382, -0.492780138025634, -0.15227705854059856, -0.8554368566967355, -0.7572195382403066, 0.9597394366340417, 1.0116975046255146, -0.34376450033417877, -0.9761251683578156, 0.23932724332271615, 0.10612368570554846, 1.4729604990140168, -0.15251722767220136], [-0.09341618132059538, -0.21437594485148712, -0.14810504271037825, -0.1687065473508973, -0.03868525468364757, -0.031821266305190436, 0.007916636432754807, -0.2797876759151723, -0.2340054987364608, -0.08523828893358562, 0.04111967702530689, -0.15400593965713827, -0.0363178805263243, -0.016475246828033793, 0.036072747685150876, 0.0743568653260202, -0.2085719194684889, -0.07782946659956785, -0.32564020325108933, -0.43260178410794764, 0.031799969133249346, -0.33502380377394964, -0.18022854110910458, -0.06662877551438336, 0.073615830475226, -0.056354084843290186, -0.17262563050708932, -0.21310643891076472, 0.2862132988768383, 0.1855428811788972, -0.004591859643094885, 0.25650209568971183, 0.0064017035085733275, -0.12918676126547265, -0.08221796134082406, -0.3195972760182077, 0.06484640322100003, 0.03747470078105708, -0.06326659303785673, -0.17956790745418363, -0.3032699646632373, -0.023609401675569693, 0.10269907373250067, -0.1332715353098522, 0.0473878496497482, -0.2699456119943289, 0.11261402330951491, 0.18732854482871908, -0.06957223600331652, -0.2969651728254442, -0.173273627483846, -0.19757602943955951, -0.1384728446680025, -0.012084443281331845, 0.0534172520080517, -0.1112600006648668, -0.09741295835362697, 0.0695575694261633, -0.2633964539699552, -0.03325255011680083, 0.11723596359916674, -0.2622647719499353, -0.3628135908083775, -0.09927586344210818, 0.16002753177162923, -0.1035412677584098, -0.08736439133888388, -0.393537557686587, 0.010117861511382593, -0.045789611026481054, -0.17705546372596734, -0.024983950554212542, 0.0373098506495299, -0.27635257674788405, -0.14367265801951445, -0.11616308656537429, -0.10199033219473673, -0.07397982701590898, -0.3608674049090661, -0.42318297276754163, -0.12503831438367535, -0.3680252793717049, 0.15470796141495513, -0.2459281644891109, -0.08165420965192392, -0.06768995893657342, 0.4282757846404325, 0.14053746500439754, -0.08988150980471662, -0.16879313589548747, -0.08387296673449829, 0.0969732930938553, -0.3340907047095984, 0.25335210337240627, -0.13306462702436675, -0.18142331330106115, -0.08787994873365731, -0.039615246058214114, -0.21318789879055458, -0.08878788605206035, 0.06458710933542793, 0.10584070758011144, -0.07030657069565259, -0.1943897579109389, -0.1252234785464838, -0.16269599762312778, -0.002793451321865937, -0.09729209168680693, 0.006828268656104012, -0.04298587293260308, -0.20367117470953247, 0.3196433508020232, -0.30160410697753137, -0.017514215019694978, -0.423647136494866, -0.013691884380836947, -0.14621807813740706, 0.380058348857952, -0.031794632806433826, -0.2191736652665776, -0.255668976111759, -0.08769895579771571, -0.16099543211610487, -0.09128311800789117, -0.17583228761401193, -0.26482808187816964, -0.10096593637959313, -0.1536072809928536], [0.30656091205973607, 0.4838491663489268, 0.46195022599229235, 0.36706263283321455, -1.4604232998194997, 0.37819849227034724, 0.31672613278295864, -1.2167369492642321, -0.31456838612183646, -0.07689180569668867, 0.6110330025065284, 0.9884534214240209, 0.8791716601883173, -0.4505519892555644, 0.4956111925617112, -1.221368250873434, 0.7570512697560798, 0.49376791629118816, 0.3293444531484087, -0.542772630697794, -0.19956408064926418, 0.28384757816531453, -1.2190615285653592, -0.19298760518337435, -0.06188496632241377, -1.3116444165945829, -0.7281083623165987, 0.06964178013557706, 0.534861741216051, -0.2657665045322845, -1.4317800774842686, 0.10825914917843468, 0.32159029340887013, 0.9697884149219881, -1.3531303417903302, -0.32313304798379355, -1.4544249296262763, 0.18015147209126858, -0.5635307487376805, 0.5023171856704718, 0.7201746568500921, 0.5893727194857629, -0.037001879833791385, -0.40542044169878805, 0.5654338315204038, 0.5629504553433442, 0.8768963240117781, 0.6014353702112634, -0.762831608988902, -0.06888309578559396, 0.7098967955149709, -0.5263180006041023, 0.5563519413071474, -0.5379101407326204, -0.630257560960706, -1.1864594709232676, -0.8317065274095694, -1.3721770570085225, 0.5579880481862622, -2.7160870048700057, 0.8683089280619989, -0.9923846603233989, 0.5320865258266275, 1.454921435262011, 0.5675254973468052, -0.4132948060611423, 1.1954569328741842, -0.20661660828048944, -1.2219838004801544, 0.7126009284264672, -0.7629570894030354, -0.45158346567719043, -0.21745943506503598, -0.32205983726794296, 0.41742131483291656, -1.3033613026772966, -0.4785970613886913, -2.162560049351247, 0.7615964947051802, -1.4336545027236551, -0.7858795079422207, 0.10085125058267749, 0.8972712948676754, -0.4517816332931933, -1.6696567789657895, -1.3668816050248547, 0.9843066266549071, 0.1710781298748705, -2.2646976932787175, -1.1269441056859666, -0.11717580291608275, 0.38256760083794417, -0.9131702630930676, 0.09704726654409083, 0.7676412893244187, -0.08115453283092217, -0.5308808661386916, 0.1586695139461646, 0.23158705275400518, -0.5169175461608219, -0.9494928790817804, 0.34800722735450695, 0.8654351469616145, 0.5966664466164681, -0.25456015517050523, 0.8915564053708144, -0.19973365239404944, 0.46227196508876583, -1.2151092917084862, 0.7630211772580592, 0.13892781323414963, -0.47576538303621074, 0.38381570685053157, 0.456971513871462, 0.8813419416992896, -1.1593678345153282, -2.0892043925233583, -0.16871724078235673, -0.17712024775168375, -0.9285122797883141, -0.7265507687928506, -0.42846086239244013, 0.20218785494941643, 0.8033563041804509, -1.4691779565571041, 0.9895298675907457, 0.21339127454466297, -1.0579522180235552], [-0.09225224166903594, -0.14664338899686818, -0.15289859936821928, -0.06791416055452226, 0.03415044406465889, -0.018377690356072535, 0.03424837570830396, -0.23573301069228486, -0.1942203755846437, -0.06802678895682998, 0.012642046274696565, -0.2647523836963126, 0.0016666118498802338, -0.04735359375623621, 0.0535729108263464, 0.20607025196408352, -0.16789092550526397, -0.10661242370380736, -0.35161129626018234, -0.3478155138551272, -0.018842481933940863, -0.3792639184793648, -0.19517942679024766, -0.031604481733336326, 0.13391363350138, -0.05621795658129381, -0.13154248376095087, -0.12045701812190543, 0.19343012275765492, 0.1793611615219181, 0.08637186742949604, 0.1611874050936101, 0.01835121178258754, -0.11453318182444021, -0.05111583040912883, -0.21771036958967876, 0.1727087487930084, -0.07732447514797311, -0.044860438500757376, -0.2443776336194741, -0.2437109821646061, -0.014740696181558164, 0.07118591559563993, -0.17216394707881139, 0.11600844797480438, -0.1880336066993898, 0.12406519667155406, 0.12777713478058733, -0.042206915457405694, -0.2931374332064979, -0.11904843004928721, -0.1687033326849662, -0.07947068101961818, -0.03448479519943296, 0.11988409230126267, -0.0777067530656272, -0.10527042044412334, 0.08689606400893653, -0.3057497661627266, 0.06370134502737157, 0.04698594457080174, -0.24868401717938135, -0.40863531719216406, -0.10941665886784274, 0.1396001986980345, -0.09590042263434488, -0.06096854537563803, -0.35200155187269166, 0.058221197801121435, -0.049049129291795474, -0.1683004738151774, -0.022943458184458594, 0.090261109235264, -0.2342600863532641, -0.06838252153121221, -0.06624270659204791, -0.061707443154306346, -0.054296691294638565, -0.4663101489811265, -0.41276531949861534, -0.0190959212334256, -0.4117765251843706, 0.12091233767453216, -0.22672082404885577, -0.07445134595467005, 0.03411854042094185, 0.49335704088715177, 0.06621873785608348, -0.02575307587240517, -0.06907375607258308, -0.06849550128736175, 0.07956303868600414, -0.30697612054169326, 0.334543084391071, -0.07458677021399321, -0.18459314519312686, -0.08646008522838289, -0.020058926934027978, -0.24413838233977356, -0.06584251329760953, 0.15997999332538915, 0.10490120028957473, -0.0560149982621009, -0.13256730326565336, -0.01127699324163883, -0.2199938086457119, -0.01542512518309041, -0.08117793480632829, 0.12019444328765982, -0.01629815379851884, -0.22148989398908986, 0.26577674597384754, -0.24387203104148483, -0.04732458543554016, -0.5487754876749044, -0.014030681576089275, 0.0015017655690573186, 0.40764574455648367, -0.017403432035139128, -0.20992257780777007, -0.25098434617796583, -0.1525420592340226, -0.04401541729213838, -0.002118790069597773, -0.17789729373176488, -0.2276610015319599, -0.2362382172836171, -0.12893589319735096], [-1.3438504870406995, -1.443755641731204, -0.32748782116457165, -0.674206112209002, 0.6149417580766717, -1.294628343741367, 0.7210749321181262, 1.380857278502095, -0.9252075409647412, -1.1487159299076446, -1.235364886659683, 1.5020762104091958, -0.5182785682236247, -0.2264429665241162, -0.13042766932412236, 0.6255941160971931, -0.14561909457360164, 0.3219977955988733, -0.21001088940507728, -0.5602481647946105, 0.8168158817839964, -0.18900174410809115, 0.21178915971454346, 0.17064758245175227, -1.0128349970042305, 0.592080669038679, 0.4027566708029022, -1.1243812155087984, 1.2159045000892543, 0.6481171086979569, -2.2692215165480745, 0.1925701637526359, -0.06729345187415421, -0.32028490290911243, 0.17886254917660085, -0.024765114588141884, -0.24186547142700626, 1.9210660312954861, -0.13578703736498662, 0.14517889570296408, 0.47287230849241324, -1.3458066415035796, 0.2554225865054402, 1.5057943784035066, -0.2843154384541793, -1.2367588883333158, -0.4404297300803494, -0.03175793152990144, -0.5483039126753544, 1.4246763585424544, -0.8571292205984121, -0.44192615157966464, -1.1539637795334081, 0.5780560976537215, -1.0241013811164204, -0.11556132576443823, 0.7631572240615375, 0.017225576373558815, -0.6291802139576856, -0.6503368169660585, 0.15147152953717666, -0.5110428163230195, 1.039030845941512, 0.5308155424832041, 0.2639874747671634, 0.08435384572244933, -0.3902980870001922, 0.15870094255679712, -1.1304623912873235, -0.9220873376490392, -0.4940785582624227, -0.698081505397788, -1.0043244096940722, 0.2396395064331793, -0.24835334379046378, -1.2287312572514713, -1.4281496980856117, 1.5728899466583939, 0.08973820571585447, -0.5454970146609358, -1.6155282962773911, 0.08113778697039468, 0.079912067736991, -0.07207096824292761, 0.16378220802024113, 0.9465105180447423, -0.6181955448055326, 0.4742355625770843, 0.449900543790113, -1.1528600535570652, -0.06928851006586113, -0.23902519344008902, -0.28346585173776473, -0.45858521428186466, -0.022139333058668303, 0.996904181220564, -0.536810333659669, 0.49829200087297465, 0.47681080144727894, -0.21871430681057819, -1.5335979636703834, 0.5280607611599709, -0.29245203005863507, 0.2276133732964213, -3.1513991070779035, -0.22220379835055254, -0.0515871590122257, -0.5520095994340506, 1.011142002418447, -0.5130708880180795, -0.13315054752290695, 0.4851217268565687, -0.6140792267830587, 0.5957044129564325, -0.0025075680207129318, 0.024353883790635904, -0.5722295701636294, -0.5162787774961747, -1.0555445623982955, 0.07414755324915104, 0.6011612863800313, 1.6129065048754165, -0.7191329484004946, -1.02234678719357, -0.2966009728285653, -0.10907854835284776, 0.8301636906126706, -0.5281050698198185], [-0.15065322078344082, -0.20839673194611671, -0.13971103103030919, -0.0769534124914109, 0.03393958485626563, -0.01901882847118687, 0.04084952779406282, -0.25915900390808017, -0.16497718323170985, -0.09322413715174954, -0.0040104560988262995, -0.20899730377103348, 5.687722142859731e-07, -0.05309014544439801, 0.03931255339420623, 0.1539905641115627, -0.18702054438222868, -0.1027346982443844, -0.27935207416642205, -0.3214039884642145, -0.013225410100022528, -0.3244129539858813, -0.16064875989980515, -0.012008094257270816, 0.07915535424863707, -0.035846072386976124, -0.13365050842961004, -0.13511458509413177, 0.20975675568942012, 0.1779275286090521, -0.0134573583427407, 0.1029622374123006, 0.020793624301277475, -0.08704904250331143, -0.09272887533763044, -0.19520020677501113, 0.11208150643449925, -0.0443501414483916, -0.06147781697244849, -0.20594247896690607, -0.203352645902707, -0.06373151063959204, 0.049111790140061826, -0.13277650875841557, 0.11983912063635535, -0.17982813312821117, 0.12363660245752651, 0.11669892084039929, -0.042082222078254766, -0.2929775512700354, -0.1157974088326533, -0.176288849137312, -0.07463455070671693, -0.03123243927978509, 0.12253596443528389, -0.08250073993928113, -0.0936277124455608, 0.08699290120186344, -0.267279029690425, 0.03031768541296231, 0.0409147182811308, -0.21146915334663569, -0.38276300822585946, -0.08327875139701812, 0.11713305216600768, -0.11136184723206718, -0.0641853895904626, -0.31774061339007464, 0.11963332681900431, -0.03248296654820536, -0.15617299056413797, -0.032893367274625794, 0.05696884296019843, -0.22147319919967606, -0.02138238586012463, -0.020461217630769742, -0.08786843557370369, -0.07756558365498958, -0.3697580777513138, -0.386582251977141, -0.031368628485671506, -0.3925164888152197, 0.1268920178707575, -0.20520138056146206, -0.08729721328015283, -0.002025546408992385, 0.4400174408457272, 0.08732095062506323, -0.09565546270000885, -0.12442781283271218, -0.10152156186596567, 0.05123966837946497, -0.28805368242943724, 0.31043572433201133, -0.08330315314616138, -0.17363952879205188, -0.04796064501888553, -0.04020834508904234, -0.218006854736967, -0.07707816409640295, 0.0928938308675631, 0.11621578198811518, -0.055863981080109724, -0.11808937339459362, -0.14053599413952886, -0.21297446091737307, -0.01449277403903243, -0.07368859652824068, 0.08594593326267448, -0.013717298211768288, -0.19709696073608626, 0.24682589983151274, -0.24044182987894616, -0.02718467685236024, -0.43536127626025356, -0.019575807505559997, -0.04491652982942143, 0.3571025397419755, 0.003581192306080281, -0.20440412479069459, -0.22446409998817166, -0.12918801254226345, -0.07293312501551172, 0.0383363412238268, -0.16058178742948315, -0.222412884748694, -0.1702937647095692, -0.14261401837253487], [-0.1375174485418625, -0.1488759892295263, -0.12338010141338783, -0.06858893812713666, 0.05740639040071003, -0.036134155640310986, 0.0232019166401145, -0.20558111465974796, -0.1583601996078074, -0.09867897729342096, -0.014308482157269724, -0.2157842789679086, 0.017403216183449838, -0.07151296896230762, 0.017381324167407758, 0.20567754721697648, -0.18975385473355158, -0.08484303289355387, -0.3395174123582958, -0.309207194247284, -0.02438901286271701, -0.387325513749728, -0.20316788521395276, -0.0215555508637978, 0.08645239672134272, -0.05104805207654026, -0.1380297960675135, -0.11513890675602936, 0.1979486582016532, 0.17893651922107198, -0.010677633654153975, 0.0813649429019384, 0.010300115773258213, -0.06536437592022545, -0.06529423042539363, -0.18816991199986452, 0.1272423034774289, -0.12562593499950278, -0.052132173649167585, -0.23486748896629317, -0.20674548619010374, -0.0376409508954256, 0.05376643927937208, -0.14716682489881966, 0.13811141255772535, -0.17375744941306107, 0.10387220876897567, 0.10825515174524127, -0.043153629066425336, -0.3033458384038359, -0.10239675089661271, -0.20352282220946386, -0.06717039285488142, -0.05668615056580439, 0.14466663280552317, -0.0696964046357194, -0.10977932082492381, 0.07422239789586314, -0.282164905965261, 0.01606477281374608, 0.04806062541963592, -0.20869601419107633, -0.39223993675360114, -0.08521619993306735, 0.13216515337488563, -0.10260932543652251, -0.07077091966777739, -0.3361151101996485, 0.10237811975326754, -0.032305988168837896, -0.14500105381381684, -0.054474252289792524, 0.07100441471822487, -0.2076403888073128, -0.033997989037496984, -0.039704950404598115, -0.09746959549454348, -0.1090537200464083, -0.4427049877089596, -0.3908649577081198, -0.020506078600678882, -0.3835591239231182, 0.15334890615428956, -0.18685713138120677, -0.07724943132329681, 0.0028529723486832945, 0.4251038095088114, 0.06664385018606965, -0.09462658896286158, -0.12326608292242265, -0.1098839625829515, 0.0706588393693055, -0.28665376083335203, 0.3202569912932972, -0.05955709798727478, -0.1581116640610822, -0.07088133848405614, 0.0005259050433973032, -0.19690168275781234, -0.06872122443995447, 0.1336281550991028, 0.1399384555719854, -0.0537585272788989, -0.09768170363974894, -0.13326113783309573, -0.20602548575330043, -0.01746575110076151, -0.0755951235965292, 0.13570188276977824, -0.00757820430703494, -0.2060033772405431, 0.21739007457318915, -0.2322007516086953, -0.04447939191234785, -0.5055955500124582, -0.03393215866751584, -0.043256161534445545, 0.35961529896789735, 0.007275800975104342, -0.2221009981703748, -0.24110580808260074, -0.18701896809565177, -0.05681809639621068, 0.03093420796085155, -0.15347475969264, -0.21560756933482825, -0.23436362898846128, -0.13984939072685112], [-0.13814272286045196, -0.11040902984365183, -0.07894267920859019, -0.018608266835831035, 0.041532490346195966, -0.019278803572503802, 0.0678408496334757, -0.4053753309143681, -0.13950422091742257, -0.03691263982911647, -0.010630884423957893, -0.26388611300091563, -0.03947208901661352, -0.030390448144028706, 0.08519353417128554, 0.2085685629074036, -0.23203067099808422, -0.2536695435452576, -0.13253825958009607, -0.2751674289319964, -0.028825389930542136, -0.2028913531370654, -0.19004440263229247, 0.015175019283036344, 0.07417141445540075, -0.04328459757486635, -0.09873795846532384, -0.13861894336955258, 0.1524128391059694, 0.17513592363288052, 0.005602572584980209, -0.022291302390165225, -0.0013266452995682864, -0.11675462011633306, -0.22194479258086514, -0.12968221589460482, 0.16342301420981473, -0.16469996959048233, -0.12169801854577061, -0.1601318925712897, -0.014945499087289196, -0.14753702999048293, -0.10245207409904723, -0.2187631275998474, 0.13716498972923158, -0.15424982423026706, 0.15070849494409863, 0.006296970926557638, 0.026553610701435516, -0.3761985009045205, -0.10920827390095289, -0.08616643181005688, -0.0053590739930187365, -0.062258699056364976, 0.21135630636595398, -0.09154859803080526, -0.11178631911914165, 0.09956717550782944, -0.22798660107655974, 0.15809581736529504, 0.033778121956259864, -0.13134576872586337, -0.4178056845913726, -0.07817120710505664, 0.031315063890699685, -0.10989027348146983, -0.01142408453948757, -0.2660057871137701, 0.32173706979577665, 0.04413551411843145, -0.11328340062655406, -0.00924649169537119, 0.012533972975121899, -0.17735865201937365, 0.07847225296854188, 0.1404082656056365, -0.07536019007545645, -0.10560023433401476, -0.2618517436474611, -0.3333194139228159, -0.003171254421701232, -0.38365737239057524, 0.06510012817290001, -0.17912835376390923, -0.10765047276703744, -0.000514034678825401, 0.46056931096941484, 0.02026548042881345, -0.17873443123899718, 0.009155684840134798, -0.08429945707268996, -0.025467730292238804, -0.25125150798112833, 0.3101056968437378, -0.0458659178744967, -0.224201239518056, 0.05523434006088878, -0.14788379642440275, -0.2781519089422429, -0.04363049214067808, 0.11238059149898973, 0.14276590484603835, -0.08328309029415955, -0.1496918078396147, -0.1306042037096318, -0.20529459711831086, -0.05995713105565572, -0.031043507105712645, 0.1100292563826949, -0.047951540455826044, -0.17947561615193325, 0.23050127476174678, -0.1916320316774235, -0.007084164622283274, -0.28757345684148233, -0.04384944247449667, -0.013334453312176676, 0.30180193976281616, 0.11983342921413898, -0.2392288048303856, -0.19758955623343738, -0.07246646388918282, -0.09302409487775311, 0.1875698306282814, -0.13725334355461727, -0.24347345618783667, -0.2521357983920568, -0.15408577373135293], [-0.16234785613478933, -0.7924116808850504, 0.622752042171671, -0.2559430449454727, 0.8782748197386852, 0.06678812379487967, -0.17764987668325463, 0.6586436333096615, 0.03285162635207808, -0.1410377969798048, -0.005212714481835742, -1.0837608767890294, -0.3610015597436657, -0.4100142134271807, -0.31210454610108596, 1.408811117981293, -0.2656576094330059, -1.207188630916473, 0.47461900400010865, 0.6617557597436459, -0.332656344033316, 0.6304906478616119, 0.5195709194919199, 0.27422805291457353, -0.5055937000439596, -0.12978482140143413, 0.19068547246408787, -0.3608067221910149, -0.39252959640103147, 0.08436039668340028, 0.3971477245627916, -0.41592024866525307, -0.24697434738792254, -0.9509065613717592, 0.40334554580868137, 0.3657666461478496, 1.2947224443720728, -0.40698188829507126, -0.5826054179348475, 0.6973947236099312, 1.4929390458270826, -1.4106901788145312, -0.6672876397565446, 0.5471426161680727, -0.18587391995992864, -0.16138223748360317, -0.1207286579492376, -1.2060336757995465, -0.6866453068894673, 0.821565716166955, -0.4606456926831874, 1.41256300920064, -0.20148474593469415, -0.2458711337626588, -0.11815220846031889, -0.1389298362123937, 0.13227692535187677, 0.06055540243006177, 0.20948741179143732, 0.8064475464859092, -0.9795083183304796, -0.04281575237867821, -0.5386759853515167, -0.6182263609161941, -0.898317069352445, -0.2849994556191351, -0.38409681831592096, -0.6719987378118325, -0.22715381967152706, -0.19269756414357714, -0.5474876619979944, -1.2239803121926622, 0.4075460495489667, 0.043218822224186666, -0.09129698086452777, -0.18477971718290195, -0.21363487614733634, 0.41631802806700974, 0.912803674210821, -0.20645228142028882, 0.45844931798897137, -0.813125367553051, -0.5057486458842353, 0.2681246068904659, 0.1418185307718973, 0.8403216882264317, 0.039396628695746456, -0.4916678446522317, 0.5132767023846206, 0.9653648127401343, -0.13267067763439094, -0.7989218565919418, 0.3751525291529, 0.29124106070119177, -0.4705034928552047, 0.740014552036153, -0.43868469897081397, -0.7587366651068284, 0.5087323091972138, -0.779050406305265, -0.3301415194224195, 0.049897812960954864, -0.4622702922300812, -0.2741579021141839, -0.300860199239502, -0.4018307677812089, -0.2945400664421323, -0.33774414134361425, -0.06430028184102857, -0.1803938592153607, 0.4621560852676858, -0.5628126037024004, -0.16702063495900296, -0.4345202999414388, 0.6591828427174772, -0.7429543382783645, 0.5069746263180154, 0.026436147421135654, -0.28345060231966945, -0.7544622073846831, -0.5301064238759878, 0.7001234982142099, -0.19439112611545092, -0.38497175861770383, -0.24449840413084076, -0.5783138411463177, -0.5464100878309581, -1.2010787001709835], [-0.1090760179799214, 0.02553799742106742, 0.010290818655821675, 0.05405152928095556, -0.06491376605556075, -0.0018949606494239454, 0.039293243875858884, -0.5586257084450685, -0.08263820438893013, 0.1340222690505292, 0.005857474455404409, -0.3913448918938313, -0.08388177997882465, 0.05533492439341678, 0.11939644041409675, 0.18538021443505778, -0.26172482516537815, -0.48841708791699123, 0.0630657948376808, -0.1948936680475457, -0.14038692274766457, -0.0063538265972383585, -0.24252594850205686, -0.004394824148087345, 0.10722463242047937, -0.05857536145793807, -0.08763346963280963, -0.13201303410386223, 0.09726692403625262, 0.15998811289207343, 0.023719519841092423, -0.20479127658014268, -0.026336074430605892, -0.06720676137332007, -0.306522938069874, -0.042808357078606474, 0.1696809546651071, -0.32422389827154796, -0.16118156065501948, -0.02234748358842677, 0.2137206618906167, -0.20589804868232384, -0.2939454585407748, -0.3051893970297456, 0.08890898509607251, -0.1027933320118379, 0.07889095960828213, -0.20198138636839336, 0.02081789853921842, -0.4384022569372892, -0.0397308384679193, 0.04783525261943692, 0.18452846677413268, -0.11748451209592581, 0.38676868653204394, -0.1030893976510352, -0.173304167228586, 0.10697594774551569, -0.09998868246480624, 0.23797746192191851, -0.023767054201923606, 0.027251447506000243, -0.45652481014146185, 0.042195901454510854, -0.10154383142268761, -0.11294570037556055, 0.09654433147075676, -0.13593604507252446, 0.45309582072839827, 0.06418168375476192, -0.03731607214929762, 0.007303689188669121, 0.02369676583948041, -0.11108375909860706, 0.192762144969805, 0.31147266640982174, -0.04862000664257957, -0.18377540113608867, -0.040377629700745044, -0.21118541457694553, 0.05198256927796764, -0.27665447879445204, -0.05059841020434194, -0.14503244909290175, -0.15050957880464513, -0.09188633618918951, 0.4174561587308962, -0.023445167018564642, -0.34414321024508454, 0.06666008678818404, -0.08308676382004336, -0.11894617257462908, -0.18230406025970727, 0.23637788789725767, 0.08506913016968598, -0.2404028241999152, 0.19802684017039246, -0.34173650338391914, -0.22859595662895096, 0.0034762785881203673, 0.045654017427966945, 0.14736327592223222, -0.08158752846279285, -0.14530732317308034, -0.10188568222818997, -0.23132158121303717, -0.09417159525791877, -0.04650708696739097, 0.04767949191764286, -0.06513942967548929, -0.13130776347521747, 0.01033092759074159, -0.07461192500650293, -0.057902188290316466, -0.030445191778384246, -0.07848899315265279, -0.08199599624822304, 0.17866280398120826, 0.25450160294595514, -0.32005894113095756, -0.12313180692791999, -0.005236278916807904, -0.08285226354016802, 0.30691878569554326, -0.0897216054475954, -0.17660376977051437, -0.31581967178790166, -0.22396433006284377], [-0.263216377689417, 0.3802363609707337, 0.4202871132437484, 0.30567220885732477, -0.06777110911319296, -0.042923682915281564, -1.052168880753799, 0.14984390173394127, 0.07805104518860644, -0.42413492321861224, -0.17326266708106422, -0.1851462565884074, 0.020486274557892058, -0.5762989061540525, 0.07908648657387826, 0.3873351139850648, -0.4847744407028208, -0.2742917914978162, 0.5193563047785696, -0.25674126245777096, -0.5530622019199533, 0.5087163135234432, -0.7136848544438567, -0.02611348749155184, -0.0005731148655794408, -0.36344350881966264, 0.3016517370580329, -0.2247476526150228, -0.0762166682388023, 0.2691012485313767, -0.06883242608810211, -1.814288621356844, -0.06982475673072881, 0.3139316029037218, -0.12944752090671416, -0.46202204704909694, 0.01907377887216622, -1.3134501843917017, -0.007966493828184458, 0.2475721824839996, 1.2906900332573314, 0.566600925076457, -0.34215088381998127, 0.12997393427516996, 0.5027432806131179, 0.008199941601409499, -0.17031967147080074, 0.05271886795882072, -0.7814309796107555, 0.0659990955424952, 0.09375063121481425, 0.2157266583280558, 0.04417502290815434, -0.35498740731693945, 0.3829302166159239, 0.4187433197920249, -0.5047616964956964, 0.019788409236233893, -0.8302917323684276, -0.2695191095405639, -1.6369596509826303, 0.6863020637287174, -0.7899179786724922, 0.45589932371872155, 0.17506250165153178, -0.6167000790112929, 0.33779590586412234, -0.19778298219071222, -0.3354549113818361, -1.391659322630895, -0.314120514944572, -0.9742421305143293, 0.8719105972905805, -0.1732818091801188, 0.2625268691460417, -0.49369609114287927, -0.29209179695775356, -0.8179914742046421, 0.4140996476446979, 0.31115984639379396, 0.7903336552720166, -0.8891341750630073, -0.0030835415365993812, 0.21054599597412008, 0.3191010170466046, -0.164312432126404, 0.34896632830807056, -0.16174827550241117, -0.8159012186945899, -0.05001678113951453, -0.37865146333334165, 0.07437147188241289, 0.10781828918839173, 0.00990598003763749, 0.13459076207226064, -0.2752804719113563, 0.5485431155188942, -0.11157710022100917, 0.9286390403180499, -0.674925904089086, -0.18855763207315138, -0.015832294863819745, 0.29071538836642025, 0.12095096141287268, -0.2928271699829194, -1.1487642498421766, -0.11334845914424638, -0.7288448234876265, 0.32888072314926975, -0.2894208025341643, 0.46768504455534937, -2.0399469687611353, -0.09126367818355348, -1.6848804095913825, 0.3153764547174116, -0.6163130266707494, -0.6856250972026218, 0.2896242205355164, 0.010072227665346305, -1.2105599685550914, -0.12089728376861612, -0.9753786213459197, -0.19474748550479168, -0.44353490401722445, 0.4412571475129406, 0.47149194367197034, -1.0417532093050987, -0.6443556074605366], [-0.10150237643359619, -0.06805105220777703, -0.041044130592405144, -0.05508927817173081, -0.01662609819209135, -0.012640348495973498, 0.00800393219352504, -0.3160761645509217, -0.1488209165731223, 0.01900547997278854, -0.05265163298210419, -0.27705754830105733, -0.08136882002248964, -0.01769061539500577, 0.02541515906555495, 0.16612489226751717, -0.21021818124399594, -0.2679454359245966, -0.12082893553826406, -0.28175364256054664, -0.006726779764570608, -0.11336381746016432, -0.14058761539290504, -0.017506100954807695, 0.028309921377966323, -0.0498558101927211, -0.10548021074821207, -0.15958831430608542, 0.16262745627451272, 0.1541012040870684, 0.05196640089889797, -0.008881311705870065, -0.017313366819335017, -0.13404340107137547, -0.15916669245258183, -0.13071116290829377, 0.14591237027907578, -0.1445668241973045, -0.10197766204463908, -0.10451357868767296, -0.012047365044956309, -0.15981657203117752, -0.13445020097790056, -0.20339517584521152, 0.07013239764766134, -0.16512380076909997, 0.08310052204145689, -0.041428818009052314, -0.027862869014741498, -0.33167788335254833, -0.13635009435136156, -0.05511684232138841, -0.04750070537483871, -0.05890205844679443, 0.15349432663577167, -0.104715282527333, -0.12674007409169694, 0.10119215683712325, -0.18051877813383155, 0.17241672588801193, -0.05659011079456481, -0.14304929309168835, -0.3606131096719523, -0.10837446673275485, -0.005982271131997459, -0.12485599710697677, -0.04158840380213636, -0.26145313370385925, 0.2056308180819447, -0.05728230027274335, -0.11754785739855579, -0.02167525756459241, 0.0779577618523397, -0.1848351982045788, 0.014578703276315667, 0.07439987553848021, -0.08684159200568338, -0.0994817107024896, -0.2062338715251926, -0.2902873503166744, 0.043077028739275616, -0.3644532687710746, 0.004493247819257668, -0.19506807799458528, -0.10654040161217802, -0.03306022623047847, 0.3429673863695638, 0.06223444045307621, -0.13331124758827312, 0.024214708405304947, -0.06284915052130631, -0.05135309408881031, -0.22548969992136894, 0.19967751579676846, -0.06524556123156622, -0.20113833093349448, 0.07110887391856745, -0.16986793988194868, -0.18072064644192123, -0.07299611139682846, 0.09261407434260883, 0.05340325485764344, -0.10521405067116557, -0.1683879993338647, -0.06404336330545973, -0.23868768110454402, -0.05038520634396332, -0.08465591372978142, 0.07347268748040392, -0.06922370679799277, -0.14841865126792717, 0.1656755031439625, -0.1886279164369494, -0.046676691830843435, -0.24478851387871284, -0.06205582541047276, -0.013239449433228075, 0.19498180799688844, 0.0396004107051954, -0.21931421526354547, -0.19097345682237152, -0.05637646489695791, -0.1285176426392589, 0.06354446716105205, -0.1245467039270143, -0.24638281868644, -0.21472021358773352, -0.17644780267553506], [-0.12829975766575907, -0.14533036523799578, -0.15758096491685045, -0.05602901399225883, 0.04977123925869359, -0.029306340727273273, 0.045741516497852824, -0.2260204757020287, -0.16704994618129426, -0.1299310920016381, 0.004666044563061488, -0.2078515689493195, 0.024566751056571096, -0.0758842743324674, 0.03224234900658625, 0.21109166720393704, -0.19212542294738819, -0.03936682229184841, -0.39613218093257385, -0.3447307604460539, -0.016252567964677674, -0.4550736549951341, -0.26275970091894574, -0.050646908209096946, 0.10426754740672589, -0.05522397897509817, -0.14621121123498587, -0.12503401028943711, 0.18317244221049825, 0.20917407827719675, -0.0250342050690274, 0.12038250997631277, 0.030705273721691462, -0.07852377900407144, -0.06819876543339139, -0.2216475970573311, 0.16019169324682883, -0.134795645864247, -0.04735233453610759, -0.2786536775062245, -0.25968864719443907, -0.025528370397073792, 0.09017412565908306, -0.1612257216361514, 0.16814737869821664, -0.16180062317677177, 0.12713084174969147, 0.13267946606348135, -0.04749558660733664, -0.31387124775681274, -0.09690146223423911, -0.22636291121952862, -0.062270621481643466, -0.055719548941231545, 0.13939940094784806, -0.06583788069588441, -0.100691016340873, 0.0757452536236872, -0.2984012374597976, 0.03199268071125933, 0.08623166253350736, -0.2215776460097278, -0.4185144597827925, -0.0746558502373024, 0.18361486707570165, -0.08662002386036266, -0.06865923996876022, -0.36215169081385457, 0.11264230664238033, -0.015281156724431555, -0.16261679916960006, -0.06616743219698039, 0.03815597092941552, -0.20515391287588902, -0.050627512490045455, -0.0596115483135023, -0.09661629363389426, -0.09298389620140986, -0.5047062994019241, -0.40880114061241296, -0.052593244901806814, -0.38165813923787645, 0.18344196808500862, -0.20454729971324848, -0.07817905396532913, -0.002156690973140121, 0.47382249581598807, 0.050754952997441545, -0.08197894757697462, -0.10256724562347076, -0.11281220255999805, 0.10847048891027711, -0.309302013512784, 0.31727939663749405, -0.059054451835435146, -0.1666189518468622, -0.13030847176922494, 0.01713006415056323, -0.24487010663837394, -0.0689373157825863, 0.14638784157473847, 0.17046409038233123, -0.036656349342743734, -0.09684224195371341, -0.14868789462277682, -0.17517231714822304, -0.010005659492111487, -0.08142629340339777, 0.13828415166980043, -0.005768151730598822, -0.24757697887088392, 0.2582509196039628, -0.2358493367667731, -0.02607535679912882, -0.5678086787410753, -0.021166193015149774, -0.043929090238910444, 0.4043740912688582, 0.012350221283862806, -0.2287904761557909, -0.23771703392596638, -0.17529415541989501, -0.03577667819515944, 0.024161255900067218, -0.18188650004196102, -0.25872838388806174, -0.26982317875353207, -0.1261967953324991], [-0.1262937735638378, -0.17107092167434118, -0.1220430503456141, -0.0803599825972042, 0.04578333235455606, -0.02604594995582143, -0.01913527255966525, -0.24072300817061096, -0.15859086673026807, -0.10682447536377743, -0.012299063257641768, -0.186716645716803, 0.009049997190395714, -0.08339981312190929, 0.036507551938367196, 0.14217980208951114, -0.2223442689689378, -0.06302889983131188, -0.2954794091784929, -0.30701524598944474, -0.03465849178799594, -0.33951298287878745, -0.21666450791737824, -0.005005794912375414, 0.07149604462561575, -0.06660871211731106, -0.11670261220364336, -0.15575227127306374, 0.23215122547059486, 0.1932292885693424, -0.010277108910266357, 0.09483574554455364, 0.022405078266628364, -0.06901854356395223, -0.07518270052708219, -0.18611123678476976, 0.10303103650960094, -0.06272963893402694, -0.06909264801781853, -0.18998363804417095, -0.2127165379852697, 0.0002779913873675557, 0.05963666035823231, -0.1594447881761356, 0.13460508526194107, -0.1887249908376269, 0.12630032771921337, 0.12655303339373541, -0.04644329911544467, -0.30813075072858354, -0.11719912904134763, -0.1951687504224793, -0.10587000867827112, -0.04188946681872902, 0.11222743652724085, -0.07745893690589034, -0.12079517621434006, 0.04391020685862897, -0.287261950073613, -0.022017288305356264, 0.018194569486162396, -0.1939695613246626, -0.3933749441718848, -0.06454171995469263, 0.15597727634595543, -0.11860265811265763, -0.06820525964379281, -0.3496657673205048, 0.0712836837544814, -0.03977279666277533, -0.1708858490150757, -0.06721023192801279, 0.09673293356912448, -0.21829418114742374, -0.03282610443684636, -0.05584399468853776, -0.11214072828546072, -0.14541228607144988, -0.39567337808974123, -0.3668390864212302, -0.004722701277859632, -0.4112657439866445, 0.1504351128221881, -0.18198286697670404, -0.06395600412775508, 0.004818424854728758, 0.47508262221392455, 0.1036619900192907, -0.12977163441455752, -0.13434917603955904, -0.09437514202081533, 0.08806504061453413, -0.28806285886629845, 0.3337224137176769, -0.08117666495389757, -0.16376756274490736, -0.08147215356687969, 0.011192134266183018, -0.20097562404349387, -0.08558973489546932, 0.11460591779798787, 0.130441686312367, -0.05746151202728534, -0.10785489705902297, -0.13187412876425406, -0.22832393106987742, -0.018817679428652503, -0.11404143100416601, 0.11129355271795796, -0.011381089584235815, -0.18449296454996061, 0.17356043901522392, -0.2502867066784228, -0.05927593921586634, -0.46640735935446825, -0.033831395332131815, -0.06427455771256604, 0.3874860392714827, -0.01142509927096007, -0.2572712183732056, -0.22761083664244836, -0.21894113289480158, -0.0968375436808975, 0.002560569885677884, -0.15223632083658445, -0.19291267609381796, -0.20350432680928526, -0.14875626067278894], [-0.19818908998589924, -0.2811499537519684, -0.21624455256066286, -0.11205810180011079, -0.004345026126745171, -0.09719941538498716, 0.11271727511688444, -0.1516264230644923, -0.2145194114046522, -0.1299691426239036, -0.003412676839535668, -0.17635613444369128, 0.015408843585186198, -0.006184427607825229, -0.02008991608267982, 0.15393657336031102, -0.11400137376206787, -0.053784459767602225, -0.5102546523070225, -0.38693669424887217, 0.03845804861074727, -0.540788466934919, -0.13407779341293385, -0.09169482477522509, 0.08960361860634979, 0.00982938262913688, -0.19644657155210174, -0.11151220932590014, 0.2224465808418466, 0.21275484731015795, -0.14647601014124675, 0.24753825809293034, 0.010488170531054119, -0.10608273086996291, -0.02086348263126373, -0.294425794702393, 0.09559708033329078, -0.02052844041415428, -0.010337232572815661, -0.2754264976035288, -0.4887072292641296, -0.04903071213922464, 0.08692129806688177, -0.056816571619887575, 0.06425838883021594, -0.17205351643601954, 0.04320529542342973, 0.1294806584425874, -0.09183647612210152, -0.2764253225295092, -0.09680940673192333, -0.2789214852174688, -0.09406454184795582, -0.01625776255492944, 0.13787382726511288, -0.05484354975381113, -0.04960804386366697, 0.0772606091590141, -0.26787909376854907, 0.007701934160359444, 0.2924695424678833, -0.2644344435258111, -0.3077261158235327, -0.07606953803536996, 0.19704945615661995, -0.01645385471564365, -0.06859490271075684, -0.3370277973213293, 0.031741173298376106, -0.02166820781733883, -0.1021928642726794, -0.05502243173930832, -0.06764000637210126, -0.18370277755787612, -0.176777623092791, -0.12094276033318853, -0.0904245795242667, -2.3877609642735225e-05, -0.5596174665586099, -0.3976781097746578, -0.2156335941654654, -0.3033259275277206, 0.21639928290836868, -0.19449162228085504, -0.06772748430208327, -0.0845081529844366, 0.3154900802523091, 0.10352137353713091, -0.035288794073482746, -0.19653482011099646, -0.16081472993143436, 0.1533932676806751, -0.28005941241480287, 0.20740595713393553, -0.0862306198930666, -0.13951321272532172, -0.13923551787030147, 0.032959085545060524, -0.21323676759086668, -0.07413937596706584, -0.014010692269204376, 0.20965588865897714, -0.01998893391241412, -0.10646699062996579, -0.23408469968579035, -0.1326361660957537, 0.031745923535774434, -0.09604108843907767, 0.10595946863859056, -0.0033391663986553255, -0.2529335704830715, 0.3419944263905071, -0.24589738294365965, 0.011865451357875551, -0.5943047320849759, 0.009892788247245052, -0.12201762996577266, 0.363230109734826, -0.014055062944677267, -0.15678365798538038, -0.25145112818585896, 0.0020030418750809037, -0.043721289457929184, -0.0840260111058575, -0.164137909559489, -0.3170676213439057, -0.17276235494173095, -0.09157453373707704], [1.2647848906042063, 0.7308682587127657, 0.41532244353137987, -0.21397027259500315, 0.47746676508918434, 0.16285835241230337, -0.6011492757599612, -0.4249570684363606, 0.6695271295979771, -0.5669118654109969, 0.9495120586356599, 0.5667693366471839, -0.7208653160397079, 0.060045385314708544, -0.5383241691522292, -0.6661154063411564, -1.1400397609028639, 1.3560613249235671, 0.365084420513844, 0.2862890288810461, -0.10480886648437542, -0.3485024570923417, -1.1589370122872682, -0.3065254636777741, -0.8146088354726995, 0.39975559041862524, 0.34459139191942634, -0.848462224748974, -0.8867353576409346, -0.29479781488944246, -0.6014462126067147, -1.1035393245331462, -0.34820577200130026, 1.9347440324818197, -0.824764468379296, -0.380811545185578, -1.1567867548298119, -2.742311923526484, -0.10920206156659054, -0.23341598038241024, -0.8875413725436949, 1.9911358427000176, -0.09780856836317418, 1.2803310353699893, -0.019909601988907222, -1.027613445468354, -0.47086941202004706, 0.7080640609125066, 0.2812127649273118, -0.9874812204425742, -0.6926839974919236, -0.3623496849242921, -0.8081633144822269, 0.18952385757542933, -0.7937709845144351, 0.5039790140176855, 1.7044735756619327, -0.2222991108899725, -0.4540163110132118, -0.6184289340509896, 0.14451081308728725, 0.3766585618580607, 1.7069933889873874, -0.16702708947178443, 1.1305055935415527, 0.5434596375559659, -0.09308485460246584, -1.3203930403266764, -0.23887502560383425, 0.7850103833270319, 0.1741701425943022, 0.6461942921846973, -0.35328802547396665, 0.20605907510112034, -0.8047466953793847, -1.6641929590422535, -0.5780441607393038, 0.23445711017666607, -0.18410183624729853, 0.03509543432714006, 0.19399522105833086, 0.34420902916084034, 0.762034876121485, 0.5103762216625116, 0.5481172644000377, 0.47967336840192226, -0.484349526478986, -0.5672537872446747, -0.8837364568419084, -0.3803580197939198, -0.4591778403071196, 1.184137764903782, 0.3170387140592045, -0.39753530303384144, -0.5103204640142455, 0.5740526515371027, -0.3086223414191572, 1.323753826960229, 0.24858066110473387, 0.15074815442966033, 0.4665476397371294, 0.4929634528812442, -0.3237401200394613, -0.4806150708217696, 0.01967177551323069, 0.9488649572403363, -0.26739619430169675, 0.4393453315916315, -0.1688502392775836, -0.3386706270509569, -0.08793983946223148, -0.9933628540125956, -0.5134625805127908, -0.7970468099892438, -0.20085704611403077, 0.47734938230564555, -1.5764262979846941, -0.08824596157388379, -0.7601662457782151, -0.7100048295494187, -0.04285658354981458, -2.651044506716773, -1.1045613759541624, 0.284294140436167, 0.06845769073379065, 1.0322007287510209, -1.7456769560654681, -0.42734261694908116], [1.099638100963984, 0.44950793610812023, 0.23451960544119366, 0.6495248388696494, -0.6074031941208601, 0.14073437057990695, -0.6185725783048002, -0.679291226963109, 0.09904078343576955, 0.373537219997865, -0.30018278734811765, -0.6418956112584195, 0.9968169472164405, -0.797262054588475, 0.655431212973357, -0.4454961547340963, 1.1199377160492445, 0.25998905235216874, -0.5415369046698145, 0.4613705285172511, -0.7781181617390486, -0.0968390188435973, -1.2261711143953251, 0.5570712608320271, 0.8989998118174279, -1.795310082382026, 0.1155756318097233, 1.42048116404671, -1.2686907104305378, 0.027463280854544678, 1.766074523290445, 0.03974682057004845, 0.31174292629805667, -0.6569671020104624, -0.13310077001665024, 0.6908568266935502, -0.6570087814544433, -1.252330570003286, -0.7169141786518249, -0.12316622201523396, -0.577335951962526, 0.5751719351772009, -0.09112714945248694, -0.8255122430510319, 0.9720361157123882, 1.4057540741460082, 0.5764322697200827, -0.08532801964757455, -0.24071162965362045, 0.45358131796972956, 0.5122549746405555, 0.0019102143750763178, 0.982058117196646, -0.6989963243335757, -0.8328267789505647, -1.3265267369847389, -0.9366437128556987, -1.629148246908159, 0.16166027142787437, -0.3598448588678787, -1.0144870529807224, -1.021441327744716, -0.9018700711496742, -0.12411576100600431, -0.13928201396344606, -0.7241947778114812, -0.2070684850734737, -0.14903718228359306, -0.9380765795861963, -1.279679529224373, -0.8475623440205168, -0.250798332734894, 1.0564488301343813, -0.35512882943652524, 0.17910204735089277, -0.7861724714106347, 0.8088503337330041, -1.7895915437005312, -0.45847885946512723, -0.32824225783436184, 1.4965637659040971, -0.1884025088243124, -0.5694937065434538, -0.5895680470596883, -1.5133620507425054, 0.3006345230496435, 1.2542478975220492, -0.7724933641961602, -0.08766439876421356, 1.0684893665491522, 0.4777199199164176, 0.08501382272634385, -0.7394757404712369, 0.7889406128315293, -0.04440404833907124, 0.1629985703691333, -0.7725029958573476, -0.25417941859314713, -0.14649026486515748, -0.7150507623915118, 1.0644341582149461, -0.97931803280725, 0.28466491250442993, 0.4922342679264816, 3.114128153024134, -1.194048520317171, -0.569601995516886, -0.7248417885046909, -0.1610790624592709, 0.30602544498029055, 0.15413149093313652, -1.034403950938506, 0.7844151878516284, -1.127009197256356, -0.49113209766856625, -0.9664354968125317, 0.17055377743924388, 0.2065542835831853, -0.3167206497110303, -0.9381948277249786, -0.3757541472158522, -0.5378300365391959, 1.401785512685326, -0.32516523926262697, -1.1546071210507969, 0.9304472560105946, -0.8096223756754413, -0.2738600541080627], [-0.5028838173327396, -0.13897560891475472, 0.39754849804766357, -0.09457171739787112, 0.435633159109192, 0.07174949097640157, -0.12484510867266828, 0.09344707460877535, 0.04111901265351734, -0.08875438808843085, -0.24197504920895688, -0.9633781922911936, -0.17602705779491204, -0.3408088008723083, -0.2668718405579773, 1.1161638643325855, -0.297540647373855, -0.7709240377212311, 0.3747330679529615, 0.2956654928003838, -0.19217273558732478, 0.33193775068598474, -0.0799777418544356, -0.019091641190708077, -0.2570851252170126, -0.17508609003897724, 0.13926993815054134, -0.2699374028432638, -0.04664387148335084, 0.21733628042518877, -0.13466279448574134, -0.46241243034207674, -0.14017161667378192, -0.4969323251318554, 0.12191144356236573, 0.13447730828701449, 0.9375357263075778, -0.5966944624625375, -0.3701937359571206, 0.290653725698526, 1.2913534407493183, -0.7228590524191925, -0.618404839286075, -0.03900482601759366, 0.004725344276274351, -0.14664692128530663, -0.2525714154940452, -0.7872392471783294, -0.24032675764931938, 0.4784732429844375, -0.0970829220872141, 0.7502964923453295, 0.04717374615645482, -0.2622477967890503, 0.20849089394143794, -0.17630769009306996, -0.16711912602409318, -0.06706097170463138, -0.3798047622837372, 0.537235727215469, -0.37705745367395194, -0.014760612304570554, -0.44456426850862235, -0.23513553591764583, -0.5732725217164448, -0.12251201520432185, -0.2099626766804268, -0.28432563007569495, 0.21089843941248157, -0.13037884822916088, -0.2630834193913372, -0.6474358885766052, 0.26868565181931553, -0.07229723183696957, -0.09968019958244674, 0.028394607365604885, -0.04898326275011195, -0.025165735702000973, 0.5077301996839211, -0.18425005200707606, 0.2773269444648877, -0.711042021694349, -0.25992194701123833, 0.007092947020338563, -0.11051471285704935, 0.2563505970969264, -0.14187048111658124, -0.20716842658990708, -0.06562653106633337, 0.4587088659599591, -0.2750140956016837, -0.48602514693883225, 0.091299841585476, -0.009147879848964589, -0.157728566830352, 0.19482334989644365, -0.3443736239194152, -0.7450877982454284, 0.3914026952926329, -0.36958346207027004, -0.19555658166911108, 0.0988826993726303, -0.2517589388318336, -0.23941414297551675, -0.42893910446664807, -0.24752073516355272, -0.35796892950952, -0.2425395242934103, 0.19227092859360032, -0.10415901727990783, 0.26390430769258844, -0.3966131157970219, -0.09483740367064433, -0.2963021775000413, 0.44803806485895736, -0.38077851901844484, 0.1939410346943267, 0.03617983084402356, 0.04024964067723153, -0.5920781469291496, -0.24220186544846228, 0.35662080499666404, -0.21214694582586194, 0.00041327375372036024, -0.19871170624962173, -0.3001748051581677, -0.6256330494960579, -0.7029556716666747], [0.7285860945496844, 0.06541543645824398, 0.5992218225650484, 0.1153030436399989, 0.6754214850245284, 1.2248742544917652, -0.42550914582411015, -0.17264404313302398, -0.36262338150249, 0.5283906365932812, -0.007465281039861171, -1.2726214398878468, -1.1033563528720338, 0.15318827130640467, 0.3980924113351608, 1.3615693458911546, -0.37509685832183337, -1.3020475378065872, 0.390733574902729, -0.3157340016701858, -0.3101899518145668, 0.5970102308852305, 0.7558153300389822, -0.23644234663122868, 0.23760265587874674, 0.7061751758171485, -0.559235578419019, 0.23886028726321282, -0.9332648330358284, -0.24030716189196905, 1.2778402877015547, 0.02543377192712659, -0.3324295335423793, -1.3653890126134944, 0.4145843998693262, -0.4597008478023799, 1.0882027030291601, -0.8337150544291214, -0.3214970311244982, 0.09679949530937611, 0.2984282228974724, -0.1161496368544947, -0.6427622384666097, -0.2886413190960357, -1.0851149572171446, -0.32151489419212415, -0.3782545135502075, -0.8004602166097754, -0.40130119104078094, 0.24916409945307738, -0.5245925532014047, 1.1447021596487446, -0.07365602729550949, -0.14755975582393902, 1.9532352554820946, 0.3060176805565639, 0.7026357215395119, 2.018203790791531, 0.18020310640686313, 1.2254663127661038, -1.2644413364033738, 0.5490611212712112, -1.2742502205028268, -2.161504069462439, -1.11364420832597, -0.9746020695655911, -1.335236978368287, -0.10350923673915269, 1.904371799389463, -0.16966617945371482, 0.3512223433175072, 0.1011891873838835, 0.8662380269347493, -1.2752152013681062, 0.27204394154838407, 1.6781084441979177, 1.0885762630011309, 1.5865162738500493, 0.09420104143359016, 0.3025797509089558, 1.1862345282023758, -1.0752101765714217, -0.9287495155112904, 0.08939772814026367, 0.3187244700202781, 0.510188430781695, 0.17171522485016438, -0.417676812675449, 1.0435204317168882, 1.780130003415737, 0.19949876907164657, -0.48745940803250004, -0.28590199029949026, 0.5869774434644505, -0.7099438736723097, -0.15482237713533858, 0.7229831229505957, -1.1445674564550181, 0.06774474228657441, -0.1977091697404044, 1.5344101621360107, -0.9305620076762169, -0.941944213412659, -1.5563571953831332, 0.9093373558721217, -0.45841519694116667, -0.22430032304681002, 0.040267922446239585, -0.19431849136866164, -0.742875252692998, 0.024426157779476095, 0.4132064278406836, -0.2574499176344009, -0.6175063769190845, -0.12636590874511686, -0.4487673829671705, 1.399465151476249, -0.24159921801641265, 1.2513288128297033, 0.1841047966648602, -1.3537312290457588, -0.20534136130650477, -0.21150439166834273, -0.2129255108462078, 0.3832112563176885, -1.0811801681080482, -0.3763060424916097, 0.1389490114049885], [-0.5136928261287219, -0.5292936653540409, -0.7114574528894748, 0.4046562380462591, 0.386938257201601, -0.16606923564211895, 0.881672962981278, -0.6386872020118659, -0.2241757031334821, 0.1276527273648043, 0.6039350367324373, -0.7363032266257392, 1.271267358761317, 0.1430035644579604, 0.10423857562419538, 0.36552200179938943, 0.823868189320025, 0.48236061968819177, -0.5256109098604315, 0.08044053656367339, -0.06634679120219984, -0.7616108809879963, -0.17622069755715097, 0.444430351289947, 1.3204177851260643, -0.7244911275947841, 1.5181974250864259, 0.17512174126713229, -0.3506418507153571, 0.2946122223865364, -0.061095494567465804, -0.05128607148993945, 0.6083269229367014, -0.3742177599644253, 0.20497689867702582, 0.06769201560785898, 0.5345541432886535, -0.5940839088983785, 0.0005211429928928555, -1.217749008474823, -0.39092658407597036, 0.20163573183024533, 0.9213368542804588, -1.0280606031062776, 1.494216003286158, 0.5793895051904349, 1.0818414098251372, 0.036477757189005124, 0.8980454442035163, -0.97274457961108, 0.8356805521907177, -0.5988065498357202, 1.102414308144296, -0.5405103302924075, -1.4270788248334842, -0.5503721061037724, -0.28671471335958726, -1.6139030627307733, -0.7771263201228877, 0.6376579099703171, 2.4920267677848242, -0.6443984096760302, 0.3275287012287636, 1.1380560761165077, 0.22307534302652055, 1.1022483358269337, 0.5040704925089577, -0.21105118825475894, 0.03543962119267262, 0.4116846184318408, -0.1850796362847052, 0.4777611030218864, -0.7791605926798801, 1.5778184767894703, 0.2864435528907986, -0.4535263908233129, 0.44364728816348464, -1.1966717616663693, -1.2749308341220789, -0.47660040481421173, -0.2556336286792163, 0.9886170916158318, 0.5048100070495987, -0.09295200126827056, -0.6208426154687172, 0.18243495275143326, 0.8528417592421185, -0.30582296165825784, -0.605299125891588, 0.8008210252373995, 0.7211283048352127, 0.31372607946986414, -0.37476392351752924, 0.7315505043082509, 0.4843838826366337, -0.341067522080916, -1.2958620497510567, 0.1503544059347738, -1.572338114283614, 0.5946246132245632, -0.23341645464119115, 0.7852566084526689, 0.844940189493698, 0.9099835697632901, 0.6944522308169991, 1.3503799049225516, 0.042840575594036236, 1.041589011919846, 1.4887267155301425, 1.120310962468989, -0.5640856285790944, 0.5536827636806633, 0.9440925415035383, 0.5907810403397803, -1.3232462556431337, 0.4959477585396554, 1.272276342764484, 1.0679879150133567, -0.7463833486697542, -0.7225287256106877, 1.2085033105438168, -0.42310909388681056, 0.759130875759389, 1.2360039716003344, -0.909591228081161, -0.19510666568154417, -0.597027057836671, 0.4878127635863109], [-0.05051666835916223, 0.5717212292578375, 0.38114491999063255, 0.17996059664856018, -0.3669411837221491, 0.18899879293213107, -0.4569139034349187, -0.605427942673032, -0.0796408873152991, 0.14327820796399676, 0.017518173863042, -0.6209282361142753, -0.0743728237977446, -0.038196156959356554, 0.14598576097230803, 0.46723195638013487, -0.34860279303834407, -0.8678223266302826, 0.2894580615399001, -0.3330068045018712, -0.2554389528807991, 0.4291002503923108, -0.6664757900082997, -0.17623510838755413, 0.3578963108871872, -0.18300942288630787, -0.10487818867337012, -0.0969021426549372, 0.24382151545361105, 0.33813498172141926, -0.06952483358092312, -0.9047308251612763, -0.064211265120989, -0.17034466523580696, -0.13300810405344976, -0.11004076926568729, 0.289571790195509, -1.038308314521363, -0.17682639063609043, 0.20061498427241514, 0.9424258056612144, -0.38667679654338893, -0.7201708162543463, -0.646268750964611, 0.035954835475323105, -0.13315305650558523, -0.09462530353361148, -0.5371836631391157, -0.3131783116353203, -0.7034915059086505, 0.18881073937386778, 0.5337256012053556, 0.470987397775705, -0.19502699388991207, 0.7100371968184536, -0.10578780504879215, -0.41740552998443403, 0.08715721109019003, 0.0442558022409853, 0.3859611451164333, -0.4458373337916229, 0.29811397785757165, -0.8889227316212999, 0.05352712894257508, -0.2258714170272432, -0.3028813161299437, 0.17753608403190702, -0.09364359005053305, 0.6621025559561124, -0.04343064779765352, -0.06905903060772642, -0.24253692025120804, 0.01371050591548648, -0.0390477723989578, 0.4515226105846533, 0.44624426293070685, -0.11757452592733472, -0.5050369007594883, 0.41529625931385183, 0.012109476930442451, 0.4269769014983147, -0.46291883273676, -0.09244551538083738, -0.06704498630116179, -0.18403621745603196, -0.4084662770920902, 0.5052967429323041, -0.02149626333029124, -0.9882074661646777, 0.18339146572534226, -0.10026648872174274, -0.15389357614752847, -0.14697686500158844, 0.09518057603123588, 0.0019716154893979648, -0.45893862778974404, 0.554936101129076, -0.6190689882404106, 0.11921426706513019, -0.16709885394202245, 0.11011590151185044, 0.32454196064029184, -0.033702323540117006, -0.23494296227862912, -0.10296026986925387, -0.42942982265013296, -0.15514701468061376, -0.1488004421867202, 0.1806893120476659, -0.03422086735263293, -0.07271808878275021, -0.7867073037076336, -0.04453616971728187, -0.5316379393553031, 0.4544233693342336, -0.1957077521016558, -0.22994969648613692, 0.10239548804126496, 0.5145861700992779, -0.787242774850206, -0.09374807890028293, -0.27763083687713935, -0.11247069545793256, 0.29186073796099404, 0.02240162245505472, -0.33231031930596716, -0.6079277912831411, -0.5304419381881005], [-0.09227338727727856, -0.10134632387740848, -0.07770817358223131, -0.09423832725296628, 0.006509626399741902, -0.013439177186417392, -0.027686941441964274, -0.2633728245330845, -0.16271910364094938, -0.06896557360558625, -0.007973087122778109, -0.17794994684737434, -0.03990555612182112, -0.07562952201480744, 0.006723653490059122, 0.13242256239094302, -0.2283009858997284, -0.12228612819884971, -0.24583903259551546, -0.31654513393249045, 0.002650096726489966, -0.2620673280956407, -0.21833234561048837, -0.032334129259202524, 0.020934095165106015, -0.09605321427021572, -0.1355540197463288, -0.16212821301502717, 0.22763445922172248, 0.17041644102979772, 0.005599140754275505, 0.04200397878607719, -0.012601774670486463, -0.07117947779524009, -0.06747240396369432, -0.19894115413494637, 0.10618202741127362, -0.14571242750636734, -0.08481567464733963, -0.16189420010824088, -0.13424574503053718, -0.03564927174938106, -0.005054366835000157, -0.1856017320573496, 0.11522838028354064, -0.19048512436217943, 0.09811351150583837, 0.07973664231999562, -0.03479389134311109, -0.33147699018165344, -0.14172075424214245, -0.16524694019623962, -0.1030164062405805, -0.0630096588587711, 0.0901517023695955, -0.06968287828096156, -0.15754939124018005, 0.04762599657033906, -0.2579256896776434, 0.03519907534903162, -0.007339984846368089, -0.17489275795098422, -0.381652954104227, -0.08343536719230793, 0.11465769522376107, -0.12283380762024146, -0.06196818047420292, -0.3334294197119706, 0.079120391915424, -0.05560198007640806, -0.17796324359734972, -0.06760732569111884, 0.07989816427261125, -0.21502873643087553, -0.023202342235288432, -0.0412445766213034, -0.12322555583492006, -0.13824078146812135, -0.3352335571057083, -0.32697795138279256, 0.0014206174526679924, -0.3999113525093676, 0.11973160519563995, -0.181396921736051, -0.07270697875307408, -0.03492459374715989, 0.3997689886453952, 0.10248810971532797, -0.13789257260398144, -0.06674741956070837, -0.08510018583297088, 0.0537867335397725, -0.2749007453326807, 0.27495104710554846, -0.07491935454201717, -0.17478010044600678, -0.030497114715863253, -0.04498971375234869, -0.18264967648901878, -0.06981609557696529, 0.1339887877713075, 0.12554357679511244, -0.08056238147166717, -0.16350196668786926, -0.09877083407791139, -0.22483281343252326, -0.03821477855692603, -0.09072853534180084, 0.10833155257304877, -0.04601919522180388, -0.16984208723294764, 0.14897349469622995, -0.24224255070497716, -0.06743198595399306, -0.4171024348939688, -0.03287237977694041, -0.061346119402394365, 0.2898871663192021, -0.008315534422526112, -0.2628464562874482, -0.21969345196291842, -0.21743387345122484, -0.12190258865603835, 0.002702238805211857, -0.13375068165030818, -0.2094253470509333, -0.22216599584995356, -0.16487932772161795], [-0.12796915769473902, 0.02939405610086375, -0.018168765304565605, 0.008542588291060483, -0.05791058172621821, -0.011682348243542468, -0.013096903390218132, -0.3901272481043327, -0.08850063035631056, 0.01949611922552712, -0.035953364085387386, -0.27055635253766114, -0.09236517622320352, -0.03359351834340192, 0.032833030361299226, 0.16024733146704956, -0.25353237419149255, -0.3137598573708554, -0.03307288367160428, -0.21134811796946637, -0.043175735437566094, -0.0765651871734458, -0.22366503115980424, -0.034357389716752354, 0.009851614464551364, -0.08408166688421292, -0.0879429131125662, -0.17216738110670657, 0.1658201315861532, 0.1488729368022472, -0.011808757448808934, -0.1788643011307138, -0.02147230459123148, -0.06300041354725704, -0.20303088607566327, -0.07703543909266995, 0.09589247619259471, -0.29898844154487714, -0.10224194264868615, -0.057718871354476564, 0.15879897439214638, -0.16339791694066053, -0.2079138324406937, -0.2366713769092789, 0.11862338813255334, -0.14875663282272494, 0.0649974848805766, -0.11000203035556454, -0.012989088929281457, -0.4228992560644119, -0.09272589316112936, -0.007711429343902881, 0.02472925209689697, -0.09376200798901482, 0.22136715571206148, -0.04745108907132164, -0.18420730708131655, 0.06408667178026414, -0.1668245872494909, 0.1333030275299821, -0.08380920145721553, -0.0138385594191912, -0.3923888612531766, 0.010302492282266564, -0.013325510537354642, -0.12424222187260553, 0.012743484050809897, -0.18248707251679724, 0.3016837646977237, -0.022655002459642522, -0.09270076400272499, -0.06281016549150462, 0.0570521607807889, -0.12532998963868353, 0.11586088086447059, 0.14863883132653666, -0.12900956062871619, -0.1979617095629139, -0.12118646199138239, -0.1715878944258344, 0.06873208180401175, -0.34127175097200524, 0.009654369250993491, -0.12423399422636412, -0.08093625627921838, -0.09615683090515506, 0.29508035755501927, 0.020935896692115246, -0.31738038859108314, 0.022188098939899818, -0.10359769744619447, -0.05845812190317053, -0.17257145016607436, 0.19083411338925066, -0.0021991134479141753, -0.23487953597778996, 0.13079345844415988, -0.19386656919140505, -0.1518877923075477, -0.0448816039226644, 0.06998967931356899, 0.10502515917988467, -0.07631264030044779, -0.13759194769389765, -0.1578069886690891, -0.2557458494386341, -0.0717081495106417, -0.08443507271615114, 0.083800110233772, -0.083136744042905, -0.1272698416572745, -0.013056914793945974, -0.14681433492501336, -0.09823016017004331, -0.16029388537949207, -0.047229712944090084, -0.08420144227268629, 0.16487793377168375, 0.11129989091803084, -0.3213130841055022, -0.13522132226708725, -0.10887964110557846, -0.12193071079774424, 0.17320558895152244, -0.05954623297185601, -0.19796812733764257, -0.32665164581124745, -0.2058473959307653], [-0.12771131748979409, -0.1734744822178748, -0.12284394456809768, -0.07502282710418975, 0.035940194104036705, -0.02180642565059522, -0.004972109830713542, -0.23411082890477825, -0.1728548770925261, -0.08658594735070045, -0.0012913527889611355, -0.18559748155900888, -0.018354115269524074, -0.061345709109640816, 0.028849406710634733, 0.13769187272684574, -0.21813336229645944, -0.07401357115524448, -0.29670066196884337, -0.32782879297825135, -0.014601156575160755, -0.3329145512860726, -0.19307166168391154, -0.01410246135623615, 0.05391428248743475, -0.05743036212237177, -0.13201842394291283, -0.14988027249343944, 0.23014343593087797, 0.1829309787761639, -0.0038262305139104024, 0.08511460788071051, 0.004729932638723878, -0.08402718075400727, -0.07939231688330588, -0.20185546805138568, 0.10116906707126969, -0.06780982859802802, -0.07573351962627922, -0.1911920672369923, -0.1985503158661418, -0.029149522522790825, 0.03776938009072195, -0.1502804863277108, 0.12110712646906921, -0.19196414211635124, 0.10793409063654848, 0.10795447640779582, -0.05314815737060759, -0.2990883612239551, -0.12286665200546876, -0.18757731643057102, -0.09420051039757696, -0.04125714956220391, 0.10122578202693237, -0.0731319550200145, -0.11545391228294118, 0.05230413903576857, -0.26787360008711203, -0.0023177974180787317, 0.031182835106354747, -0.21256480754217263, -0.3711276534129967, -0.07417793167677658, 0.13139228576816356, -0.11073755439412498, -0.0692948598237134, -0.33258734097233966, 0.08950854312681722, -0.04098589428447485, -0.16926250481572905, -0.05543397830140076, 0.07016188636053132, -0.21247398588819746, -0.04573816184798074, -0.06706535490164392, -0.11491374682035528, -0.10800658148622502, -0.37627913046864886, -0.3789664972330555, -0.014866462225827699, -0.39268341698596415, 0.13322781728886535, -0.19012299987724107, -0.0722092651148051, -0.010564015909983923, 0.4210248118482519, 0.08784819544454502, -0.10002964371938729, -0.11219542805403848, -0.10090979111496856, 0.06162275090006481, -0.27807525140609884, 0.3068057809007767, -0.0717283890009344, -0.16490307932924256, -0.06970222539574604, -0.012440634766270761, -0.20503428759264666, -0.07425543704905216, 0.11031645835321888, 0.1220180679011804, -0.06252175143098576, -0.1331877394766663, -0.1326527796739921, -0.2098778292638614, -0.029748038175591365, -0.09172336801724229, 0.1047826117630633, -0.030039469899292882, -0.18072675948589273, 0.19853181555553648, -0.2444995676487658, -0.060228341650701275, -0.4331218600460798, -0.020599188143339203, -0.06826514010726001, 0.35881243419151904, -0.011861603844897062, -0.21687111089496375, -0.23416418754607438, -0.17719610765000712, -0.09433628809085123, -0.005967194552909576, -0.15593577125985897, -0.21607649311928595, -0.18752610439250356, -0.1465785237996116], [-0.026887916920604778, 0.16358172033392368, 0.07670210306511223, 0.02578289580614244, -0.20800691967547594, 0.08905730653498795, -0.056649859255806276, -0.6481304339126613, -0.060793073643180026, 0.3590142983344981, 0.05122458317574302, -0.615820908278031, -0.09849354621720172, 0.10097144486811821, 0.08030860284415384, 0.16476964785794407, -0.30497773948783524, -0.7682406225803533, 0.21276446892397063, -0.2098757108040359, -0.3131125447569978, 0.1604303328373535, -0.38068834400834994, -0.08063187123112758, 0.22780056761450576, -0.04525208775642164, -0.1078584147356779, -0.14741574209434105, 0.03079914961826168, 0.12697346043487334, 0.1190582777334762, -0.3649693175176923, -0.0499706261385975, -0.03403659878660237, -0.21863494020835858, -0.0386542452270142, 0.3335776648732916, -0.5272485849566947, -0.16311794058392226, 0.13265690003549574, 0.4296617821137685, -0.16451246728926125, -0.44604893752510366, -0.4289391929794044, -0.005510421615028752, -0.06229445036432842, -0.039293361619991106, -0.43968661145113824, -0.007409435597636214, -0.5157413362812009, 0.04768352896057203, 0.22505188677355162, 0.3941738161212086, -0.1754688360302426, 0.5733973725404887, -0.1413708066709335, -0.19954846134943158, 0.08494366354957279, 0.02643779237998886, 0.36027294616397404, -0.12351046024408602, 0.1132540347574591, -0.5440914101803995, 0.15050716107243722, -0.2560223814052012, -0.14623079364232247, 0.16084430267807118, -0.08589209352132354, 0.49264520117844196, 0.07080434488265767, -0.03203480048690028, 0.01716165172787003, 0.11021286155548085, -0.07491992229511142, 0.17392402047851402, 0.3914967376019469, 0.01976412212262843, -0.2564681490930024, 