[[-0.008155656475529401, -0.004551261567071511, -0.016372299001412204, 0.007885792175620597, -0.031000458456773745, -0.11277781224623919, -0.22754357265754108, -0.16767334828549516, -0.1070375094859975, 0.005595948392546918, 0.11240844968242845, -0.09579999109166806, -0.2701411269179286, -0.05445694902941178, 0.30332667473548863, 0.5519294067118695, 0.7079689166793678, 0.46504821634761845, 0.37023756962034393, 0.18149560334646292, 0.256347317600052, -0.0094958810229489, 0.14737478378889957, 0.15977118438728366, 0.20029356488446476, 0.15818614459641528, 0.028468066675738847, -0.0004353446487536442, -0.0003880065806959768, -0.01925218229640396, -0.02991512538969391, 0.017575746684529214, -0.0041293237592724035, -0.2726131860438772, -0.3379735474489476, -0.21618719258929203, -0.23577165134574485, -0.07737629105548487, -0.09903957214184975, -0.4907287779107775, -0.8741690241647737, 0.05924448135467252, -0.09308153448562537, -0.34794242789185675, 0.20453959102982272, 0.36039015643522027, 0.21940705456158588, 0.6880004122556365, 0.42043925934447496, 0.13590433134604143, 0.3179743858889069, 0.5151468064766593, 0.31893852785150206, 0.2234031453263791, 0.022466183361482255, -0.028883090071908826, -0.0007256774059550271, -0.021860902604687045, -0.030241974056099075, 0.004648741651724786, 0.024280812089154606, -0.2868384229421895, -0.3401582598319149, -0.16189830011921588, -0.18975264731861013, -0.0018792847342367375, 0.06572285408971447, 0.14087981892630658, 0.14310884384400824, 0.3049602244342105, -0.24004609084259737, -0.20162412886057451, -0.010663020005636858, 0.07525031504542234, 0.11424976242407935, 0.6751809249598998, 0.5051238393738627, -0.1079990412112497, 0.07139516872973553, 0.2936895792497706, 0.19849085560691979, 0.15434595227851405, -0.06285338054760632, -0.051187813703374635, -0.0008351457641054619, -0.013454271235477547, -0.04259862418633577, 0.007455293042245536, -0.03097053776349945, -0.15889134101024197, 0.04709950163264427, 0.18541593508926327, 0.05097750058760554, -0.22733157097177498, -0.09408324152192336, 0.19843294002982284, 0.4056591993983625, 0.5737527313477967, 0.04667654552254666, 0.13291779141898902, 0.029771815142558937, -0.19369865678465073, -0.007159676182921629, 0.215174231599195, 0.44257599598724984, 0.010996309642118547, 0.17641532071438903, 0.3062793601713127, 0.09938489276257888, 0.07793585543875729, -0.047420738948521925, 0.00034876934338421914, 0.003608170380907119, 0.006189881847399904, -0.027227110969025567, 0.003776327595066666, 0.017780075119552638, -0.06348551507882876, 0.0828587795220171, 0.17077789845506092, -0.2626022753622466, -0.2939314966049163, 0.217476172905123, 0.25811426655188646, 0.5529653676442553, 0.745816357529082, 0.36350586722424555, 0.3468714656934706, 0.4172467985150151, -0.14736815351687, 0.006400403841370369, 0.5612569897125589, 0.4639134929385976, 0.09244453193801498, 0.19254815899150876, 0.15673311202611062, 0.0878255325154834, 0.05023748865888834, -0.006734463742375786, -0.005211535932891378, -0.004687255537988376, 0.004108604443705135, -0.012909052217793118, -0.015033799525197141, 0.0666369582737061, 0.06500825571536202, 0.1420304748181502, -0.1458619183899596, -0.7021108390644262, -0.10518969967889778, 0.2557748876425364, -0.1725842954168049, 0.297737475711415, 1.2887318917258803, 0.6065589400086048, 0.11094180372894157, 0.3306098456472047, 0.14762531161381706, 0.6236418697686167, 0.6813432502088741, 0.18622799745239768, 0.2864759741958054, 0.16908184634200593, 0.24367644772789274, 0.023998342773194174, 0.050668523354673235, -0.00235193560545605, -0.007435135632048801, 0.002716469848265726, 0.0021420124454673267, -0.006398908391388584, -0.01929913339654437, 0.06820083587225487, 0.051063707842750626, -0.13037334776249934, -0.08326097717285895, -0.24762121241119298, -0.15141449957597947, -0.15970316636268297, 0.057159206028458066, 0.7301914691880349, 1.0742172927535578, 0.44979732475165857, -0.04533405300077224, 0.23931997218892245, 0.851013087999602, 0.6923091810268184, 0.506448431955629, 0.37126985680250685, 0.14681545342543864, 0.17024446914004382, 0.10757619000836226, -0.06489937531782003, -0.001432847248174583, 0.0061012454244800205, -0.006135588472314674, -0.008740575111285277, 0.00418959816402199, -0.008775238055333387, -0.0010633407629981116, 0.17778377080451105, 0.2626341374831583, 0.12371326563569493, -0.0098445887971867, 0.08157081728784711, 0.1615671403277912, 0.1740335216754461, 0.5578679698586556, 0.9861954270351221, 1.117866459520446, 0.49114471419309363, 0.8972487726132004, 1.1042795747455065, 0.6914772774420496, 0.692991217848949, -0.1155400341343793, 0.05936923174623822, 0.18622430548529473, -0.026932274553351142, -0.05867845807129352, -0.22153514070392788, -0.007758303382582566, 0.0049226432334045405, -0.010046849511542772, -0.0015859324402415272, 0.008313777893526287, -0.0012182223979367928, 0.008824024262630717, 0.25196669544532957, 0.28340927462917126, 0.18127934245535493, 0.1842412320878054, 0.2635805971740701, 0.38169536595510045, 0.4433328444531778, 0.7052796104634205, 0.9135132185633037, 0.6704510710369577, -0.017492072423608715, 1.0666062718289628, 0.5571041026732326, 0.5160987036316195, 0.39873777114108444, 0.11649447163164775, -0.2949750220288683, 0.26882164299941086, 0.26044193010706873, 0.06056192739541433, -0.21134195388398413, -0.01684086370110305, 0.013062550018744925, -0.009955109793346524, -0.002962287108415811, -0.0008396087709688501, -0.008727760039191441, 0.03809061692841245, 0.287170802112809, 0.05433976203033479, 0.20921177675279795, 0.6078033952362671, 0.8166695978717073, 0.3741506042892833, 0.4144848515589544, 0.6260835987260961, 0.15927395014910273, -0.25451075238385273, -0.20485802757505425, 0.14873895665941045, 0.49540269054317726, 0.1709517924554325, -0.3204579461377903, -0.017065105710893817, -0.11187671244604204, 0.2287778667070317, 0.05993481239946787, -0.20747679133183577, -0.17105043813071144, -0.01978207872275418, 0.0068958667771266, 0.0073523366065758235, 0.001375737027509337, -0.00703675184893889, 0.011754313851718677, -0.013119559322461305, 0.37660294313131104, 0.23841421267537832, 0.40641952979602414, 0.5817504929408351, 0.8457789046819869, 0.7402774813889734, 0.6508130636427154, 0.39701621625809297, -0.59107048660109, -0.9618273643230244, -0.8684268745387806, -0.2380393890032694, 0.10678813736197688, 0.035083807763491036, 0.03957624863373126, -0.09642873645070572, -0.05844318265421653, 0.2285202762858049, 0.049739068881367525, -0.048014561426150855, -0.16390346209482076, -0.04279122374676504, 0.0029154087901426084, 0.0022740509668295853, -0.005837822547577365, 0.00830971171446391, 0.007983304046682377, 0.05807002295223468, 0.31707596463995324, 0.35960426796989386, 0.3152248488169565, 0.41191012435823343, 0.3320942011432062, 0.5107954297828079, 0.8443852584765883, -0.23291861363061528, -0.903100980203464, -0.9869942878038673, -0.6393082373452882, -0.02954754506720195, 0.15105713335646462, 0.11382891695918582, 0.5486599903199552, 0.5233608336587638, -0.020903541985182326, 0.3414163929201365, 0.21019060669573764, 0.15879328410940693, 0.08827902845372543, -0.07242429317052128, -0.011574025992409606, -0.010926894110032651, 0.0008212214957970844, 0.001181085298597893, -0.0021132121880776344, 0.0755905861402019, 0.2757961027526649, 0.34684351982142714, 0.5658451058259499, 0.4258049414278669, 0.21354730425003865, 0.26860022371359765, -0.05671260954509017, -0.5850726614841966, -0.8679250164565733, -0.313152795681202, -0.4723454513903875, 0.22696840346651562, -0.2326871711169962, 0.5695476735860894, 0.5950364767541937, 0.3036305752684346, 0.09658030601510952, 0.32647165557172564, 0.18800863747536115, 0.025421332957979076, -0.0400638354687709, -0.05540524897363057, -0.0019446685852317928, 0.009546407582179449, 0.0011398495256223634, 0.008508651360692345, 0.016622542534534157, 0.0935124130360578, 0.2919381595001904, 0.5067447443297495, 0.7092819862861414, 0.5497565522972653, 0.31684862657404606, -0.3767333008802766, -0.683698081745065, -0.6483400876529085, -1.0000519645117047, -0.06440428246690295, -0.8774593517960844, -0.4574664093587856, -0.3096852659156482, 0.06378462685606545, 0.4090181311763322, 0.44721863765220593, 0.07537224182768057, 0.39161907532794654, -0.0040964173726303075, -0.2831993920625878, -0.12509654092393646, -0.04735942348950659, -0.12107555953451006, -0.000816704543697863, 0.009104116605189573, -0.009560303332853808, 0.02557458218507737, 0.10469882851619917, 0.2399540635196864, 0.4718300378209756, 0.8049312725304324, 0.6957374128973447, -0.038598685345975735, -0.8140239491968644, -1.0190342253832028, -1.035625239426979, -1.0352581424468301, -1.0487574757683529, -0.9076109133555696, -0.7040391983583003, -0.3792475686323841, 0.20368214469969162, 0.2166482385997734, 0.07313923092910957, 0.19661499397340665, 0.18243705458378212, -0.24008886179620026, -0.1770643519731966, -0.04936090483491775, -0.07070530229084872, -0.1268794339787331, -0.007183713303623411, -0.008181984357472638, 0.004336807440630475, 0.02790778463465827, 0.12686961430782379, 0.2205887224871296, 0.28867532595047535, 0.5148950755546038, 0.6374759432854833, -0.050192693946493054, -0.6025382876231505, -0.5455034885208724, -0.6660902470386697, -0.9518298640196055, -1.2711920844421487, -1.2676627265757396, -0.5574821039332631, -0.2849206970904589, 0.08409348606504402, -0.02852805112979478, 0.05312921373618955, 0.055402522045269124, 0.24224741992044208, 0.009087664533818042, 0.0377482495161283, -0.0730486477247054, -0.02620770089928355, -0.0168606718964139, 0.006712364213089173, -0.006394446101093982, 0.002306158101816844, 0.006521217668195123, 0.06793578898265384, 0.024277364459701897, 0.027819043378490907, 0.47977211638718403, 0.6828173551970098, 0.17477245350749765, 0.16827814277454622, -0.31258163558308, -0.20448196974875235, -0.27245077742674967, -0.44119063839240374, -0.051617089157395706, -0.3395476561056558, -0.34977863389778285, -0.242374560425611, -0.4205108715414935, -0.054569550276066935, 0.2241001529235648, 0.10583099130411984, 0.05446180435854283, 0.1124671488984934, -0.02677267603656653, -0.002626596759930535, -0.004610464848314031, -0.009932971217880678, 0.004342045469997762, 0.0024713446188027177, -0.010879832758515172, 0.005397603997472823, 0.08558938476063498, 0.2116506302137827, 0.24987564180421376, 0.23844130222498064, 0.34919073089250674, 0.23565185051461304, 0.2959929919043802, 0.1349625232396416, -0.6187865390628131, -0.24597781656892817, -0.2607573132204023, -0.4237312697496195, -0.32918958744407106, -0.1804059836172996, -0.499380574682963, -0.00787106779514363, 0.19718993485766864, 0.19320740837985612, 0.05679099115383752, -0.018981589582867928, -0.0851504839656021, -0.09194025829053758, -0.0027490411727481216, 0.00038378582348965254, -0.003021940893202597, 0.006154745353696466, 0.007189248845178641, -0.00814813673384916, 0.364671036266393, 0.2578816360473254, 0.26785171202057967, -0.05398511690132915, 0.39966498520077454, 0.10221735999407296, -0.04298100225146203, -0.27726205707287216, -0.34834638765881437, 0.0779539827318881, -0.12296960081826, -0.24839582486567985, -0.3718172186297764, -0.5842089281071938, -0.3640928116896955, -0.011287439603695786, 0.22726375377464955, 0.03440766018511297, -0.0230701210061164, -0.026631115637543567, -0.13005844188247426, -0.13024130104201564, -0.05585677561957693, 0.005886750295500369, 0.005595050568235118, -0.006202776463761248, -0.007655251720854487, 0.01741529075518455, 0.2658393654013205, 0.28301190332133125, 0.1174007530883066, -0.060497175689554726, 0.4242939948724529, -0.0642887234320043, -0.16165304581563544, 0.09506965341051088, 0.4946188607360137, 0.5553483376743137, 0.06738351947545766, -0.22107623103424381, -0.13462888761514102, -0.1392609895169927, -0.1746923222739653, -0.05449967797954155, -0.007564587137672113, -0.04000588464519985, -0.13143353188714596, -0.08348306068805014, -0.13338690439060918, -0.11906044651408115, -0.040577124384469, -0.00805161140114115], [-0.007781478374870431, -0.006698038655308637, -0.006599543131449472, 0.12317829580532529, 0.15712670172287588, 0.2673975970264633, 0.2690168511254482, 0.07008759941247882, 0.04404056096070165, 0.5373217344919797, 0.6560101606033562, 0.19367851645395492, -0.43724349378488236, -0.37468553604402516, 0.15327108233692247, 0.5338338181708867, 0.9779040047940227, 0.33460258119449837, 0.11822891843034042, 0.09394934300784057, 0.3182000635643449, 0.16215073512288466, 0.32055666627219725, 0.1843443734879101, 0.21376281241457898, 0.1512316712010791, 0.02032111575248123, 0.0014901448540195449, 0.00610464824379786, -0.0050874141268253585, -0.0196858366259849, 0.22634853029023783, 0.299552663619709, 0.2901888405806165, 0.5071406626905512, -0.005323181910876029, 0.1240661302073101, 0.09517872803038496, 0.24562123311505837, 0.22452303348524758, -0.21704485533137446, 0.550987110076366, 0.6585081947685064, 0.24275035739990203, 0.633650904995219, 1.059258497882626, 0.36218467891297873, 0.9986022036990478, 1.0658222039535092, 0.9233623479540333, 0.6902601752860662, 0.6130202385689022, 0.41505610882651506, 0.27247643806242217, 0.07400632560599442, -0.009025556378547022, -0.008546636277363871, 0.003593117900412244, -0.013038114169401269, 0.16763099072825843, 0.2259993421295942, 0.33482329756022955, 0.36521772372648387, -0.28784736731548327, -0.1482421669473814, 0.28449348204635, 0.3241910087977022, 0.5670789880864426, 0.4960358184524164, 0.61900743569453, 0.36309142436336495, 0.25536764271755114, 0.3531276312855047, 0.8528194830001646, 0.6527925539713264, 1.1959149119381058, 1.3209787520711556, 0.54533091000521, 0.6703817585207044, 0.6660512603212656, 0.45692708630941176, 0.3013361452246425, 0.06146051859182494, 0.011565255133115054, 0.009858078891558686, 0.0014940838507749687, -0.010632773144840065, 0.026703271587604927, 0.0333149570860722, 0.2272825148415722, 0.1864050178411469, -0.22793748560302393, 0.20426091553973902, 0.3934563951475969, 0.14864668224420038, -0.2534205957274876, 0.03418287563416598, 0.6184279614120423, 0.32904574771752637, 0.4121580488806813, 1.1397578671210984, 1.0592518112724711, 0.8851694797360417, 0.9956019310181673, 0.7798045690712064, 0.15530100174816147, 0.229794066325886, 0.5272166744961618, 0.24849005827799672, 0.0940329956441269, 0.00011197720770331726, -0.006074616345755193, 0.00501892089231906, -0.010063203106929241, -0.00011402769865778047, 0.026625915242995086, 0.0292595907053517, 0.026382175513171072, 0.02933279516777272, 0.10128122121643901, 0.06956155260445922, 0.20713613761517258, 0.3044656694658032, -0.38549256611609056, 0.01010601133143584, 0.7346291010382096, 0.09222210913480287, 0.35057976096744303, 0.8886806594539641, 0.5574184006184777, 0.46761571328809737, 0.7162168995586949, 0.15707145943296388, -0.024270439630877612, 0.12144911397012054, 0.27442060944729657, 0.013666948118924497, 0.005654106103518052, 0.0048337458086101705, -0.009397531048882, -0.005180152453661504, 0.008092525019864683, 0.01822369924010349, 0.016619634422710326, 0.08726835783612077, 0.18627041888429435, 0.2239444971794953, 0.37043241618662204, 0.3758723553079259, 0.4233903944872645, 0.015701292973330953, -0.5373734924895252, -0.2695186567181172, 0.687734438797099, 0.25797079666345696, 0.42241559975712145, 0.5395156489097318, 0.3991133400045318, 0.6835952711328621, 0.5634591883585311, -0.2010699045259419, 0.09623976724237794, 0.3078629220238573, 0.1899986565382348, -0.01609871209205892, -0.044671921198358264, 0.003404233336531455, -0.00865239470471325, 0.0058569322141121, -0.002514310873730226, 0.010791512143509752, 0.007224844602197216, 0.04017048432915347, 0.19487066491297947, 0.07685069077627164, 0.5583260852762018, 0.6109668730087386, 0.4241622086632385, 0.16581874612950623, 0.12863637743338183, -0.3522808535043644, 0.6853892048837275, 0.2908076463121757, 0.012641194450329933, -0.0022073696181017332, 0.3061606476212257, 0.4857630884961084, -0.06188592055695737, 0.09315902053904809, 0.3339987657370404, 0.5309496944061747, 0.14058441598613033, -0.017266507068908442, -0.08579071056761742, 0.0006544977804584229, 0.0005672293618974201, 0.007223998081346201, -0.009932134711025666, -0.009972638186152382, -0.005691236138804325, 0.19895297698320097, 0.2583470967327887, 0.23354166494591405, 0.5487368882562419, 0.6657523727067968, 0.5088153412098939, 0.7459288852187478, 0.6486926885666644, 0.21286996557616936, 0.6200606345383833, 0.43036615902795783, 0.7076290631415438, 0.2603931829664605, 0.2685936913755025, 0.16064880443525073, 0.04803913828560759, 0.010405165797089085, 0.2670838921869437, 0.2783269079407152, -0.1230100404480491, -0.21229938279459, -0.017467462173136272, -0.00028021000686714143, -0.00495814863621026, 0.00765290820888174, 0.006390033341794536, 0.021342890737041674, 0.030229018449757547, 0.3072926580638075, 0.3195134969655447, 0.3007475910780442, 0.4361109308500195, 0.572278371613641, 0.512977878923025, 0.9591204084524587, 0.5388093079349489, 0.4080888055277141, 0.7576576897463295, 0.8705416325654396, 0.12054282538858326, 0.23331992374753052, 0.26255283652491385, -0.07738338195389309, 0.43042836535093604, 0.29878823122686415, 0.4898129123817338, 0.12337662329934242, -0.24824187534099484, -0.2700170458526743, -0.006765904137845801, -0.003333173348303563, 0.005362045926270424, -0.00977491194441608, -0.006295838225341777, 0.005455561677328593, 0.012653831733320995, 0.2278504641467034, 0.1356027991659002, 0.018954189815456247, 0.46118731396621937, 0.5456667118683856, 0.2878018024472284, 0.685008775653785, 1.5441598268353833, 0.8966360827675499, 0.7763580810117167, 0.908262648000876, 0.1270630876537813, 0.32031325240705794, 0.409045026255978, 0.20465499846183577, 0.47516399577824653, 0.6204814235162007, 0.4849248943514642, 0.03910423354726003, -0.2063295403439443, -0.1002444188652124, -0.009836530789993142, -0.0058418283816836355, -0.0011861398430819507, -0.004254209167315861, 0.00677258802584028, 0.012028458976409525, -0.05223271183646326, 0.2535468141730537, 0.2179751900795626, 0.18600419454109343, 0.25958015386361233, 0.49868183015841316, 0.2965197455426077, 0.5293607570254628, 1.3045579206812554, 0.9025187981540046, 0.5899045033606598, 0.10131615157172576, -0.4925012550229897, 0.09735931026793354, 0.3359421813626068, 0.676438974859923, 0.16141310195916503, 0.1657013015063, 0.29242350471469036, 0.05327833929045227, -0.15834168764484938, -0.07597373690943891, -0.019768863127190145, -0.0025924424399645183, -0.009902434434548543, -0.0015039097156667007, 0.003961144197215478, 0.006110112071542277, -0.04808675523411615, 0.11272179014248035, 0.39417011460125584, 0.2265461205294718, -0.2905275676578529, -0.33068962341404545, -0.057688984975293484, 0.5038441343761931, 1.061423836488796, 0.6622711425985275, 0.17419241286486142, -0.8006039620760467, -0.6011627656002271, 0.1627050302556183, 0.13444702328022212, 0.37409631115227804, 0.24973643957521047, 0.24170148919740997, 0.2106846759122431, -0.03876712285593372, -0.09222360703866474, 0.03495894085498243, -0.06759617589374654, -0.0067001225091201915, 0.002616998441231258, -0.0019478282118918309, 0.003545502745455835, 0.0035621917902660316, 0.005980203911237949, -0.05280771132205136, 0.21856572544818892, 0.08140373547544745, -0.16611216742936785, -0.5327579665088862, -0.09500757029317883, 0.7059025131429133, 0.753911163980731, -0.0023608727084084426, -0.0009342754865919988, -1.2135242597825888, -0.23379506542756867, -0.012807000797609394, 0.0024012361652390986, -0.21503762940764004, 0.1261932104640827, 0.43954389923775716, 0.5065734996996001, -0.06253721640227562, -0.19786940263947186, -0.03730962177725656, -0.07252236696509086, -0.013618522135056679, -0.009701030429286306, 0.0050616958694560555, -0.005542419622208599, 0.10857807859272518, 0.14006676132522286, 0.10654305040950059, 0.13409530957662377, 0.04730504338344339, 0.0019751934268901652, -0.3020889766219509, 0.13139005468215748, 0.010608605446176644, -0.2673805873438084, -0.27249856791600696, -0.14173547488719743, -1.1318892671583327, -0.7260961977314607, 0.096206040013555, -0.06845841306119795, -0.17678166179669505, 0.6121486168985978, 0.8280764963269055, 0.34924777877690066, -0.034121974969032215, -0.2764283818922818, -0.0559382789442709, -0.11049106829235163, -0.01299929623822395, 0.0010552238419282193, 0.005550147369386587, -0.003039167163004017, 0.1613578205776954, 0.29699911800592915, 0.13519213457578375, -0.04820161705409984, 0.0503014979048844, 0.13771355892499582, 0.052306055539913125, -0.20341434758033541, -0.5346387940269572, -0.7454530838637721, -0.5498213285867622, -0.737810860607607, -0.8004786088363007, -0.856508929727626, 0.17331323540746169, 0.20171747376128107, -0.25388504641873716, 0.2970256208726335, 0.46892429027927107, -0.11795668460217205, -0.32760755147273907, -0.225821242124275, -0.12840812503335486, -0.1513149940711402, -0.01180475335417988, 0.0014121399504529223, 0.007907302343432442, 0.006778030144006341, 0.0925480283377795, 0.2566419583798421, 0.12832177645431556, -0.1425049344865191, -0.3639344583902834, 0.12844500772256387, -0.09062806176827143, 0.04092290618581976, -0.47021635474035417, -0.6903604893261872, -1.142186627475219, -1.5272205636285505, -1.3111346075257808, -0.6373045769592331, -0.07570774887953655, -0.036898771266578326, -0.0810140642795791, -0.24812324914090797, 0.06493175138839025, 0.0937481742209712, -0.22468164048416914, -0.19083072387320563, -0.1796985114660668, -0.07095135518068353, -0.020351507759957213, 0.007585041520635445, 0.008509078698298726, -0.00291072769133995, 0.0452334667253044, 0.2953887750050602, 0.12776594554027523, -0.33229670573082143, -0.5731519961940128, -0.20618658687013205, -0.522097322940138, 0.10018380263759247, -0.16415039399996342, -0.21057017478919746, -0.6132049683643994, -0.8284459017813938, -1.0777618902553854, -0.6904421642146312, -0.6423847179153342, -0.2688164918209764, -0.8622707261938294, -0.5352013066261629, -0.4352282248472604, -0.2957072417349058, -0.33326098936891313, -0.23000082278739054, -0.09287049900984197, -0.06042263487312866, -0.019990159217617348, -0.009404787908585642, 0.00695965079614627, -0.0018696415259961217, -0.0026690511555271094, 0.05644811613595306, 0.18740760289399916, -0.23469655112212554, -0.890960376631628, -0.6479452682829089, -0.49342089985482745, -0.2304435072245871, -0.4223161607339954, -0.2253740203474854, -0.2566665522410725, -0.44126998256716327, -0.641658579074168, -1.0069406916341173, -0.8294609082620288, -0.4091246645235467, -1.3975324487086969, -0.5607665570143525, -0.7810851344618663, -1.165342194549032, -0.7892999068513782, -0.4361500533605683, -0.18804873577900322, -0.09499133138161452, -0.0029681413033866054, 0.004933868810299063, -0.0013388996999135101, 0.0014313810955068808, 0.006363642287818366, -0.05336003733850841, -0.013411832029460202, -0.40065473999591683, -0.6730733629621586, -0.987962575070698, -0.762673171202342, -0.8405537319954192, -1.008525089671875, -0.7306984160234741, -0.30746485543365776, 0.0014718889116449101, 0.26866249443218077, 0.031701508770346304, -0.10905903385402695, -0.8086561876349538, -0.5748554520016956, -0.33928750308246275, -0.6009893248191406, -0.9765869566184774, -0.6992275620977251, -0.24257788659082058, -0.21580051178646167, -0.05924474195581195, -0.009451267327585796, 0.0003626217999787556, -0.004615509801603941, 0.00261493856475593, 0.008097011902372182, -0.05922732721128861, -0.06182816662346757, -0.18282316550700237, -0.45750809457127073, -0.6720893994364899, -0.39981089868056646, -0.7952634168266848, -0.5783346486744168, -0.32966946661439267, 0.2092018339058643, 0.8874782606200916, 0.5568764872887515, 0.12057862671805653, -0.00540151413965076, -0.2651325394211513, -0.3745970247332066, -0.47733112452295257, -0.7374670257746878, -0.3409759328679801, -0.3997032765404552, -0.24593901997376838, -0.06618142756600752, -0.05270817432017961, -0.016787878682605076, 0.007721272286596548], [-0.007742411079921637, 0.0049715112223196805, -0.0030019110628170657, -0.006291655306780087, -0.00026467579289139276, -0.01225004416983411, -0.06257769638449182, 0.022196823217005623, 0.0686495280959087, 0.2501253126568594, 0.36966338883190114, 0.1518100716857899, 0.41220010375822463, 0.668536882427522, 0.6350223800361048, 0.35965021196354047, 0.1307023750328264, 0.3693962890796828, -0.0013503024374211152, -0.1272105449251934, 0.046839958077571915, 0.031218147422452165, 0.041957323920210204, 0.08206548656249904, 0.12377935761739164, 0.09279297121170997, 0.007009121217698775, 0.016303306213906788, -0.004235068950141584, -7.923195127057792e-05, -0.012036673192414438, -0.006864662668572495, -0.004124078568275165, 0.009091627007141886, 0.05674060039373825, 0.17164425079646242, 0.2266270952573888, 0.23944749746463437, 0.3428961104310146, 0.45409125577585474, 0.8742785702248815, 0.9095944686656506, 0.7172418084072786, 0.3943810270690433, 0.42782954658566225, 0.41121326279198495, 0.17816050862269103, 0.15286033533466514, 0.32570928268263927, 0.15352718814353467, 0.2596309730217003, 0.19067376088476262, 0.20983739719382014, 0.17833701128645016, 0.024415785734878685, -0.010634846285789819, 0.0040570440536409754, -0.007086297530572152, 0.006845837142520401, -0.0010198097477430814, 0.0018371762094738146, 0.012744610736619248, 0.12268170215967052, 0.18170839951858117, 0.1874018641196164, 0.2508913695942457, 0.1686263879715572, 0.6609029719569971, 1.1809490803257976, 0.7756717814763688, 0.4796895452533402, 0.3181422157430221, 0.3563311815651661, 0.36807656020944535, 0.2481153466587188, 0.28412387543202894, 0.2707358835103456, 0.21937998617784155, 0.2559503617110965, 0.22077666587329547, 0.14136382338024633, 0.08226427109427828, -0.00622079988692165, -0.0040563587024686305, -0.006567560601588852, -0.0017766144917198826, 0.002634738625451622, 0.0026692498390441842, -0.012942822921735946, 0.037604023607477, 0.13346832771510486, 0.12496285221333918, 0.03543856832481028, 0.24645729636547675, 0.2958090128261771, 0.30309157840253764, 0.587118538183535, 0.3663415381447807, -0.05495746468394033, 0.11640166231242145, 0.3879225983957228, 0.19616058038994, 0.1660145239573117, 0.29106072680686973, 0.10398388837080065, 0.2169035525995455, 0.25354692201808493, 0.1693113124688353, 0.05122249842485411, 0.00893529918991203, -0.017136456706897774, 0.009605946311559354, 0.004533219486076389, 0.0019769851504903417, -0.0029599454941524224, 0.004356700080777367, 0.0022114971655437365, 0.0498417435942032, 0.03296818029306145, 0.008711256685699578, -0.04988691974063048, 0.10628493140316692, 0.28372310214955354, 0.4337736212190866, 0.20306274041264313, 0.18399909643284348, -0.2874480379706224, 0.11073648602826351, 0.09722209750992955, -0.12609003687732614, 0.05697064522416871, 0.4367340987871182, 0.3289274364874494, 0.2329108181019456, 0.19828919740322773, 0.03374223672944748, -0.003490276268634683, -0.03597228004058513, 0.0032395194756112524, 0.005399700273871082, 0.008698297371875928, 0.0013853790550612745, 0.008050056468436652, 0.010363121808609928, 0.031631782806591, 0.07964208834655039, 0.008330611170216247, -0.08007611282447297, -0.12281528207993864, -0.1995317552096635, -0.05455187222141466, 0.014829484517595071, 0.06246067019413206, 0.25039739807278455, -0.2623794316764265, -0.12792067663504028, 0.111886802650399, -0.08017848663547122, 0.2209286865587923, 0.38038612073215045, 0.29268485212960305, 0.2451041766070866, 0.19773408451623598, 0.056590681090918526, 0.013007548563485911, -0.04435679037380824, -0.00818608915892981, -0.009011835521271739, 0.0016902333870744135, -0.0027047627037097444, -0.0063780533366445, 0.008520765218024515, 0.005373763531692631, 0.021056135944451625, -0.007871188514838492, -0.1519717376971676, -0.2157016921204411, -0.18013125846056827, 0.054186552016739296, 0.21845131212784896, 0.11396319796937587, -0.14446177665054416, -0.19491751673376975, -0.07200172236422321, -0.16155268520528251, 0.2744183327216305, 0.4131205679632236, 0.3501838600830812, 0.29666934183783084, 0.16533258317876587, 0.12112213544856738, 0.05310657780540643, 0.012444549740589093, 0.005015813693699888, 0.00838880883388399, 0.003917862489065969, -0.002069619937901999, 0.001110998637117569, 0.0002794002349741546, -0.0032975159576193597, 0.000606723656101308, -0.002537766528864314, -0.05794191398849374, -0.12887779189278215, -0.13344342566056358, -0.10225826092339867, 0.42189791399424503, 0.47556266991293916, 0.16772690591834613, 0.0001322345232564439, -0.1891096797808406, 0.09701121406393849, -0.11259543039818239, 0.11229442732563474, 0.37131236904073106, 0.19324965567512017, 0.11915898010624089, -0.07933921232154127, -0.05444307642865128, -0.018530319498120763, 0.014614477647468743, -0.0009280489494579072, -0.0008837546465998225, 0.0025498922786243894, 0.007390450097435065, -0.00014163317307251636, -0.007133131326455133, -0.0033163335700338212, -0.0019466093923198812, -0.007570320120258699, -0.05664955235375504, -0.03331338981274727, -0.13400418408968043, 0.019317900068969374, 0.038514759993567536, 0.1422690428647255, 0.039979729201174624, 0.0790111870462312, 0.10798449264699414, -0.08914924655273355, -0.05631697099642587, -0.035479208136155314, 0.2446640134955096, 0.20184954321683563, 0.02920491797143608, -0.14766557643728606, -0.13446079229372748, -0.03203061671312421, 0.008256876410012399, 0.010667471536019305, -0.006994868541307063, 0.0012336603486011125, 0.0013876830267132052, -0.0033773652347010336, -0.0010182518025627718, 0.0016787647823119627, 0.02697229243667663, -0.008278364376880855, -0.018801999065390925, 0.039651626580056464, 0.04348188756296339, -0.020965441861206847, -0.059920936223642814, 0.0807120383790945, 0.008831078435924268, -0.06773375986125402, 0.07567095263983814, -0.2202310367884555, -0.058221189409647864, 0.30681903618876016, 0.4152220858381861, 0.2798691192021847, -0.07470879031366594, -0.20385182068767027, -0.11014557197405223, -0.037193883552083584, 0.004350905515368298, -0.00133845640251706, 0.003189509878402395, 0.006977875989579363, 0.009339530225583663, 0.001956314607436249, -0.0019200887909045184, 0.0006689617195703825, 0.025185438501212187, 0.08677649990171639, 0.13047178444825758, 0.17803854660961574, 0.12963796002708597, 0.07790212549487584, -0.08266523059808195, 0.11388884521066096, 0.05212402735264843, -0.13901124861925335, -0.2926277277848112, -0.13144446048178346, -0.03791384603549888, 0.2998835570668638, 0.373712205452694, 0.07899932651249446, -0.10138436893167332, -0.1894593477220525, -0.02285183947283923, 0.12567696596950387, 0.12100000306888631, 0.0017696598681628173, -0.003224320318060744, 0.006900504192778738, -0.0031325894699506087, -0.008895245111255168, -0.008378965860473181, -0.005306783407260654, 0.024040763289418794, 0.15030713846626084, 0.3322667280462678, 0.28852811327517025, 0.09583211653899007, -0.06896031864091683, -0.03271677195180634, 0.16698699671347217, 0.2555172787796168, 0.0189197865930035, -0.019275128678235495, 0.21054512993227992, 0.012731365248273728, 0.09043539550931382, 0.09621686534620644, 0.14562791030291988, -0.029546071559947422, 0.06072989337365506, 0.07666073058339942, 0.16569928714114515, 0.17653005394038618, -0.003588807532018126, 0.004493582717711256, -0.004888415389649639, 0.00929945501445431, 0.00862201014599375, -0.0076407728936367745, 0.0020782048458982596, 0.04269434194204563, 0.16644332105762683, 0.18782820616423146, 0.20436175824882716, -0.07925676342600474, -0.1870169679428446, 0.0334092383294514, 0.445936219483721, 0.5166021306537364, 0.17396897031016112, -0.06548558019648375, 0.3955058300783336, 0.2060106936836243, -0.04159960677544312, 0.059754898992022534, 0.17273298830642267, 0.21135500778219812, 0.2781324651596153, 0.20236211817491226, 0.17027295009137106, 0.12468119887593247, 0.015952785364255446, -0.007092992683200546, -0.006862375728059422, 0.004587562105236802, -0.007418242255795387, -0.0055735888692733816, 0.01455122635847416, 0.02890982046005113, 0.14962739477430848, 0.21079348810876114, 0.3429794849372552, 0.09692926702393602, 0.028358728530912473, 0.1611317639218668, 0.41692925216227794, 0.2514080042147269, 0.06138249366985951, -0.3565654798094654, 0.1986144556342851, 0.35724692193224533, -0.06362869953207138, 0.04666336734967685, 0.14416212273425075, 0.1884229233592457, 0.22645370797844133, 0.28841778336787227, 0.15681900818728428, 0.10538970551366311, 0.050874878766857916, -0.0012740876758742087, -0.030899065287339725, 0.0034090228482296665, -0.009997598995283527, -0.010487627107110232, -0.00452076956101561, 0.059195016652519285, 0.14775937830232372, 0.3568706861781748, 0.4855197199321162, 0.18851177532742272, -0.00855804507298088, -0.11404168221532843, -0.009074792630472521, 0.1405165673622508, -0.1879452389326037, -0.21413938572554977, 0.011328185333345633, 0.2056404465683295, 0.10928336343488522, -0.04938165234605628, -0.06271216615870644, 0.03228156028842674, 0.1415132065194484, 0.27830155388484945, 0.2197373478225352, 0.09496179861338203, 0.09346995781853487, 0.0035553214329862026, -0.02813436123274074, -0.0029738627521349818, 0.0015399761813712706, -0.010703221043947896, 0.008622979240718897, 0.050194782698925605, 0.21081297246704497, 0.39460247525169545, 0.4899002226313745, 0.42600497647926944, 0.21832393868728836, 0.12621941759289906, -0.06849929558874499, -0.050371606628777536, -0.06251498244531518, 0.008068939364586084, 0.10085832652244196, 0.27066824127620054, 0.1337813233747014, -0.14488121666339587, -0.024593835611272916, 0.07360876017010963, 0.22267035084587675, 0.30782626594729134, 0.19761952517029277, 0.06555858014168106, 0.024296046396496605, -0.009311280616919973, -0.008740001622235701, 0.006741360080522554, 0.000909249087419765, -0.0028231313523289724, 0.0038372367543762272, 0.053243117679872734, 0.22409572940967246, 0.40225181401389903, 0.5912622799233634, 0.388115123097607, 0.43494910060773323, 0.1020894129766126, -0.050904981182185664, 0.209509993063501, -0.03696892863464596, 0.14714911865625807, -0.0689829608239754, -0.06824410438697529, -0.025554513482232, -0.12012425926732272, 0.053145819159016915, -0.011979141554504791, 0.1071098879127427, 0.17253457751354465, 0.10269493356604856, -0.03633511306685945, 0.003847692815729205, 0.00601722296606315, 0.009352358764746034, -0.0045809599084940976, -0.008466383100098545, -0.006826065290740546, -0.013021753833077809, 0.009185354737705268, 0.26631410666122324, 0.2768058815605415, 0.2494154498440557, 0.25845643666383045, 0.1295681541463546, 0.18534188965087967, -0.05430244772436344, 0.19197874544397497, 0.34072830032903023, 0.23097540930110078, -0.07937823314871192, -0.4920292421040638, -0.23569054931949404, -0.12703968353176917, 0.0666546747080434, 0.0606772642958651, -0.013683021079569003, 0.03744221940150293, 0.024215506356519017, -0.10356365948735517, -0.0504533547935243, 0.003425850632433135, -0.000409843377406351, 0.003416686049063415, -0.005313391120026976, -0.009714674880615929, -0.010396011450630566, 0.08467459857014241, 0.22347599169292887, 0.23092880904097116, 0.055393117287508134, 0.1963227910358191, 0.06817745658879372, 0.060718328979925754, 0.06458658437673057, 0.4018361777133241, 0.422873112619805, -0.0038037558925014163, -0.14946997225741113, -0.398816780310866, -0.40722913375490755, -0.2713707366183874, -0.04728983190677506, 0.0959357330418029, 0.10054030528492802, -0.00787197061853842, 0.01197741138417632, -0.09111563521924974, -0.09418425366715147, 0.005376428719378676, -0.0044430930184294224, -0.008355737951485375, -0.008437251244515545, -0.0006153145227692922, -0.0077807089615659795, 0.08669700173832773, 0.10944251778558586, 0.09290805742290574, 0.1600652199755812, 0.2587865164987312, 0.032090011926730125, 0.09713857750546512, 0.2610190924137823, 0.42982028281763074, 0.5441521930986299, 0.2454526883192458, -0.09077197989480974, -0.32355884526137985, -0.47760516314913876, -0.2229813338242924, -0.05879886096339158, -0.0418221030077685, 0.07501066762327777, 0.07334436293040593, -0.008209874403560925, -0.052182279973946935, -0.05596737339268009, -6.6878910807161e-06, 0.005737878180091324], [0.005488317305469266, -0.01001319102113144, -0.003303048700564938, -0.01960389004016308, -0.041094747287846914, -0.04188660895667288, -0.029189325857693526, -0.04823420530962223, 0.006948088850811278, 0.10303948289611552, -0.021784548267999367, 0.046896856792614024, 0.11628928261293957, 0.08197683851165653, -0.12421889063952324, -0.13423522413956487, -0.16125557207911062, -0.1526934055950265, 0.13326170915603425, 0.1197491561724058, 0.1262327689147996, 0.027025431758198038, 0.23149072689289063, 0.3055448568744799, 0.25689898849008824, 0.20689015994363424, 0.054096267866309986, 0.0012745770037973208, -0.0015938190134481933, -0.0011505166696692058, -0.006193170943655482, -0.027785535237889864, -0.10648592167776348, -0.06631238862098475, -0.15585374554847847, -0.17272470300694573, -0.07862530630039707, 0.002917146876189069, 0.016530074621505863, -0.07600850319293352, 0.1306547951389468, -0.09340072567195971, 0.028030736349411757, 0.1387635167680554, 0.014681037504787433, 0.12315962710622565, 0.32089504140361247, 0.40472283802912234, 0.4628178319393538, 0.40910456844242715, 0.46124807342968793, 0.6478204964018461, 0.6070709107189687, 0.3233416321383845, 0.09779202944788659, 0.0034849157933662766, -0.002787140158070884, -0.006715193053159151, -0.008928024323364737, -0.05263550940705368, -0.12462390725816581, -0.044834455012696305, -0.12375638243134574, -0.24217814213098468, -0.19689849490889105, -0.044276331490135726, 0.037371769471604616, 0.0004979074594318179, -0.028756636258416245, -0.03192652585915325, 0.1774782365587179, 0.3158631011211552, 0.3518385835926588, 0.4795373585903233, 0.46968982077736315, 0.5671549382955129, 0.3207494575939214, 0.34173604889749426, 0.18827148728543658, 0.3556212581842125, 0.5001811887040245, 0.23179678874940146, 0.023095292890655268, 0.0013615206006324539, 0.0018097712685348818, 0.005989931745740688, 0.0038131461849371974, -0.050115675998759594, -0.077124275218995, 0.06680391423186274, -0.10757023377245513, -0.11624525894808516, 0.0762640065016223, 0.07818985635781099, 0.0038620700378777825, 0.05236653547104466, 0.11655583311562329, 0.18427838750560918, 0.14220785021261168, 0.2715975805529306, 0.3371999410814034, 0.46057788681509293, 0.4201623903074366, 0.09977321931236177, 0.09612705948322436, 0.10022490355876548, -0.057666349683888264, -0.048731559605117346, 0.057646078026302075, 0.17304069706352615, 0.018387435794393128, -0.0038455080365610607, 0.0070102324947939, -0.009836700440658784, -0.008251335215506278, -0.023660865508029812, -0.03849020884462857, 0.027389225961095515, -0.0900357760613498, 0.02324425935179909, 0.22376009528193871, 0.34636822807863515, 0.2502045147195158, 0.40558560127705867, 0.13662215620064433, 0.19552959111296064, 0.23032192420653752, 0.13912727563208824, 0.33052765697991626, 0.13826316500930372, -0.03578572995587489, -0.09932915932347519, -0.11865863289992949, -0.13770094850608103, -0.187785342823131, -0.0980148217219807, -0.028578424223017058, 0.0189914143455431, 0.00031875048611131165, -0.00015866192248200836, 0.0006694002158648335, -0.009032652635332178, -0.004045458807429717, -0.024436248009275255, -0.05077538505572998, -0.08191539390874225, -0.044500489183383445, 0.22330468367015538, 0.5307413599358473, 0.5133741882990449, 0.24019240255078114, 0.40920008871492236, 0.3158206125587695, 0.3890271535622505, 0.38186774181117644, 0.17992071855840966, -0.11856318027185388, -0.18247646608276044, -0.31285674531466795, -0.24252749074828758, -0.312666226807257, -0.3202534987933604, -0.21949348546296155, -0.17003376198921066, -0.04321576620314358, -0.040038353030310385, 0.005454409361574628, 0.002537890745105258, 0.0058914504795262255, 0.0006119814752450145, -0.008461958856006447, -0.01708722289142651, -0.05149479432971, 0.0956515264394875, 0.11238407213830681, 0.333790852484728, 0.5052097028559566, 0.14879216848947546, -0.06770751655481348, 0.3046519086813889, 0.268503620217132, 0.4483588189724759, 0.38406241283859593, 0.10180547521001891, -0.0242547412577556, -0.2074821908003451, -0.13646124159152095, -0.2609033745810404, -0.3602768040512513, -0.40401531600039425, -0.2517854590265099, -0.07156834979352664, -0.004452814224343052, -0.047209330278507454, 0.010111846529412228, 0.006447085499920184, 0.009312356071161832, -0.005720203648911133, 0.005026467763674962, -0.01512399374660077, -0.09071312663771318, 0.08837977844335397, 0.18792375908167805, 0.3783862101285383, 0.2782053055830338, 0.06611501496629772, 0.008266210407387516, 0.09300090121744783, 0.16469852519498182, 0.3095955757303147, 0.1871766197533328, 0.050625650219616986, -0.1937920203245576, -0.1485424038443278, -5.462352419415259e-05, -0.10545289670013606, -0.2659512325323903, -0.262476609406775, -0.14920590666554623, 0.1152472942528118, 0.15955905032378295, 0.0034236896685975802, -0.0006279125442924939, 0.009451074511756256, -0.007325402336248571, 0.001959747845522109, 0.012956258337149, -0.010649341431936068, -0.03220647446292146, 0.05621148305815795, 0.20901041935733394, 0.33203020535567, 0.19705775501938838, -0.015191865534996232, 0.2010068222938802, 0.12032787787832588, 0.21524354282150962, 0.14953587498797982, 0.16720675071525404, 0.04696025739820048, -0.19405850182455234, -0.12454499925255093, 0.13877841120872475, 0.05196349036264514, 0.036628980361690405, -0.06208620547150245, -0.08379035215347148, -0.004972695869803846, 0.15396797984239205, -0.0033932566370989056, 0.0025165320986768004, 0.002614551523589404, -0.0019388831454406064, 0.005473382671846372, 0.003635931959108268, 0.01208150739282791, 0.016190214227670176, 0.20052158401211595, 0.11850767640416399, 0.11833896799122542, 0.18918716682940778, 0.13050212789867463, 0.12810121771709873, 0.21069144071211116, 0.2764832116403358, 0.11789202630218365, 0.0876380189062777, -0.05156671898132884, -0.022360175120136425, -0.001675322688412517, 0.2469518954722302, 0.10882118154241717, 0.07944869869367081, -0.09424417094480918, -0.04411259902344142, 0.037428764398220564, 0.055039855404168066, -0.007255074377262932, -0.00817170603287611, -0.004419470140354289, 0.007881726864235347, -0.000739322395987051, -0.010745425360230544, -0.010539903062074753, 0.10332643996216785, 0.1298944436529206, 0.1664673125355869, 0.10038308769447762, 0.21142007369503818, 0.01933457730429477, 0.04652452381067557, 0.053208669462611866, -0.05490352097489302, -0.06657837970641706, -0.034854565346080536, 0.08358199781703192, 0.17633480859644063, 0.40856117359187666, 0.32357935694539425, 0.35172182416893916, 0.021801445374674017, -0.02449255517436018, 0.0779915612856349, -0.05050383859685469, -0.06493934494316737, 0.005074086184782659, -0.010356914415806311, 0.004736547152766586, -0.007291084666674186, 0.004348713527967918, -0.007150727243935919, 0.015179355176171439, 0.09595842963879607, 0.14181825176603854, 0.2803132477266532, 0.2258427731625626, 0.16531279223881523, 0.07037691890946107, -0.062284763029373566, 0.022502050334523935, -0.013671198841580327, 0.2577218514873439, 0.19427403532469756, 0.032372932413002084, 0.17646488021926718, 0.15143171619927018, 0.3646727820674541, 0.3544909919983399, 0.22299034883021798, 0.33982012989686755, 0.09090617476278812, -0.10249458349011355, -0.03964647672267874, 0.020359558827106397, -0.003391564789549551, -0.0009048502480183808, -0.0007768039820872479, -0.008979372289921166, -0.014197138893752008, -0.0041448108814315055, 0.005900278569574518, 0.1370546521783193, 0.18875234483127784, 0.16193094364191898, 0.052511422634940005, 0.11166377420291104, -0.05628290778184657, 0.09938742037555122, -0.1860474897206176, -0.10064912344146734, -0.11871342140348924, 0.11441110718194963, -0.030929479182606693, -0.035206783897054984, 0.00504408479839668, 0.1091607043957947, 0.4053635677963482, 0.3127287921077891, 0.1602825749356806, 0.10105828127695023, -0.028349266931108594, -0.0036100246984222375, 0.003959634809157946, 0.0021096284339900337, -0.0020953295304320715, 0.002145345890315729, -0.00188328202893769, -0.038605405440064945, -0.13920691236062188, -0.0031229560658758487, 0.24759863916953456, 0.2635574999666219, -0.007636608225197193, -0.03955856861771211, 0.049139964580259446, 0.1645722324432001, -0.29815656540860624, -0.05910183030463039, 0.11886253454422348, 0.13706570630048862, -0.051522715056106415, -0.05462800192606734, 0.029891181219052997, -0.039567662792405464, 0.05184555480507138, 0.04227510352098189, 0.16153560914035708, 0.17433065224812094, -0.0033315637846172575, -0.009480950821654953, -0.0068266499882769045, -0.0028720295871960365, 0.00349592507590293, 0.006383331779992065, 0.013293634885584587, -0.03773985227400753, -0.0999955502121822, -0.1717081111410889, 0.2438409987080267, 0.3129690361792225, 0.15462109828407355, 0.18142800863973166, 0.15584695232209694, 0.3456742353064657, 0.16470518244005175, -0.12977101358350007, -0.026114753876414817, 0.014476329120825865, -0.05789781763669678, -0.0678898650033268, -0.09551798721639676, -0.00949869159545293, 0.021991279392599605, 0.03438966037722605, 0.16887934241042712, 0.20896703772236788, 0.0016894047245186198, -0.034966729989869307, 0.007767105269254346, -0.009394058188344186, 0.001396316158793376, 0.008598920943257858, 0.03799710250552286, -0.0005524136858674711, -0.049892695026055665, 0.04616363124886218, 0.05814456879154573, 0.30022895462505955, 0.13004902474990843, -0.05246745238760865, 0.16615004783954615, 0.39301940573905747, 0.27860170077401486, 0.0843646100097004, 0.08810207200712941, -0.006745099860352713, -0.14890266342857614, -0.08491317430881992, 0.10136021385560394, 0.07216125260664322, 0.0699193223760181, -0.03849751796951577, 0.2524039603038118, 0.14698427624363333, 0.04761760170862896, -0.032627871828680884, -0.006330755596527959, -0.0057179311603495755, 0.002091178833159728, 0.006920840555901002, 0.08543821853992441, 0.058625700294921285, 0.02004162380980365, 0.06679717934996496, 0.03859439613754098, 0.1838592132662124, 0.06535923723863375, -0.1229474102706618, 0.12968635595621328, 0.20654615088467995, 0.24014208336459167, 0.10988102157208192, 0.010764716016438877, 0.07895939260913871, 0.0642976153170408, -0.06268598527193898, -0.08489148906592393, -0.022122280601571998, 0.07911219929952928, -0.012267832264156115, 0.19498775015620562, 0.09786845342302815, 0.07649970244542537, -0.023875759005407813, 0.001162088476273485, -0.0029741908660368124, -0.0007788054987477831, -0.0004212500982454983, 0.06728170797782128, 0.05453340881431521, 0.1042793920093615, 0.04543665383074421, -0.03472748211405163, 0.0010367092491413447, 0.09973985571598122, 0.11885532712140777, -0.08227220252705686, 0.010054647060961049, -0.01291928118730509, -0.166799591750856, 0.014503757054764588, 0.16524309113790486, 0.23885735039746955, 0.10398619267046227, -0.019789868473731625, 0.07552808332042425, 0.11714218634302333, 0.12277539208404, 0.14422058249560557, 0.06833084793534391, 0.02475289503134649, -0.032512707289935494, 0.010169699856282553, 0.005042903186188323, 0.001954651026880321, 0.005023705917691973, 0.008417114180136215, -0.013089831813714965, 0.0581514100483317, 0.054280094086200666, -0.0259410072530301, -0.03431368481867497, -0.04442223041705426, -0.16224446545936572, 0.02840768221449896, 0.019705276961178304, 0.10617712534270297, -0.14862180866515542, 0.10416794855809079, 0.007658139383782323, 0.12044366373010139, -0.07117731760376221, -0.008454849116049025, 0.00023413252148082967, 0.13329345205119247, 0.09749838856474385, 0.09031119751229132, 0.09543019552841574, -0.0021882424785888786, -0.0020882902037072347, 0.0065490486698728395, 0.007017637724541921, -0.006832213322838474, 0.008300470167585216, -0.0054940597026526365, -0.006023011847957123, 0.03256921396603149, 0.0378522706446242, -0.005138433695244362, -0.0921706033697811, -0.03641274328458443, -0.11119536920180206, 0.07395609067674715, -0.08571750315895452, 0.09794056282769437, 0.11693024563970594, 0.023160027325256235, 0.1276613159087581, -0.14878987226501839, -0.0013833053072589494, 0.11569475178429427, 0.1538555741637279, 0.05305406309630898, 0.03448407543543881, 0.029946495096760218, -0.07019524684742812, -0.06910999025398755, -0.01482122405107267, -0.0007677910349043944, 0.009256321689726245], [-0.00512209308141583, 0.006456864605512062, 0.0039559617754678575, -0.014530076249975953, -0.02562009581315924, -0.04281847778199027, -0.10169779096758813, -0.05797839822857238, -0.05408328502800439, -0.2768760311256546, -0.4863097231130911, -0.33149518591056376, -0.1895683270372144, 0.0846729260353491, 0.4468614235303154, 0.39156868275766443, 0.01959022118685363, -0.32291606336923184, -0.3947292489315578, -0.04667628577247074, -0.3834046489847307, -0.3186728432942391, -0.2416918510763159, -0.17481419793015282, -0.1281311829269298, -0.07938437387845809, 0.035276889756283694, -0.003799569264594561, -0.0061069546713336436, -0.002673393067441658, 0.001507850608239332, -0.029170296218139238, -0.04878497005110438, -0.030574820323862318, -0.16062916766472368, -0.2880749269321401, -0.20490957343500815, -0.5030730994489777, -0.30318194266547477, -0.1851213665753582, 0.08955279959227821, 0.2153723120814632, 0.09312721626601973, -0.013647475515882225, 0.12370285942627157, -0.1827126087120147, -0.3550644209825255, -0.7599464758415159, -0.5014791386801387, -0.5953448980825528, -0.3016904104014807, -0.3089396541420562, -0.33675761299596313, -0.13007335716001545, 0.0444581560841964, 0.03883812620538722, 0.003875528746043736, -0.009741166872734384, -0.0035203276957764544, -0.037750477918164216, -0.03443590055100181, -0.0920034260826328, -0.19154308188990776, -0.17753501976489147, -0.15679099223508475, -0.5634157915087477, -0.35177979876504645, -0.041509820747449244, 0.20072473553761425, 0.2755658158221891, 0.08044313385641891, 0.09471749934661611, 0.21861582431026985, -0.3214672618089564, -0.05008446897828832, -0.568326259148122, -0.40672275880100817, -0.2097468778935187, -0.1398336621795495, -0.23744223530076347, -0.21948544373483914, -0.16409761110367704, 0.03419853586541618, 0.016590133037777708, 0.00782110165063043, -0.0008120758933786426, -0.0012629780921349228, -0.03511283280387466, 0.06136130790415005, -0.03082015120048196, -0.08305699718919375, 0.03516040171443425, -0.34560791122478074, -0.5190924887374033, 0.041678014911776765, 0.3459710005508115, -0.07383825012725308, -0.013820028544447194, -0.17634792868874624, -0.6096095328796372, -0.5783615382904549, 0.06969765495475029, -0.11019352750122763, 0.18407006666607253, -0.31076969143708033, -0.13867434015436428, -0.016355259592946116, -0.18573766615208664, -0.13280303995973772, -0.07746008627301897, 0.01900472120471423, 0.002641606456431262, 0.004612473359997123, 0.005942516774635123, -0.00582723949747418, -0.019261580201112148, -0.005336632124155999, 0.018992976379712513, -0.010825395679785887, 0.30704244025868926, -0.027656569376105063, -0.02466502237554344, 0.06393119598796994, 0.23827482364670122, -0.42769576272321547, -0.6387590731144768, -0.42297347869680635, -0.6215318628715307, -0.562265531860166, 0.12785012116857564, -0.02502821212654222, 0.007649514449526575, 0.01916707361271243, 0.03871021158059529, -0.1184606181598098, -0.2066537168149081, -0.11368512764306256, 0.010067653487937225, -0.00019774579512815712, -0.003230888088597024, 0.007714198920756891, -0.0010171804301350458, 0.006210028274814368, -0.007881226163078061, -0.04603205512334055, -0.05043954210127379, 0.014409346253655085, 0.1304274159611042, 0.06057363545585774, -0.29048175259790115, -0.02120746424905907, 0.23699770425772712, -0.09530436550608745, -0.5213380815241082, -0.635309957865074, -0.4903981882193634, 0.05270291976393047, 0.23777020860239947, -0.2714451715785025, 0.184539579765341, 0.3898087966808506, 0.11898517571563484, -0.24964505742410775, -0.3901579273591697, -0.20106160701564857, -0.002110001890389272, 0.006669519848831672, -0.005369619467801254, -0.007717490244382688, -0.0026002909566250863, 0.001993256653120888, -0.00011625521909415715, -0.030130010142672397, -0.033179449571598706, 0.0393968651354267, -0.08977819476631581, -0.08932787054815414, 0.003858641128295962, -0.1354726964022867, -0.4724551432358088, -0.4337288787118144, -0.7654607520940401, -0.6105556319789411, -0.0652284655154915, 0.07098044126209817, -0.2730414961252892, -0.448101184964744, -0.015110170570507684, 0.018593378488155142, -0.1657990794553797, -0.5312125966847181, -0.35710648960163877, -0.12484421281205078, 0.008995440912757918, 0.004927910764327687, 0.0043208133227793065, 0.00035017322782322086, 0.009180124731299576, -0.00523327044856505, 0.003821862579008012, -0.11163080560849889, -0.1278462615574077, 0.013360596721746042, -0.24280873687334423, -0.4238149051208658, -0.43683278670879766, -0.7650304830479125, -1.1000017161225655, -0.7550132442666797, -0.9077295624686906, -0.8556783879553623, -0.16869942625416365, -0.27797494370728404, -0.34204125434773286, -0.4929635673600928, -0.2505731639045024, -0.2547987786668165, -0.43694533633196947, -0.565290594341649, -0.027960940302759283, 0.01097258713518698, 0.021045109670646406, 0.0027305939006576426, -0.0009086442620533549, 0.0005827759696578408, -0.009333331554338433, -0.005499565283548076, -0.021846147606791908, -0.13477280501264222, -0.18555448301821287, -0.13025775894700528, -0.36531667904986137, -0.48105154624327856, -0.8947027860813384, -1.4463872007052092, -1.1005153351633143, -1.1395090246642359, -1.1300721054904095, -1.1928042154635372, -0.8330737048391874, -0.4972122835620234, -0.22047438507204614, 0.017437358168043298, -0.4930148274236338, -0.5731529829706273, -0.6402680607977816, -0.28709183682571476, 0.025441185669451718, 0.04446601714619428, 0.020794647671050492, -0.0006699667932030209, 0.00033700041235063156, 0.008727740805635502, -0.010068170892129153, -0.0012373572406112069, -0.014247256802803143, -0.06299501662381825, -0.09162888945619685, -0.21660901352753315, -0.38652432243313595, -0.3320255326879363, -0.5748888461418212, -0.6724410535029338, -1.1803562400642182, -0.9075390271741847, -1.0848618765058262, -1.179678471140712, -0.90531463244113, -0.659992296566519, -0.3606287720355989, -0.5133630932290068, -0.8018945990266013, -0.8328974867024393, -0.48197555361473127, -0.27004907466102723, -0.07833563116989774, -0.026665219629039595, -0.009043220524275319, 0.0005163988995790761, -0.003140529550583058, 0.0007234209543460074, 0.00838870835798591, -0.013404458903286214, 0.06089470722311405, -0.0682430416315703, -0.11979363151537523, -0.21808204221714836, -0.27761657304063375, -0.5659072031604256, -0.36245144187379114, -0.17104081219574377, -0.5444385352481456, -0.09127716914075838, -0.5529855584458875, -0.600915374673349, -0.5656777622950897, -0.4299035017728855, -0.39923904851426273, -0.4949677471045347, -0.5802560610638142, -0.524634517360218, -0.3095837159361593, -0.19774360131313612, -0.22227226634366096, -0.09658903081853276, 0.002776943878114408, -0.0020766307465425815, 0.005236151245796298, 0.007455038715117787, -0.009435437392539445, -0.006000153703452459, 0.07273158456192495, -0.08699939952000399, -0.21897593622210862, -0.2870843779702487, -0.2160121993856599, 0.020167591510603888, 0.31952896637145656, 0.37900354679279397, 0.13938804649569728, 0.11155047923382483, -0.25688371541979027, -0.17084576436697288, -0.26663608441236836, -0.5816652074920057, -0.3411593193734886, -0.9099150349136136, -0.668630523994101, -0.34738874236836964, -0.19804909503985973, -0.0906930361235646, -0.12810973555505012, -0.0684402349790532, 0.046018669130241725, -0.0009828312914227466, 0.0073678693913243245, -0.00927040613284853, -0.007487655000411431, -0.00840592654123101, 0.046273999271553, -0.04711092573659871, -0.23910003351107847, -0.3401897677697734, -0.001997817788770586, 0.21923949071444548, 0.177712564210804, -0.023476566760851997, -0.13221122720342063, 0.052334049674024316, -0.2451557479484086, -0.08252904053677414, -0.013322968212041245, -0.4628558510932974, -0.7270802531156793, -0.5028805117564217, -0.2928490115120434, -0.30201450932935736, -0.10194945743102587, -0.05955551398960198, 0.029100282458621677, 0.07949214317549162, 0.06065368753765161, -0.008112092807992317, 0.000548960949812341, 0.00011006323266345326, -0.008591844396886171, -0.04365750570525069, -0.045189335533868405, -0.2664448378381929, -0.4103821506991837, -0.1046298366070201, 0.3336315671812456, 0.6094920829293059, 0.05668127063922298, 0.15032558310519337, 0.04760346881318442, 0.3272745552111507, -0.21731501670582712, 0.38297133261560273, 0.1513478000235566, -0.407126110075873, -0.3484970861738959, -0.13691310114583263, -0.3704912495741127, -0.14105143181151614, 0.20256387285696362, 0.2247279764127377, 0.4834732140422852, 0.12316916915353739, 0.08819582312304285, -0.001196582645784892, 0.00787846184802982, 0.005184872771313971, -0.00935170922852044, -0.11262850748371518, -0.17512198929800346, -0.41763951978721026, -0.40056918700492905, -0.09084311349055835, 0.29745296708264, 0.5955406398557247, 0.6522765489121312, 0.9095163685447264, 0.8261549858082933, 0.5043429751974375, 0.4256547988617403, 0.2965151267868612, 0.44604742479690956, -0.11989805317751198, 0.28103632152928953, 0.31017241410925384, -0.2512908265834237, 0.12753097541177622, 0.7431536836273501, 0.8763058818373812, 0.5847924667561623, 0.3041626933095257, 0.20570965628104323, 0.022173330376661936, 0.0008574308357662231, -0.005609888533135395, -0.007520507237595071, -0.1358294764821481, -0.28293665059260253, -0.3557001700540929, -0.24062069022473923, 0.18153317983280795, 0.21941468765800157, 0.577420661252014, 0.6950726336507433, 1.1857774845296665, 0.8503646222544926, 0.5308525352461929, 0.7064917796954752, 0.47594200354504396, -0.061141791674312745, 0.06415438857702209, 0.20585239853213963, 0.3244618865091612, 0.33405220327113716, 0.5323215170802165, 0.9045015589967142, 0.8688765648437121, 0.436376656606352, 0.318486152388377, 0.17953704978978677, 0.056288423456332094, -0.007889436162435134, 0.003644509861112706, -0.007996409678546352, -0.034146424210546505, -0.25334299527875304, -0.049741116431642314, 0.12838601305644834, 0.40859326332524754, 0.1620590045809175, 0.5999044935856648, 0.445780885034313, 0.5511099585179415, 0.7005864450017044, 0.9226232209656025, 0.7048558988157666, 0.8747484500744103, 0.42764296660260265, 0.19467885444315972, 0.2260633049179299, 0.6103902592035874, 0.38423190379600747, 0.47255366123566217, 0.7786534655196232, 0.5951453482086314, 0.12711551347691072, 0.08468807285902841, 0.07636422836948113, 0.04972879492591919, 0.008450909425946637, 0.009693086654618327, 0.003615163184329957, 0.022854876101172154, -0.10022512368681408, -0.16478210328071358, 0.4731957512580831, 0.6794042933187782, 0.25369574272075657, 0.1713383898553951, 0.3183071060821806, -0.06087763517038931, 0.33058024412637826, 0.5774955950555664, 0.5488916910002035, 0.436571425565188, 0.5954410598492398, 0.317655986047757, 0.36539127196868426, 1.2908209272517788, 1.0018462110738138, 0.7716616461195193, 0.4581036787451181, 0.2646543937900356, 0.042773709735447675, 0.02074870030257081, 0.05977017261194167, 0.019539920713353375, -0.0035339477234493134, 0.00531070691371964, -0.002372619681134662, 0.005264408465890209, 0.009680680551621926, -0.021146390555570813, 0.35207358633639313, 0.6032446145370883, 0.26520429051424144, 0.05418447186722692, 0.1526915418151713, 0.15029164598400763, 0.7534367475322987, 0.5674822714741133, 0.12304477549512122, -0.2296554810408661, 0.25010694607723893, 0.3535660091028077, 0.7305836494603132, 1.130364578342488, 1.0977541919770328, 0.6573632675836185, 0.47105029223761724, 0.3736749053420668, 0.12825296355482965, 0.06372235315623753, 0.06172710776252779, 0.03445472703144759, -0.00520975058517928, 0.0019739235289674625, 0.0042344172648244045, 0.008724111301348597, 0.01409440104588072, 0.0031342329897429025, 0.03172597479399163, 0.2688340723090585, 0.35355508526965684, 0.06962051112585114, -0.055764303526282546, -0.25852921730865924, 0.1571360298702923, -0.04586141426659792, -0.4634819053361981, -0.2002715755754431, 0.3911539298755642, -0.019550732824570254, 0.18520859751902666, 0.2406425915647263, 0.5108468345511483, 0.298704745872149, 0.21413799358230745, 0.16325806899405443, 0.12908894441318486, 0.06915359643318421, 0.04785084392953107, 0.025497616394674905, -0.0015337628805309617], [0.009284376636543972, 0.003961926316673575, -0.004368624508638529, 0.06931780996017134, 0.07923629479303061, 0.07166190984143445, 0.02616105242488277, 0.09474630983791363, 0.04384944310693191, 0.15498463238571794, 0.41341889385533714, 0.4102996477476528, 0.3709687222680438, 0.3043495282545103, 0.11849393634958875, 0.3845885605891496, 0.296508849601614, 0.0974824304140513, -0.023306071034704487, -0.11574118371849204, -0.18271068824225095, -0.20556670478343966, -0.06830172307311587, 0.03507342397673356, 0.02348189349280106, 0.014179537465830415, -0.017905809317953745, 0.003954338700681628, -0.010214099333854618, 0.0018216402461021337, -0.013033817351760596, 0.14669942462580002, 0.21731919390864074, -0.019383468136806307, 0.051469161179395435, 0.03914029457918796, -0.01059585582501498, -0.10787957700866793, 0.3146713199214667, 0.5201654866230319, 0.47493164982579766, 0.47860118860410944, 0.2566098207263219, -0.15255185090158865, -0.3063471117014735, -0.0015906632237985162, 0.12273736035756101, 0.08520720476233443, -0.15471221639311142, -0.20863215093721094, -0.1791969997703974, -0.11770239496406712, -0.09561746839379504, 0.010451582702755206, -0.038340883293208436, -0.011702121314559511, -0.004722755386498389, 0.002937507871631441, -0.019545277884199387, 0.18962940640800957, 0.2516469217777673, 0.005746840214816042, 0.13121662842178386, 0.21632847723241075, 0.06508680827566472, 0.008952184138819064, 0.1463923588500181, 0.30019163262871856, 0.7666985374884011, 0.7592432421468183, 0.44940892110044456, 0.25950982215065305, 0.10206122261343943, 0.06601694250398991, 0.14151133760194465, 0.17771381452265153, 0.03780319231533729, -0.09288174697107643, -0.16321711456765933, -0.09792833323210212, -0.09261292348624081, -0.04741337960179209, -0.02074444154197007, -0.013645819375205323, 0.0026192985732026355, -0.005613947966153228, -0.00997362873422735, 0.15879624352405736, 0.13681765262685242, 0.08135481123067477, 0.11909092144364448, 0.4550593108338833, 0.3789447022029975, 0.17668631137715168, 0.17611349755201325, 0.17844503308798676, 0.34577867542239965, 0.8123827987612792, 0.42121217447987497, 0.6299239174434689, 0.4556901536402085, 0.19197992275532846, 0.18604485078952224, -0.023701443162999367, 0.13631255150824628, 0.013014195448411007, -0.2366714661366566, -0.18722721820115776, -0.0013382838075866885, -0.05782797565284364, -0.0604164227446485, 0.004517635701435863, -0.001338047862492222, 0.0016439596129930883, -0.004651095812628619, 0.061367630284994666, -0.051810456623336394, 0.053046060547845254, 0.193076710173275, 0.06737019335221367, -0.20251761129747572, -0.006900412044133895, 0.09988870600137902, -0.047309464976421876, -0.09595122323654218, 0.22605258575901307, 0.23789517306403682, 0.16740757700634856, 0.2175054399064578, 0.09979312570168974, 0.22460680140095404, 0.33060102717042655, 0.06930544754559335, -0.0847944699046804, -0.20730701487308603, -0.21090904557629328, -0.07889624858400388, -0.09979860896983826, -0.045390157848040055, 0.002323011657617398, 0.001078940399317576, -0.0038044996058478535, 0.014230605124551427, 0.005065218104064566, -0.033966279284473426, -0.012804332753757712, 0.11021743808171054, -0.13212332579525568, -0.19106106237791368, -0.19484857289485547, -0.4086233455658213, -0.3686990745156745, -0.2298338753800754, -0.2410326595644796, -0.2495503354411157, -0.15766046169591572, 0.18919762135809348, 0.22300381203545522, 0.5108666428815198, 0.3844284054918962, 0.03720165813179041, -0.027727561490379447, -0.2119866010358953, -0.13003671792681679, -0.049349670365560164, -0.02201849304973404, -0.002010795546805064, -0.0018681327198677641, 0.004885153981224022, 0.0013807244566323169, -0.000526955754594102, 0.0033597761473628616, -0.06919870782828504, -0.04883293674397087, -0.12738485918733145, -0.15630264405932162, -0.21603285932226424, 0.030963269371298553, -0.293956214148128, -0.11792228199226869, -0.2286242547371446, -0.5305866884853943, -0.27238334846032275, -0.44003612762254324, -0.08323475784210942, 0.5654046662583568, 0.5384643788746846, 0.29533280897676845, 0.26258240802957616, 0.10865751187763296, -0.037671346014405825, 0.09764580566295171, 0.04037258405712229, -0.009519045013118852, 0.001349761736891621, 0.0017574412078022509, 0.006775851108500404, 4.2757963456400636e-05, 0.00938520576069766, 0.0015269186955042154, -0.15339993703043386, -0.009154781613951507, -0.06946928810143145, -0.29796225297391893, -0.3174925469677045, -0.07790069511443706, 0.1359039414768156, 0.3488907418321684, -0.3886438307942098, -0.23620523448286662, -0.07570319765099814, -0.16666931364176818, 0.1110577644797323, 0.5447569583037986, 0.5006970448316664, 0.2728467882799166, 0.33032975770762424, 0.21572445708780888, 0.18915836646355574, 0.10568945322511476, -0.05493624009076322, -0.021429981741956147, -0.009530735734426367, 0.009737094112081398, 0.007716821754117446, -0.003395148480877248, -0.004164802409097284, -0.010378316386243026, -0.060122513561075494, 0.0038873826038962668, -0.008527282679664646, -0.09740558752741872, -0.33118000257670216, 0.047170783249275205, 0.1679129752846716, 0.22328183685655892, -0.344748852664566, -0.6077951760916153, -0.23194485760901537, -0.165022253446, -0.2951694444467968, 0.2959118328479681, 0.22384183395706705, 0.2714094623638513, 0.15382069953489402, 0.36941982177116617, 0.10811716356723199, -0.011031120231047005, -0.039913654045262606, -0.05919532074936886, -0.014409986374045955, 0.008772369969135293, 0.007605037297069026, -0.008246262595586171, 0.0007800441981677174, -0.006139039625622801, 0.027428690396829537, 0.009241247913993358, 0.010042457448712116, -0.023089509930405257, -0.043078783591631295, 0.2602449268197153, 0.3423185489644211, 0.20429393991212827, -0.22551060645916957, -0.0980618714207838, -0.12563972312463315, -0.29304658440958026, -0.18456786463068178, 0.08059189117186534, -0.2820021438762493, 0.027015421497303658, 0.2829414444137705, 0.3815982005353283, 0.05044446256712916, -0.18902821314102264, -0.13833991712265487, -0.14320851007095847, -0.025987052849796844, -0.002292741975295467, 0.0022320486340137464, -0.010022339917589902, 0.0033182404064833596, -0.01670068162235863, 0.038126455421540556, 0.022037495758233855, -0.05129595834221285, -0.19505483159166803, 0.15580658223012622, 0.42198236819851104, 0.40327096995195666, 0.32918799957686795, -0.13773431221404772, -0.17458622287470216, 0.038518808878621476, 0.17175969357302798, 0.05655187281517241, -0.2241421557102008, -0.16704990853899268, 0.07360185310335356, 0.2233143249359268, 0.3150647980120129, 0.17014523770346132, -0.0639378548104817, -0.2340490461099605, -0.13626491442572172, -0.005353491049250637, -0.0022328077986224046, 0.009888602127458014, -0.003941803377228206, 0.02931512639763316, 0.03960026853505875, 0.12781396433393796, 0.11390086020993856, -0.1240439924930811, -0.36474158469115114, -0.34786075573865605, -0.05636539052607062, 0.12119768771395287, 0.10376454886172057, -0.1641263035726402, -0.1436964529949786, -0.02262291197356841, 0.026087952260813, -0.12578782189981597, -0.08125801414207517, -0.12737315515740877, 0.39757489303781707, 0.3276807481490247, 0.3745524909633714, 0.19304204984318776, -0.19898789042734433, -0.2830042483469682, -0.09726387515564874, -0.021074316356189685, -0.009383444489476155, -0.009717685422278933, 0.007171391946216002, 0.045514542028113315, 0.10096694834327974, 0.19341968909501336, 0.08603507257977995, -0.21292343430387356, -0.6150091336929393, -0.9629093536322895, -0.7066013279583879, -0.6114472884557558, -0.206995907840608, -0.3622719257039687, -0.2803594753087734, -0.49892215595023964, -0.13063636979636534, -0.11487999213836589, 0.033715255538899515, 0.26330237204167195, 0.5785640951431137, 0.4200421144643432, 0.39472604709742093, 0.13437298673630035, -0.40644973566357145, -0.40521466346538854, -0.07942590807121998, -0.00747923354583803, -0.007638412557590528, 0.0061929268994437, 0.0007186638396083894, 0.028184601343770425, 0.12855993616808162, 0.3050016167885233, 0.20990545740539246, -0.17172562585576398, -0.47767334662048316, -0.7792927444620692, -0.9334711659984964, -0.989249572771809, -0.7187156749034564, -0.8395845694647359, -0.6189976962206697, -0.7408706980678761, -0.5006819617471551, -0.21525089476741596, -0.008084472653068478, 0.45852087407927683, 0.703445458376229, 0.45085079676233947, 0.4592474475482784, 0.02912220860045539, -0.4749759741641321, -0.3504177583998696, -0.045887525428393146, -0.0126259894478951, 0.005190553907052889, 0.004932465367221046, -0.0008643116481942964, 0.02053582187807295, 0.10619251526998529, 0.297671269438587, 0.23298693240214668, 0.03341205866135417, -0.016242246508731902, -0.2640573430922051, -0.509762392755834, -0.6474387758543767, -0.8566168717428383, -0.9177121659304712, -0.7419573953554435, -0.30376630907818275, -0.041715604699023676, 0.4816835481815232, 0.6084660287369394, 0.6395562853558504, 0.7561319270507355, 0.6050628194763158, 0.47959746428588856, 0.12710407969720874, -0.23753209138147618, -0.010697537211696487, -0.020863573858860462, -0.006150639236544298, -0.00017782026713075364, -0.004330694200538887, 0.005994532495653912, 0.04532766770006079, 0.11801994501498687, 0.3025600539564183, 0.30708874233261985, 0.14638984876712308, 0.34485813386718384, 0.013271297457413643, -0.34416130917523624, -0.39780663354644896, -0.2685704052335534, -0.28432800920637796, -0.13060210399181807, -0.028678416129135756, 0.8663701477117924, 0.9262876311426052, 1.0983287392434207, 0.8528164662168694, 0.336760585534947, 0.35642869082450346, 0.4180281880524958, 0.1054865868478271, -0.05321495960575726, 0.039286639939319364, 0.018205976191323886, -0.013759879900559302, -0.005932430621970899, 0.00019612084609027525, -0.006043975882356754, 0.03785333947180968, 0.09536130675589514, 0.16767336559649307, 0.12357753773979448, 0.25848734964429343, 0.3553190587388297, 0.2564216256869633, 0.1210690498355657, -0.13865234469856988, 0.16230257913513485, 0.3583991474924472, 0.321626715172231, 0.5210970993282089, 0.944859541868911, 0.6180637361171101, 0.6668563528118658, 0.6419937034470403, 0.5464387492305806, 0.5146838905684157, 0.22501200112378567, 0.0032160896354003436, -0.020284630010661102, -0.05624624999071162, -0.019290697560518204, 0.0015920853946854163, 0.0020890208040743267, -0.007530499944058002, -0.009228955272259913, 0.014610716892416808, 0.06373794194421181, 0.1641452538426934, 0.1550591823862547, 0.37006260253994283, 0.5812872498722504, 0.38388448738916564, 0.4275078238297717, 0.25340412969190246, 0.4909100258686819, 0.2709760588190456, 0.2537590912790499, 0.39988060567050776, 0.5255508111611208, 0.31526234448294344, 0.32693195788095947, 0.1850104839677945, 0.23821439816613343, 0.5607817589135711, 0.059023548367481714, -0.1267231535299951, -0.0642423200125323, -0.126485560789105, -0.07196050199735586, 0.0017260374409021804, 0.004009281848728025, 0.0007000517473151908, -0.008212589759410882, -0.000731565543194972, 0.03714460171340346, 0.17965671086225826, 0.1869449903374432, 0.30077196452256283, 0.27074729225843125, 0.5201586289770237, 0.18927781587932943, 0.1931455843117712, 0.394462125716614, 0.5754976851019706, 0.65343117912185, 0.639041626221993, 0.2820602302262413, 0.1982485133471928, -0.07843579398342643, -0.002082703264660675, 0.2815090331512032, 0.02306959546636946, -0.13718561466985157, -0.14730719948052373, -0.07386317829512143, -0.11375240873725584, -0.09559248009535931, -0.0413698888743151, -0.007448218922074819, 0.00650134032189364, 0.007749705660653189, 0.006287432436183992, 0.03122447173689649, 0.10822375247653457, 0.1914194168065241, 0.024415157888300194, -0.047197641626873205, 0.12895413099590225, -0.08730480826970334, 0.5205535407318952, 0.5934888893961784, 0.7252360311648552, 0.9416202350912464, 0.41732901066783495, -0.026590207440625575, 0.16483127735866673, -0.02066821742476014, 0.20931554794275245, 0.10736003492837133, -0.31403482781896713, -0.13814301339540688, -0.10299101590030271, -0.11470766498951873, -0.10265283107928445, -0.0946410004479377, -0.04276429437431306, 0.0037465065409640168], [-0.0006893060092588724, 0.005309582882768956, -0.024356955065071673, -0.052642413613240395, -0.11165417538753492, -0.14428653943538897, -0.2581868188259005, -0.24773763311456698, -0.24510640641197667, -0.14572680980500058, -0.07488139141275965, 0.1484862028469376, -0.012411506253567432, -0.21914392553667952, -0.6638197945413331, -0.6169795845118133, -0.6680929837747785, -0.964403775826053, -0.981205760600535, -0.6987701860502112, -0.4307644225934707, -0.1566167365933044, 0.013474984947284805, 0.18506138730285593, 0.3414889946278832, 0.19993822606931708, 0.10794329025248331, 0.01764405136156661, 0.002860455095058648, -0.02234875849145209, -0.03599070839899041, -0.14345547555078278, -0.16828530835890287, -0.08309833318113377, -0.2298803238489021, -0.34095257789396677, -0.14709914518664013, 0.026713874995810984, 0.06522165269338853, 0.12629334958004249, -0.22796412417145454, -0.654378748378857, -0.9087578688556944, -0.8813035996826447, -1.1442431775511628, -0.9711545165817396, -1.0330390522033692, -0.6891027599499078, -0.30323207295629545, -0.2495868657467693, 0.07652039479456563, 0.5284616417840722, 0.49494680623568094, 0.3009526956546864, 0.08052458683907071, 0.020152403308308676, 0.008367638188844524, -0.014661436947477374, -0.04962671787953759, -0.11889209907201549, -0.10530978281782266, -0.07029701492202879, -0.203862634814961, 0.017586352239092565, 0.20433435840010106, 0.16039736472741914, -0.15352579234771174, -0.10773823079726107, -0.7636663928388326, -0.8196433769629137, -0.42419500947529537, -0.37793035051981594, -0.2595146835021725, -0.5734858299726381, -0.34278882013205914, -0.27711821474417436, -0.31837792987188146, -0.043329045051396876, 0.23933259181797295, 0.42448737107719603, 0.4735687573575164, 0.19032697742862298, 0.021843643063889927, 0.006301741657274748, -0.004266036642975078, -0.024687738204232642, -0.04621483304736761, -0.09123870300596867, -0.05291260011659814, -0.08748495804041824, -0.029476114035445092, 0.19057943535264338, 0.14286325467598487, 0.0811215359291722, -0.30701605373627594, -0.08582409453250407, -0.2764035183007107, 0.0059690180684543286, -0.00602387526651448, -0.0019180693941200258, -0.06721341477121995, -0.2920068342402868, -0.17391371855724977, -0.0906510146424561, -0.13837156531972497, -0.09071277943931448, 0.4209582957199816, 0.35720868921893645, 0.23203818236687726, 0.07969746247767964, 0.0606800067197007, -0.00901766939151022, 0.0007547374846435442, 0.009142191683184957, -0.010562450518955211, -0.05314356291746638, 0.03763602917170746, -0.0094668574627986, 0.08271845035499154, 0.1988044570786715, 0.28342015538247334, -0.25129430470917674, -0.31661852114621586, 0.018274050751803626, 0.20479008754472885, -0.09113694190548545, -0.008081884072350628, -0.017275767981302786, 0.24912815224637788, 0.1827243506828431, -0.24179109362451245, -0.19361450127085594, -0.03340434353182691, 0.27327647568664615, 0.15278190360427077, 0.3735194381197569, 0.22109978871717004, 0.13235140180093652, 0.06149440645470555, 0.009468864555696175, 0.004814587928179927, 0.007300502881206547, -0.010454108517028373, -0.04795448532280819, -0.03666314672854147, -0.007915022907227008, 0.055259926485447156, 0.12901809659345656, -0.10000490261957644, -0.3817674321190333, 0.03577609361948493, 0.13466974764359782, 0.5651116641046695, 0.20135692036486877, 0.07335429101294895, -0.045126303190725185, -0.10565420628091167, -0.19240451383306553, -0.4054790661222011, -0.15677566522021794, 0.1175011129710388, -0.07771046861898696, 0.1123528472406552, 0.08642606151050318, 0.07250966692337091, -0.010458797941260214, -0.007127150997513668, -0.005150819452349527, -0.0048062495007711896, 0.00562614302286858, -0.010323949945171286, -0.022739439732017894, -0.039064580773797423, 0.08630918239208295, -0.23509382833660877, 0.03764779889886329, -0.1716380728871145, -0.11937679435545928, 0.07945750325820075, 0.31979691726180814, 0.47866040362737317, 0.22359951131192904, 0.28547286181604375, 0.12606051411920166, 0.08675967432482076, -0.37372377635002296, -0.5297088475676794, -0.22882273433622663, -0.3154511360170336, -0.2100015220389589, 0.16833664537970827, 0.012816793066337796, 0.05096067538549337, -9.172634283298688e-05, -0.009074049335393658, -0.003822151682596221, -0.0050717429068894895, 0.008139434491768708, -0.007765144323332705, 0.0032142476101527377, -0.00884736792055921, -0.07368037044678596, -0.1793181064155119, 0.1412715186192844, 0.008768799796084371, -0.01955968090427039, -0.08904723595595376, 0.27538323217519317, 0.4158379678853939, 0.4130810433618497, 0.2228303071861667, 0.0035758995067458194, -0.1644597255097575, -0.048290435598796255, -0.20307228777633377, -0.1467007627414554, -0.16108618480082862, 0.10476485014232158, 0.125977893432014, 0.09442590773739384, 0.14067583608794634, 0.0483502287060524, 0.005059884260985559, 0.0091690995746877, 0.003301177507482971, -0.010054883566835225, -0.006576648195478439, -0.015608241941333022, -0.03694880551330374, -0.06715858078371197, -0.27581298618470507, -0.06594239498947786, 0.03154670614096104, -0.01342088491366383, 0.09813882787484145, 0.4124267720490615, 0.24896906098357643, 0.40826915128068475, 0.09727152188280563, -0.02089283212846193, -0.06821947005485256, -0.031334715993793616, -0.023129154172555073, -0.18585132348995256, -0.09636123518513807, -0.10341249554921825, 0.20446455868748367, 0.10131888465223444, 0.22627731921232763, 0.0310903007425606, 0.0016481425468810639, -0.006376853702392866, 0.008663422251281768, -0.009826227401219155, -0.003967221703350092, -0.019034317930501272, -0.08854066642311129, -0.03525613112708559, -0.14875256756747582, -0.2448009910585797, 0.051114422209499855, 0.07209281349337016, -0.15847212145052536, 0.2552763179750137, 0.35086209344231933, 0.29664873002661024, 0.1543394259638044, -0.06685974214934887, -0.13743694522717073, -0.61749673585041, -0.29285984072728655, -0.27077998652305396, -0.16287264893820788, 0.036121762805903866, 0.16841795837941434, 0.3521082347871508, 0.25224134858798647, -0.03568571352148364, -0.013297073306482011, 0.00285805987861845, -0.0029399460698307346, 0.004264031103797376, 0.011127571585018828, -0.0009803385305543026, -0.08508589766429162, -0.10979639536147867, -0.014926319452004308, -0.33388846917198495, -0.2445221534729698, 0.015648040832016052, 0.37393260342129864, 0.5096509924567537, 0.4850842545272041, 0.5703782867800284, 0.1712714164850067, 0.1032055446982843, -0.3378565373395003, -0.3658838177333685, -0.14402704142576783, 0.08816401496351918, 0.014508290431297335, 0.17674847176086494, 0.22579133337713944, 0.17892513865157778, 0.1337974593413643, 0.0049276636396480035, 0.012451528442536325, 0.010223609482590523, -0.009780316634972863, 0.0016625524521526169, -0.0012154039469736506, -0.0029223435694994224, -0.06314003789479694, 0.0462751721977198, 0.03563505822801804, -0.06518688799977736, -0.18036150137238777, 0.190868298710846, 0.6354869980093143, 0.5771472713469386, 0.5020868569080993, 0.15489650221365425, 0.10725428728828507, 0.0010821123368770572, -0.08459855659627784, -0.2275238397130195, 0.2193606103965086, -0.023444568728538333, 0.09700520254546391, 0.1749826704441632, 0.17608484025195575, 0.11377612521760129, 0.07272448882101065, 0.011447012774336488, -0.004996449420512436, 0.008524833825432334, -0.007632011890487669, -0.0065686009563926655, 0.012169247270416923, -0.003853589844040623, -0.030164673378527962, 0.21832925125476904, 0.3161202081852123, 0.270200007351519, 0.172498732151066, 0.27451385828124625, 0.41369439338552044, 0.4844619686770504, 0.3063782979453906, 0.2891471321196538, -0.08775007617799038, 0.07940971185075758, 0.2111339676969991, -0.1153891983103644, 0.14910034792858332, -0.053529568157823705, 0.11482362337718399, 0.1574656703342797, 0.16294688217782127, 0.15205778345126064, 0.017958874339241832, 0.0229109865880126, 0.00536466870542183, -0.0021099446616246586, -0.0033354269859451205, -0.009573459476874262, 0.013851870928946604, -0.0141101654874896, 0.05717577741574404, 0.18598300054171893, 0.3713556257684161, 0.3162127344003857, 0.4112730436210929, 0.3384557367526391, 0.15920138171394146, 0.3266021482267319, 0.6042307827569853, 0.27148904187476103, 0.25882546205354434, 0.2972663841263837, 0.3290231900869281, 0.2617280005432559, 0.3010751267868187, 0.07834416362935281, 0.17903616399803252, 0.16208223330103325, 0.21693447621560552, 0.1608564937475066, -0.006886602903878971, 0.019666114097041318, 0.006717224164759151, 0.001707376576156257, -0.00020388423949342996, -0.009244160706405236, -0.00021106995284770648, 0.05014793257030072, 0.08505615276537096, 0.23158325035457042, 0.3698784599997213, 0.490923336232772, 0.44610124467067674, 0.36934436292181044, 0.40425320551354055, 0.5201269687244555, 0.495111016674937, 0.11477356437436993, 0.14639753758044383, 0.18726667396601163, 0.21486009155943908, 0.2384550343241324, 0.3552827440679866, 0.3886978407767181, 0.4497203070414745, 0.28298181188613114, 0.19994104854351838, 0.09885738763863583, -0.03078931886446045, 0.015438369380502939, 0.007440279263223726, 0.00243269681679218, 0.001694512994402578, 0.0006402962863394871, 0.015803444512360963, 0.05873761964306483, 0.07760683465988823, 0.3641909238064766, 0.3361309684031612, 0.41224596937168, 0.5323637422660455, 0.35343752302693926, 0.239520466242784, 0.18878244461285035, 0.20369542633528676, 0.3737042379290516, -0.01917047150915821, 0.00842286891241567, 0.2673964856387889, 0.5234298741853675, 0.4911437747791863, 0.5661377717221318, 0.4121706762629535, 0.20877601621140435, 0.056549523563139456, 0.023903861163535343, -0.021186368725577512, 0.014312027916094662, -0.007636299699988689, 0.009657597498410575, 0.0032556671730687246, 0.00972823931873282, 0.01742090284179493, 0.067707512029063, 0.15161372283899022, 0.2681710714503508, 0.1193701229625894, 0.15143714080509035, 0.25165974011160486, -0.016491367177942237, 0.15127764263742724, 0.15372625158215578, 0.20687931577509994, 0.25025386247775766, 0.12669255229401039, 0.18800312001275035, 0.355210284852275, 0.5666549303807151, 0.7194182080938196, 0.5432407197955184, 0.3056703318183142, 0.1303174448444211, 0.10879028769471831, 0.03189211415426647, -0.011701161164728507, 0.008011825142522204, -0.0010783464289810913, 0.0024541161864608443, 0.004433970671928054, -0.007292567366482417, 0.016575967487539176, 0.055670213068918936, 0.11315550148021329, -0.035037551489559886, -0.10687252796079476, -0.23504473760791803, -0.054214857204652585, -0.09482081205325882, 0.04922580953345201, 0.5094422048836781, 0.3116420124186071, 0.20072195782323077, 0.38187226625966136, 0.42610248006530577, 0.3791516587980848, 0.6074975745199759, 0.7773014447380818, 0.6284575929582958, 0.18447949834269836, 0.19199969877642517, 0.1373201741471439, 0.03291890923946489, 0.016214089186347324, 0.01566379989160546, -0.0039077455783339266, -0.0008247083307512618, 0.009495424744634563, -0.004268637605173105, 0.0038016768162719033, 0.07242555975548641, -0.05235024478677624, -0.34243621532717616, -0.43038287713624235, -0.19664763383374143, -0.018645434140985136, 0.46952633504839064, 0.8090633395772021, 0.7603404128010939, 0.7046073715083888, 0.8058158369439071, 0.5996145393757277, 0.5531103549113061, 0.09793829939207122, 0.11543729913412668, 0.3429046442489409, 0.4013050087372955, 0.27315099895011524, 0.1621060666204699, 0.05786412710473985, 0.059026785628546526, 0.04007712422703138, 0.02795485783837513, 0.009795802178278835, 0.007691458440664609, 0.008260370410668074, -0.007442109665388912, -0.0022983028579715023, 0.013355353448056224, -0.15905658219048346, -0.3978860244154469, -0.42595184394728386, -0.2572600531171994, 0.03473046388682181, 0.5843396577097227, 0.6703031673896156, 0.22137233265904036, 0.23912987511984965, 0.4113806428307518, 0.268818171358535, -0.011852316387356497, 0.016644631318824595, 0.017432068895588813, 0.1282304416389569, 0.32071002338948074, 0.3258071774687418, 0.1385453087664733, 0.04617861136173371, 0.0617196145621144, 0.008471734700727295, 0.02678665081081169, 0.0055863354643745575, 0.008377573652457391], [-0.0041447783628399855, -0.009398072736355796, -0.010534165483160492, -0.05326961065476042, -0.14800887858392814, -0.23133970666112336, -0.2579330185839529, -0.2996122687398042, -0.2009161690527836, -0.30831396916923115, -0.3471119764833613, 0.010221496771599923, 0.22677941863838352, 0.5551386414865204, 0.45670982836049806, 0.8809665780859304, 0.46065284449858274, 0.19513617218703888, 0.07992995597612253, 0.1898896200492744, 0.030829133564132288, -0.24123417224206772, -0.4182647207470706, -0.09274224375208745, 0.006568319321701375, -0.0025148506107726485, 0.015474697464420564, -0.0001264573186581469, -0.00929911222651005, 5.1976250347284746e-06, -0.014108690546294314, -0.1106458271967258, -0.23235977291722498, -0.0463081993294402, -0.09681247975543118, -0.2585305173114391, -0.08435717621235171, -0.038160715618605026, 0.25590526180107087, 0.4258026818055241, 0.43485642950950826, 0.6088787374022713, 0.6189550147772213, 0.8839224916348727, 0.8869776827037851, 0.5174538030870462, 0.3104279637149214, 0.22348410036801594, 0.13250266224327387, -0.2592798721628941, -0.24672467364114234, 0.003799527655650124, 0.036135759390815154, 0.051224568035501884, 0.006739253208984331, 0.012945897188829334, -0.005903100578962276, 0.008988923219250558, -0.002833831787941815, -0.06073115130842689, -0.20407742392962233, -0.24950530905160764, -0.28850411169672036, -0.32803910878617826, -0.2032053702520767, -0.14131752798373262, 0.015844819105095807, 0.26155818062823727, 0.3063050543799929, 0.47723424656557045, 0.5155669877389707, 0.3967678204624385, 0.3968020796388186, 0.6779222966581688, 0.5380793713527613, 0.03337278459178544, -0.20151736801230294, -0.2535820359997956, -0.030728487370207825, 0.09269996630087335, 0.1313847612807744, -0.0014024927183883798, 0.07134911011355431, 0.039594838346350934, -0.009877196531274609, -0.011886552042483954, -0.022615364428221114, -0.033129377725252554, -0.10352513080070609, -0.48161355829545505, -0.4796233023439725, -0.46992783797529347, -0.3636128015074068, -0.1297220043769135, -0.01362545770990928, 0.18129338182943874, 0.3267234008907656, 0.3694528559763597, 0.18155211197995255, -0.13208088815492672, -0.4482595980775899, 0.1837786553964536, 0.36790961620441004, 0.10009628882546022, -0.17246704770437124, -0.11966185933231725, 0.11850170963921117, 0.11274026288409375, 0.10663182249337115, 0.03872585873088556, 0.07146257380869557, -0.0028209808502172766, 0.0015229404017843822, -0.009249452130606935, -0.01780060546333411, -0.050732224700268835, -0.03750963785409313, -0.38198114795355537, -0.47427722744960754, -0.4095096442884001, -0.18210559948679694, -0.30686471513113245, 0.15638041794064006, 0.38187288602980257, 0.13112187755376536, -0.044625590886690575, 0.16785825314913327, -0.22880157182449412, -0.3130569368751633, 0.11823188109269203, 0.1698564885121116, 0.061004635346975436, -0.06735681497419045, 0.1613332453913613, 0.2537922421529449, 0.1237840351250954, 0.08639577778057822, 0.04978735701163681, 0.040704243847568405, 0.009244718051072366, -0.0020795876698541573, 0.0038965714702499606, -0.006450164148776158, -0.016620459180000047, -0.04813789629176973, -0.18946577803892553, -0.20798350185496775, -0.15443125196381371, -0.374063693320762, -0.08871826271047602, 0.06173347458252408, -0.06904993931450724, -0.21069316186249862, -0.18435054432897036, -0.06268727861858485, -0.06392465917681275, 0.01126932747396041, 0.37079133742515485, 0.27691478107790896, -0.07084125965865144, -0.08296538360491863, -0.1736191207836317, 0.12829498880414067, -0.01091271727331267, 0.0801876779620147, 0.00820640817554842, -0.009062685518322539, -0.0034903648986243565, 0.006529695546123289, -0.0032380671332398834, 0.0024897467784712884, -0.02885051380897076, -0.13493713337192625, 0.0145452196559293, -0.26801500411858, -0.21735583237072448, -0.20546043834580877, -0.11079042102857753, -0.2016037904904526, -0.16956367760831417, -0.23910295010535781, -0.30914430796734094, -0.04085827542964559, 0.0005398558624828472, -0.0070918399394302774, 0.07968292399277428, -0.1822248912449322, -0.24277010098836055, -0.30329306898527175, -0.19050799958415238, 0.0017444629121618454, -0.0027627832364531878, 0.147811417029166, 0.0032846448259511323, -0.0007420437022683141, -0.0025017396001487465, 0.001252672874283458, 0.0047080113307750564, -0.0045807447354188294, -0.031483522305466985, -0.20680478675301484, -0.2617782572132519, -0.42628486829714285, -0.2217647885611969, -0.2099199296440104, 0.04267252199599336, 0.08438799484806929, 0.12708003920983107, 0.2072710949650323, 0.2853926950369455, 0.07825421023761822, 0.2913400774676996, 0.1249974551315879, -0.20776626456094566, -0.3448775254324933, -0.27067460961880996, -0.31425662504793955, -0.24073478554234476, -0.020238673050807954, 0.25785862706129986, 0.3475163268511515, 0.0590918126914909, 0.034968328477550666, 0.005690813921420057, -0.007781797891514686, 0.004198534816968639, 0.0059213157305333325, -0.043229471582709296, -0.29141340730156057, -0.23959078342150486, -0.3386012114033561, -0.22455440255640724, -0.044242830409832644, 0.27117150751980973, 0.44871799461832845, 0.38629396934946164, 0.36922139474188814, 0.4326586092346831, 0.40487576641882755, 0.18028189199778274, -0.16098064949237578, -0.2080887347465143, -0.17358997903484266, -0.47167855424469685, -0.28048403494580776, -0.3894257197832218, 0.015276938288974636, 0.196040494696176, 0.37018751392030014, 0.07982262694189604, 0.026184068054025584, -0.0008978632163924843, 0.009503231265926499, -0.007723429705444858, -0.003128216283437036, -0.056687270042788236, -0.22887705275661302, -0.08636590171619342, -0.22839302129564598, -0.3180381894576034, 0.07697097921879675, 0.32700649559134864, 0.42261580421391265, 0.641920307659036, 0.7503899930526275, 0.4438609930606178, 0.4614182776963183, -0.02796710505628762, -0.2602621141327514, -0.02316257783218298, -0.022750797811048287, -0.5569215647258042, -0.4040474435935713, -0.27837586954549104, 0.09317955343230822, 0.4812178507368644, 0.43981207354635116, 0.11876996807874282, 0.08316043837263307, 0.008308076018844217, -0.0058566182398500114, -0.009359500664766192, -0.004283319668194548, -0.007075553829449535, -0.1887227029712657, -0.014698060198403574, 0.08385142657024922, -0.1304145551385441, -0.08560775797838993, -0.023244783750950588, 0.15767695072731505, 0.5240307843820398, 0.43245684569199466, 0.38357478154154506, 0.18261817565671642, -0.20488090564981587, -0.23163024045844982, -0.19761186258505198, -0.1859165617944173, -0.40244674418275306, -0.08166154935592915, -0.07803887373378074, 0.2868089014076327, 0.48680421278029246, 0.5983670571672922, 0.2057362241313939, 0.09831516576536493, 0.02385186358100006, 0.0003082754298490368, -0.005000929274648936, -0.004565572949008533, -0.009095546984452132, -0.03429828296078434, 0.14801251316478242, 0.3193994534356254, 0.32002299218161884, 0.10199045148167159, -0.07086156828503663, 0.1438045164331981, 0.43469922065357036, 0.44847244624588345, 0.21584535471695868, 0.08938646827006172, -0.39831561129475196, -0.33003982422818484, -0.3690614380950729, -0.35160084726414204, -0.24970371027496005, 0.36362772717459807, 0.27065541304104196, 0.3989145402305205, 0.35601397541776036, 0.41342291066524606, 0.12073088800785062, 0.0494985571101307, 0.006459413064589471, 0.009428601370149546, 0.0037728429637451585, 0.0036592045884181416, 0.06873873445286884, 0.12601678599400826, 0.21204640016625256, 0.27407946215036627, 0.3543425616387373, 0.24887042760450592, 0.2244397871267111, 0.26525168570640134, 0.5497811547195636, 0.23859468393333033, 0.26809782878881583, 0.010431988969433205, -0.3163805068143567, -0.333719197451638, -0.2747204070780924, 0.013168499900682194, 0.2857038855143353, 0.5671992547575578, 0.6242902633420674, 0.511453401650021, 0.32154046095809774, 0.2240067396558117, 0.03321022432757715, -0.009099216749777768, -0.005220785222204713, 0.005303066841165691, 0.0010572278098923953, -0.0042140377437398105, 0.0578846962761406, 0.1255247011743596, 0.15032836870731695, 0.19869159316304222, 0.22961930410318565, 0.27575453186736604, 0.3808450928638262, 0.40014964998477814, 0.4327405418130834, 0.6291608782709839, 0.36199661735751343, 0.3563089755845215, -0.362925041821999, -0.28119843613455014, -0.06987701304931608, 0.07183959467801558, 0.1393963734654752, 0.4183708985731387, 0.27060359411787543, 0.5169425399715307, 0.27782184884232064, 0.1581380252036388, 0.0322265682605455, 0.004952641513725294, 0.008459836092360038, -0.0070626046367750295, -0.004068770919739291, -0.005882042666798625, 0.12987750740495818, 0.2123760054999464, 0.1511160069826206, 0.2942016397089515, 0.19709832042588502, 0.26166853434836246, 0.4502256791631073, 0.40444076285393515, 0.43954852840096614, 0.8340558153780804, 0.5093319884887849, 0.09276557125753869, -0.5513904291659203, -0.20593271986744013, -0.17855869209620373, -0.22293989259893607, -0.20334126454921478, -0.0020126399010057627, 0.18922232596080382, 0.3032442566339364, 0.2605379278304728, 0.019068678314928797, 0.034601977699296474, 0.004673750101167373, -0.005779835244405228, 8.962944743397608e-05, -0.006956138269352293, -0.003910634789730503, 0.13277909279023334, 0.229103470641563, 0.17056050692136732, 0.34033161864486694, 0.36933896284166307, 0.45215896331260663, 0.31305564037707123, 0.4262862039030498, 0.49367141128918113, 0.4838390925385408, 0.3621571000936298, -0.27080777955260305, -0.5363747659805631, -0.1054542349150035, -0.1820349725351171, -0.37515284619616357, -0.2722521622279646, -0.09193595759685697, 0.09295555536723317, 0.22163202914440797, 0.28863133910859445, 0.032341779448409054, 0.02429574192058504, 0.010278248627341321, -0.006322389489609458, 0.002941281786860298, -0.007470079436002726, -0.013915237996891431, 0.10579833670470681, 0.28896715715278604, 0.36294475684208605, 0.39780064528885134, 0.3380619501694624, 0.25259739258992575, 0.08106244169376613, 0.26589489140898004, 0.40142108577334834, 0.31943411340703753, 0.08569127014647077, -0.4351166605801485, -0.472421343430806, 0.07772043298500364, -0.04159597220570969, -0.2269675437054356, -0.25832012540572036, -0.2014508020235418, -0.06582003947713641, 0.2648815285939176, 0.30125605208318895, 0.04387542051453545, 0.013735003206709557, 0.004592630013045407, -0.003515731377241596, -6.797783284612224e-05, -0.003901205264707128, -0.0199416854919349, -0.030102636211319908, 0.040652904070842676, 0.2609827925440924, 0.3078946222228025, 0.17170801275441785, 0.1590951747881238, 0.019878946108086278, 0.2606246874608069, 0.12986377133448843, 0.24585825053352203, 0.11699529643915133, -0.2590475462172444, -0.33208655561758116, -0.05690436295660384, 0.1978307635161069, 0.42515713145766115, 0.1862722304795026, -0.15321216248940075, -0.04187044150998027, 0.19983817047438743, 0.1866665274565592, 0.06757889037660006, 0.04159997569614761, 0.008965932193258065, 0.0008164927209360923, -0.004663910332844077, 0.0034042457430970875, 0.0007058218496834209, -0.03184761629559805, -0.005975381823701675, 0.10239749770309947, 0.10732877870839196, 0.08202165114017067, 0.04749373241979466, -0.08375674416234989, 0.2806965948048608, 0.34166000089750675, 0.3456993428631907, 0.19156783738263644, -0.20327401108357934, 0.004176426423274368, 0.15331133619113183, 0.2750455347349939, 0.36490778362377, 0.1040593652189468, 0.04969110387926086, 0.14554671474000766, 0.12230378938864313, 0.13753004717255454, 0.14109461331529774, 0.09691104250243364, 0.0770042017449865, 0.0072851230127047775, 0.0011675674696406402, 0.00042358004628349766, 0.008532383615841051, -0.01654928518487393, -0.011190212095883017, -0.020785148550775647, -0.039940675820020914, -0.03333788178024852, -0.013839534174215172, 0.14908170212149827, 0.03419465646120919, 0.12072797709784232, 0.19032912538745111, 0.14935676464762984, -0.0640143974940193, 0.02352095220779575, -0.10381030919237949, -0.2371683083302965, 0.02405792905222417, 0.0746900968047859, 0.08274900770454241, 0.133724737236575, 0.20386674293038895, 0.15726097625670063, 0.11162554489737381, 0.12977100650256326, 0.079782899521386, -0.0001928668824960119], [0.009462992244730623, 0.007545109333938595, -0.0028285497393335567, -0.0027712971268438404, -0.024346723684288907, -0.05912656247565827, -0.07147515753972461, -0.11745321851341577, -0.056309104795952115, -0.03575436266772455, -0.15961469008471357, -0.2107892152578797, -0.3633027637753609, -0.2747952051433489, -0.20464896819300304, -0.16563660901907468, -0.18036083238328587, -0.14923916709861434, -0.3526324458210753, -0.36647159936108975, -0.2048663466002418, -0.28659743278000455, -0.13694552415306768, -0.017059977745454497, 0.049322977018898304, 0.059609093207624246, 0.031028799214370965, 0.0014450816727904123, 0.006107966014871428, -0.00464654957663612, 0.004057333459918407, -0.027023234599762885, -0.045066056433314045, -0.06516772735106431, -0.11148164933904572, -0.1569361485506293, -0.14136319420024485, -0.26213308473521313, -0.2078989642370251, -0.3409159683625901, -0.37424224554117175, -0.2056057191130219, -0.27689734786394093, -0.35923879007684445, -0.298782613300504, -0.22814687292333705, -0.37528621019144154, -0.5566297494288174, -0.3400564793173427, -0.31135402769279213, -0.1326373552867733, -0.04488460525555248, 0.04188560877912104, 0.1214288977019615, 0.07384258301831988, 0.031889210436978024, -0.00021649374517858434, -0.007006086415186273, -0.013157645642108145, -0.02936139723643435, -0.04985421384772451, -0.09088431863048851, -0.1123067055214859, -0.16751631703935865, -0.2350832457735073, -0.19811301178128066, -0.14490318737768232, -0.20228859235098, -0.3152030312195121, -0.15981909412186168, -0.0594169279307096, -0.20125023173160467, -0.19489219319432646, -0.26957088665834966, -0.32318217104959057, -0.23176540818350846, 0.07532230884555191, 0.0223021819191052, -0.019306059081100176, 0.09811578377088118, 0.05523655675899391, 0.0770983319157909, 0.06763950739566031, 0.0209849368970559, 0.0038622242470296355, -0.0020276291173865527, 0.005054799255019464, -0.025483339458011945, -0.04532782561363162, -0.05886227209133499, -0.07041118988530877, -0.13028317320793908, -0.12841393804577625, -0.06083129431585711, -0.1058245972816883, -0.305245535854195, -0.2812986787203031, 0.2407550571800224, 0.2340455093790625, 0.17337144196939155, -0.07965127149832106, 0.13611363659506248, 0.23716097805478595, 0.2343295836149577, 0.14380156184618686, 0.16583385282193744, -0.027440735509169104, 0.0477432991241001, 0.07341338687839538, 0.043306911361909256, 0.037499440490915484, 0.0005077913536826947, -0.0012032028654343808, -0.0012229308285898641, -0.003565132741096725, -0.016282170518858823, -0.021786087705351908, -0.06278614985593563, -0.1439725281628127, -0.15135545151424049, -0.038241109892423436, -0.13418777580165533, -0.35972418328644157, -0.28976000992951, -0.16793712645299902, 0.0035059912865301785, 0.14276425144119753, 0.11185208837752361, 0.15671767214187526, 0.3282724028760172, 0.3000865406621104, 0.35499870989720295, 0.010013218127045954, 0.16534466622337987, 0.06437845257561606, 0.08167457707156907, 0.09088398169204862, -0.03214795330848714, 0.003655641356225906, -0.009254149334811366, -0.005206696086859843, 0.00896942561318016, 0.00018643843839649953, 0.0020676340682323933, -0.03736078282773642, -0.02053549951340964, -0.114248492889029, -0.17876119021831885, -0.09141925116360486, -0.1779392711354191, -0.4021487397919581, -0.47905453044340685, -0.2043250171298724, -0.1192116022343879, 0.043347412693679824, 0.11289689116741583, 0.013271761367596955, 0.3330596317700829, 0.3761636333972704, 0.4187869602165065, 0.22999270968809152, 0.25272464762699615, 0.1727680878287796, -0.0649161598887965, 0.012989748616155298, -0.055577551982411294, -0.0010510876922980167, 0.009321247477556199, -0.008536141314371568, -0.009089603084605824, 0.0018884447240293226, -0.013983949300761675, -0.025949102820229462, 0.010063196585436834, -0.02773534462789908, -0.0812699229552227, -0.007972033370080959, -0.11187549824369189, -0.2875757969030887, -0.274894919895102, 0.024751286880929525, 0.14678327867514915, 0.2937318509217654, 