[[-0.33884727524019326, -0.34124832451371406, -0.34371688712136855, -0.34623955392030853, -0.35174177956480385, -0.3373994061736345, -0.34804471177407875, -0.34003056396381853, -0.3382528683079794, -0.33453354978465966, -0.33491974580300093, -0.3415860019828124, -0.34068166795807825, -0.3412635771309855, -0.34450211962706334, -0.3385511213639052, -0.34080268011843606, -0.3449120608290066, -0.34062523298228525, -0.34848091384191426, -0.3392308482341164, -0.33679441325180365, -0.3452841610304785, -0.3341002290760832, -0.335742881141658, -0.3385421152159269, -0.34050091778944475, -0.34139148893634513, -0.3452330364222423, -0.33705627484603934, -0.3323170390195535, -0.3393663189931391, -0.342485544842968, -0.33892734796810886, -0.33858925597112177, -0.33469924886196123, -0.33058230729638477, -0.33902283014880014, -0.3449121374023211, -0.34433657498543674, -0.33963157094843477, -0.3478135426298436, -0.34189810180615116, -0.33522617792153697, -0.3410876851812044, -0.34425217705928696, -0.3469800843767972, -0.3370125719490879, -0.3338729193914381, -0.33758927220966917, -0.3363997927984284, -0.3420019950427461, -0.33936885575380127, -0.33469922234668714, -0.3435260219460564, -0.33734615526624284, -0.3451152321831027, -0.34341125165327585, -0.3430292140889385, -0.3305318233279277, -0.342676139028864, -0.34837311148407696, -0.3397214083484986, -0.3367598490655397], [0.3427289664105106, 0.3405251682728316, 0.3388051229468584, 0.3288649354037893, 0.33439575660431153, 0.3445354445486261, 0.33185786140804635, 0.3398733547371775, 0.34167976941104844, 0.3417044276306019, 0.3403529651077369, 0.33844795067784067, 0.3330642280375768, 0.33823206118277593, 0.34044849830927304, 0.3444582898206665, 0.34209917571300424, 0.3402279669153847, 0.339535589676391, 0.33052792999121877, 0.3363478674160965, 0.3427907616020754, 0.34235438943627305, 0.3406045600274935, 0.3408979946724415, 0.33894267925014143, 0.3344233646761435, 0.34839499351026393, 0.3373946380566205, 0.3384495422191352, 0.3477792679663197, 0.34426902773894175, 0.3398302525772684, 0.33941460056431294, 0.3369341174909699, 0.34069157784855075, 0.3448645768898142, 0.3440380999642952, 0.33739947197538933, 0.3349670723760854, 0.34323547811539434, 0.3385981899615856, 0.33132363631205614, 0.34077586593580717, 0.3442181329830833, 0.34105317971995075, 0.3336682028235178, 0.3372143524908262, 0.3445647527473198, 0.34245929644312706, 0.34988250512200786, 0.3326308430713104, 0.34075382753396743, 0.3381098730982543, 0.33598394864020276, 0.34325096175108327, 0.3341126691849178, 0.33889830924122477, 0.3448146757395463, 0.34840736379529735, 0.33722078709925335, 0.34164696459252336, 0.3420288723540354, 0.34436342210692733]]